tree
version=v4
num_class=1
num_tree_per_iteration=1
label_index=0
max_feature_idx=66
objective=quantile
feature_names=field_investigator_id sector district vintage_years digital_adoption upi_adoption_start_month loan_taken_in_dataset loan_amount loan_tenure_months loan_start_month_offset rainfall_index milk_price_index poultry_feed_price_index raw_material_price_index retail_demand_index local_disruption income_lag1 income_lag2 income_lag3 income_lag6 income_roll_mean_3 income_roll_std_3 income_roll_mean_6 income_roll_std_6 expenses_lag1 expenses_lag2 expenses_lag3 expenses_lag6 expenses_roll_mean_3 expenses_roll_std_3 expenses_roll_mean_6 expenses_roll_std_6 net_cash_flow_lag1 net_cash_flow_lag2 net_cash_flow_lag3 net_cash_flow_lag6 net_cash_flow_roll_mean_3 net_cash_flow_roll_std_3 net_cash_flow_roll_mean_6 net_cash_flow_roll_std_6 net_cash_flow_trend_slope_6 share_negative_ncf_trailing_3 share_negative_ncf_trailing_6 savings_balance_lag1 missed_or_late_count_trailing_3 missed_or_late_count_trailing_6 upi_inflow_txn_volume_lag1 upi_inflow_txn_volume_roll_mean_3 upi_inflow_txn_volume_roll_std_3 upi_inflow_txn_volume_roll_mean_6 upi_inflow_txn_volume_roll_std_6 upi_outflow_txn_volume_lag1 upi_outflow_txn_volume_roll_mean_3 upi_outflow_txn_volume_roll_std_3 upi_outflow_txn_volume_roll_mean_6 upi_outflow_txn_volume_roll_std_6 data_complete_lag1 data_complete_rate_trailing_6 emi_due_at_origin has_loan_at_origin month_sin month_cos known_emi_magnitude known_emi_next_3 known_emi_next_6 debt_service_ratio_3 debt_service_ratio_6
feature_infos=-1:0:1:2:3:4:5:6:7:8:9:10:11:12:13:14:15:16:17:18:19 -1:0:10:8:9:5:6:4:11:1:7:3:2 -1:14:21:26:4:11:12:23:0:2:27:3:17:13:18:5:1:24:7:6:10:19:15:16:9:8:20:22 [0.10000000000000001:25] [0.10000000000000001:0.94999999999999996] [0:14] [0:1] [0:366868.67999999999] [0:48] [-36:22] [5:141.5] [95.099999999999994:113.59999999999999] [92.700000000000003:105.5] [92.599999999999994:113.2] [72.099999999999994:109.7] [0:1] [4879.2200000000003:188189.67999999999] [4879.2200000000003:112748.75999999999] [4879.2200000000003:112748.75999999999] none [5867.2833333333328:124357.11] [183.26512606967319:76703.76796262509] none none [2957.8600000000001:135256.14999999999] [2957.8600000000001:76769.660000000003] [2957.8600000000001:76769.660000000003] none [3370.2166666666667:89099.493333333332] [23.006912729294559:55278.785854862072] none none [-16780.349999999999:63022.269999999997] [-14814.370000000001:45352.019999999997] [-13674.85:42869.470000000001] none [-12889.68:45485.146666666667] [81.820117330642248:21731.950039244824] none none none [0:1] none [3697.8200000000002:49812.43] [0:3] [0:3] [0:58965.230000000003] [102.81333333333332:24499.736666666668] [4.2239831123399556:30719.89284962813] none none [0:31668.09] [0:22012.453333333331] [0:12174.259378413948] none none [0:1] none [0:28602.98] [0:1] [-1:-0.50000000000000044] [-0.50000000000000044:0.86602540378443837] [0:28602.98] [0:85808.940000000002] [0:171617.88] [-1.8236586320570081:7.5224817787259974] none
tree_sizes=1327 1399 1399 1415 1405 1408 1406 1431 1412 1400 1417 1406 1426 1425 1421 1404 1423 1422 1412 1405 1423 1427 1390 1421 1417 1412 1427 1411 1424 1426 1436 1408 1421 1416 1415 1403 1398 1428 1417 1406 1424 1399 1425 1409 1398 1422 1408 1424 1422 1401 1397 1417 1419 1410 1424 1415 1412 1409 1424 1412 1413 1424 1405 1411 1416 1408 1423 1410 1426 1420 1408 1405 1422 1430 1425 1390 1414 1424 1409 1391 1424 1437 1410 1427 1429 1415 1417 1429 1425 1427 1422 1422 1433 1426 1422 1426 1423 1424 1420 1449 1418 1430 1429 1423 1434 1429 1411 1450 1415 1431 1426 1419 1414 1432 1442 1434 1431 1431 1419 1423 1444 1425 1434 1426 1425 1426 1440 1439 1426 1414 1418 1424 1428 1416 1423 1428 1433 1429 1371 1434 1430 1431 1413 1448 1448 1389 1444 1410 1430 1425 1413 1412 1442 1448 1415 1406 1417 1406 1411 1443 1431 1443 1445 1433 1404 1420 1416 1416 1442 1419 1426 1414 1436 1457 1426 1432 1433 1431 1428 1407 1417 1432 1435 1411 1437 1426 1433 1413 1405 1417 1420 1430 1439 1405 1425 1433 1397 1436 1429 1421 1422 1407 1446 1423 1429 1412 1456 1431 1404 1450 1407 1440 1429 1422 1407 1443 1436 1442 1443 1435 1451 1445 1420 1437 1437 1418 1436 1428 1406 1390 1413 1415 1417 1457 1424 1442 1436 1434 1440 1438 1439 1417 1432 1450 1429 1419 1440 1419 1445 1432 1430 1414 1455 1427 1430 1425 1419 1402 1414 1421 1414 1408 1434 1443 1441 1457 1436 1400 1429 1422 1423 1404 1443 1456 1451 1457 1434 1434 1428 1419 1413 1425 1430 1444 1429 1447 1423 1436 1409 1440 1451 1447 1419 1407 1433 1405 1426 1425 1435 1413

Tree=0
num_leaves=15
num_cat=0
split_feature=58 9 32 7 44 6 9 8 9 17 52 10 7 24
split_gain=40.5932 10.9235 5.2718 4.33929 4.12857 2.90586 3.92924 4.39923 5.56818 1.73571 1.45169 0.981818 0.55 0.497937
threshold=7423.5800000000008 -6.4999999999999991 1577.7 112733.78000000001 1.0000000180025095e-35 1.0000000180025095e-35 8.5000000000000018 15.000000000000002 6.5000000000000009 31477.270000000004 1602.6883333333335 60.900000000000006 173964.33500000005 10054.590000000002
decision_type=2 2 8 2 8 2 2 2 2 10 8 2 2 10
left_child=2 4 -1 -3 -2 -4 7 8 -7 12 -9 -10 -5 -12
right_child=1 3 5 9 -6 6 -8 10 11 -11 13 -13 -14 -15
leaf_value=9235.2302887843744 10824.798350824092 8147.7424151154828 10600.240608252712 6678.517198033911 7797.1250944510011 6509.4922488648917 11083.507413318113 9260.8444324720494 10697.679629580067 7707.6451075307741 9654.1957943126836 9056.8090323814013 6041.1025251987885 10379.41420813834
leaf_weight=27 35 24 890 44 35 36 228 20 24 20 69 20 20 100
leaf_count=27 35 24 890 44 35 36 228 20 24 20 69 20 20 100
internal_value=9841.77 9841.75 9841.77 9841.74 9841.76 9841.77 9841.77 9841.77 9841.76 9841.73 9841.77 9841.77 9841.73 9841.77
internal_weight=1592 178 1414 108 70 1387 497 269 80 84 189 44 64 169
internal_count=1592 178 1414 108 70 1387 497 269 80 84 189 44 64 169
is_linear=0
shrinkage=1


Tree=1
num_leaves=15
num_cat=1
split_feature=32 58 64 44 6 9 1 4 9 7 17 8 16 3
split_gain=33.2 8.36818 6.48634 4.43841 3.35355 4.1109 4.70939 2.76866 2.7 2.66912 2.5 1.39457 1.36883 1.32469
threshold=1867.7900000000002 10580.730000000001 26656.640000000007 1.0000000180025095e-35 1.0000000180025095e-35 8.5000000000000018 0 0.31500000000000006 2.5000000000000004 214873.27500000002 8336.9350000000031 10.500000000000002 22307.835000000003 7.1500000000000012
decision_type=8 2 2 10 2 2 1 2 2 2 10 2 10 2
left_child=2 4 -1 -4 -2 6 7 -6 -9 -3 -10 -8 -5 -13
right_child=1 9 3 12 5 -7 11 8 10 -11 -12 13 -14 -15
leaf_value=-321.51806253414037 735.95801304259169 -3544.2438003917655 -168.38806374937263 -2977.6178703884516 -301.13220721781749 1179.6500602303324 -2073.4495932946306 -3024.1376143658572 11.786959113108061 -1479.3680065863578 -795.44634168060975 824.05273089949958 -2847.7421715856408 -450.45488311335288
leaf_weight=28 889 27 23 40 46 228 22 20 20 24 20 140 29 36
leaf_count=28 889 27 23 40 46 228 22 20 20 24 20 140 29 36
internal_value=0.000288945 0.00235054 -0.025 -0.031413 0.00306474 -7.51878e-05 -0.00388158 -0.0118103 -0.02 -0.017549 -0.0125 0.000913462 -0.0377536 0.00244318
internal_weight=1592 1472 120 92 1421 532 304 106 60 51 40 198 69 176
internal_count=1592 1472 120 92 1421 532 304 106 60 51 40 198 69 176
cat_boundaries=0 1
cat_threshold=3146
is_linear=0
shrinkage=0.05


Tree=2
num_leaves=15
num_cat=0
split_feature=32 58 64 9 24 6 9 8 14 8 43 17 32 16
split_gain=29.7676 8.74924 6.61193 6.29835 4.50369 2.29818 4.15241 7.41432 1.52251 3.0119 1.26903 1.13019 0.934444 0.258511
threshold=-818.4649999999998 4458.045000000001 47473.215000000004 -6.4999999999999991 21715.900000000005 1.0000000180025095e-35 5.5000000000000009 15.000000000000002 102.40000000000002 27.000000000000004 5409.2900000000009 15856.020000000002 -398.71499999999992 23725.005000000005
decision_type=8 2 2 2 10 2 2 2 2 2 10 8 10 10
left_child=2 5 -1 10 12 -2 7 -7 -9 -10 -3 -8 -5 -4
right_child=1 3 13 4 -6 6 11 8 9 -11 -12 -13 -14 -15
leaf_value=-691.05736792518348 673.59309868283617 -761.47232834502529 -2852.6126221677277 -1883.2427134424445 -394.89475564885265 -3139.1993330051137 -309.68470165864568 607.96372345087991 -505.29040576665477 578.53863755837494 487.36914517895724 990.09746289660256 -3170.4711581872116 -2881.0054857033183
leaf_weight=26 892 30 27 25 31 35 28 72 21 23 62 280 20 20
leaf_count=26 892 30 27 25 31 35 28 72 21 23 62 280 20 20
internal_value=0.000571608 0.00207044 -0.0306164 -0.00869048 -0.0193421 0.00340859 0.000533769 -0.00625828 -0.000172414 -0.0075 0.000108696 0.00386364 -0.0294444 -0.0418085
internal_weight=1592 1519 73 168 76 1351 459 151 116 44 92 308 45 47
internal_count=1592 1519 73 168 76 1351 459 151 116 44 92 308 45 47
is_linear=0
shrinkage=0.05


Tree=3
num_leaves=15
num_cat=1
split_feature=32 58 64 6 9 8 9 58 18 33 1 43 7 16
split_gain=30.1888 7.19952 6.61193 4.01025 4.31713 5.24212 6.23101 3.025 2.42749 1.70858 0.991146 1.14872 0.873247 0.561194
threshold=-818.4649999999998 17085.440000000006 47473.215000000004 1.0000000180025095e-35 8.5000000000000018 15.000000000000002 2.5000000000000004 10874.355000000001 20765.540000000005 12330.720000000003 0 13870.100000000002 137833.79000000001 24557.280000000002
decision_type=8 2 2 2 2 2 2 2 8 8 1 10 2 10
left_child=2 3 -1 -2 5 6 7 -5 -7 -8 11 12 -10 -13
right_child=1 -3 -4 4 -6 8 9 -9 10 -11 -12 13 -14 -15
leaf_value=-656.50449952892438 639.91344374869425 -3658.71543032926 -2709.9819907019987 -3621.4866437434098 1080.6497421458098 -398.02258577056523 -857.44659480430937 -1554.7262900936619 -30.262579861405836 598.82850374994928 520.1325486296837 -240.48750054974295 -1275.6414468328326 122.54603945116472
leaf_weight=26 892 20 47 20 228 21 28 20 28 36 137 20 22 47
leaf_count=26 892 20 47 20 228 21 28 20 28 36 137 20 22 47
internal_value=0.000791457 0.00230086 -0.0306164 0.00269847 -0.000436573 -0.00370712 -0.0132692 -0.02875 -9.09089e-05 -0.00359375 0.00125984 -0.00208661 -0.008 0.00201493
internal_weight=1592 1519 73 1499 607 379 104 40 275 64 254 117 50 67
internal_count=1592 1519 73 1499 607 379 104 40 275 64 254 117 50 67
cat_boundaries=0 1
cat_threshold=3906
is_linear=0
shrinkage=0.05


Tree=4
num_leaves=15
num_cat=0
split_feature=44 58 64 9 7 9 20 24 8 16 14 32 3 7
split_gain=29.3183 7.66234 6.72428 3.34405 2.14187 2.55014 2.75521 2.37313 2.18159 1.09412 0.997282 0.412221 0.335704 0.460069
threshold=1.0000000180025095e-35 11013.750000000002 47473.215000000004 -7.4999999999999991 49597.335000000006 8.5000000000000018 22448.508333333335 11577.990000000002 15.000000000000002 29373.085000000003 98.550000000000011 2762.1900000000005 6.0500000000000007 137833.79000000001
decision_type=10 2 2 2 2 2 8 10 2 10 2 8 2 2
left_child=1 4 -2 -3 11 6 -6 8 -8 -4 -10 -1 -9 -14
right_child=2 3 9 -5 5 -7 7 12 10 -11 -12 -13 13 -15
leaf_value=-62.379957294916942 -620.7457315481405 429.34686862889225 -2814.6325776206113 -2748.6480165819935 -805.7886092297199 1073.3120905331803 -2702.4664242495614 380.38134805344333 73.992897246319217 -1972.9458213478106 -435.40119447955334 691.58576275729638 537.73181927105668 -251.70226988080836
leaf_weight=21 33 21 31 35 20 216 38 114 56 20 33 895 35 24
leaf_count=21 33 21 31 35 20 216 38 114 56 20 33 895 35 24
internal_value=0.00101131 0.00261273 -0.0277381 -0.0155357 0.00331267 0.000802239 -0.00203125 -0.000833333 -0.00602362 -0.0391176 -0.00174157 0.00478166 0.00297688 -8.47456e-05
internal_weight=1592 1508 84 56 1452 536 320 300 127 51 89 916 173 59
internal_count=1592 1508 84 56 1452 536 320 300 127 51 89 916 173 59
is_linear=0
shrinkage=0.05


Tree=5
num_leaves=15
num_cat=0
split_feature=44 58 64 9 6 16 9 8 16 62 11 9 28 17
split_gain=29.2543 7.63437 6.72428 3.34405 2.07475 2.77861 1.96153 4.48593 1.09412 0.765526 1.00162 0.458843 0.397959 0.392303
threshold=1.0000000180025095e-35 11013.750000000002 47473.215000000004 -7.4999999999999991 1.0000000180025095e-35 13560.605000000001 5.5000000000000009 15.000000000000002 29373.085000000003 1.0000000180025095e-35 104.40000000000002 -3.4999999999999996 13600.606666666668 8785.0650000000023
decision_type=10 2 2 2 2 8 2 2 10 2 2 2 8 8
left_child=1 4 -2 -3 13 -6 7 -7 -4 10 11 -9 -8 -1
right_child=2 3 8 -5 5 6 12 9 -10 -11 -12 -13 -14 -15
leaf_value=-10.837538192137163 -589.70844497073347 407.87952519744761 -2673.9009487395806 -2611.2156157528939 -397.04118688582156 -2357.5825130872595 -27.446109264264283 -306.79121185445086 -1874.29853028042 104.08365592601251 -440.57275972563622 128.5336064653014 966.54495600934649 672.06112630215648
leaf_weight=22 33 21 31 35 33 38 21 29 20 112 21 33 273 870
leaf_count=22 33 21 31 35 33 38 21 29 20 112 21 33 273 870
internal_value=0.0009799 0.00257958 -0.0277381 -0.0155357 0.00327824 0.000892857 0.00177419 -0.00165236 -0.0391176 0.00141026 -0.00222892 0.000967742 0.0044898 0.00477578
internal_weight=1592 1508 84 56 1452 560 527 233 51 195 83 62 294 892
internal_count=1592 1508 84 56 1452 560 527 233 51 195 83 62 294 892
is_linear=0
shrinkage=0.05


Tree=6
num_leaves=15
num_cat=0
split_feature=44 64 58 7 9 8 17 58 16 16 43 17 17 3
split_gain=29.4465 6.72428 5.62964 2.50806 3.14502 6.2626 1.32622 1.17992 1.89 1.09412 0.666416 0.424183 0.402128 0.260116
threshold=1.0000000180025095e-35 47473.215000000004 14973.185000000003 88979.325000000026 7.5000000000000009 15.000000000000002 24991.320000000003 2571.5250000000001 16523.920000000002 29373.085000000003 7802.1950000000006 8336.9350000000031 17455.720000000005 3.8500000000000001
decision_type=10 2 2 2 2 2 8 2 10 10 10 8 8 2
left_child=2 -2 3 7 5 -5 -7 11 -9 -3 13 -1 -6 -8
right_child=1 9 -4 4 12 6 10 8 -10 -11 -12 -13 -14 -15
leaf_value=-18.865800979625071 -560.22302272219679 -2540.2059013026014 -2631.4866836517908 -2482.3635140220958 -28.065391498904848 -401.83935208354438 44.871931466355889 -278.27245771598217 190.98538655691024 -1780.5836037663992 205.56036805139181 625.31734959844061 933.77568510085337 -924.19280289427934
leaf_weight=20 33 31 29 37 20 20 22 25 35 20 88 1019 168 25
leaf_count=20 33 31 29 37 20 20 22 25 35 20 88 1019 168 25
internal_value=0.00107412 -0.0277381 0.00267905 0.00310683 -0.000394737 -0.00489583 -0.000483871 0.00431756 -0.0025 -0.0391176 0.0012963 0.00471126 0.00420213 -0.00351064
internal_weight=1592 84 1508 1479 380 192 155 1099 60 51 135 1039 188 47
internal_count=1592 84 1508 1479 380 192 155 1099 60 51 135 1039 188 47
is_linear=0
shrinkage=0.05


Tree=7
num_leaves=15
num_cat=1
split_feature=44 64 58 7 9 9 8 32 17 16 9 1 6 16
split_gain=29.7039 6.72428 4.83825 2.10548 2.80007 5.65333 2.6171 1.67034 1.13208 1.09412 0.612377 0.219086 0.486596 0.142534
threshold=1.0000000180025095e-35 47473.215000000004 14973.185000000003 88979.325000000026 5.5000000000000009 -1.0000000180025095e-35 15.000000000000002 2077.4000000000001 16392.080000000005 29373.085000000003 -8.4999999999999982 0 1.0000000180025095e-35 10322.965000000002
decision_type=10 2 2 2 2 2 2 8 8 10 2 1 2 10
left_child=2 -2 3 7 5 10 -7 -1 -6 -3 -5 12 13 -9
right_child=1 9 -4 4 8 6 -8 11 -10 -11 -12 -13 -14 -15
leaf_value=-254.6836612134797 -532.21187158608689 -2413.1956062374716 -2499.9123494692012 390.98307620085393 -394.56538186038341 -3073.0943928439378 -359.71176158784738 28.149125391058348 806.92590332748705 -1691.554423578079 -628.93151301994715 595.27051433060819 -48.697925657364046 741.40376025848502
leaf_weight=20 33 31 29 82 20 20 34 39 192 20 32 957 20 63
leaf_count=20 33 31 29 82 20 20 34 39 192 20 32 957 20 63
internal_value=0.00119975 -0.0277381 0.00281167 0.00320825 1.86265e-10 -0.00482143 -0.0181481 0.00431756 0.00382075 -0.0391176 0.00149123 0.00458295 0.0019697 0.00352941
internal_weight=1592 84 1508 1479 380 168 54 1099 212 51 114 1079 122 102
internal_count=1592 84 1508 1479 380 168 54 1099 212 51 114 1079 122 102
cat_boundaries=0 1
cat_threshold=66
is_linear=0
shrinkage=0.05


Tree=8
num_leaves=15
num_cat=1
split_feature=32 64 58 36 7 2 7 8 32 16 58 7 7 9
split_gain=29.7791 6.17183 4.44043 2.41539 1.94297 2.72401 3.74605 1.96836 0.650487 0.459574 0.351202 0.303557 0.768182 0.2
threshold=-818.4649999999998 47473.215000000004 14973.185000000003 2992.936666666667 99058.555000000008 0 119273.02 15.000000000000002 2226.9800000000005 23725.005000000005 3857.1950000000006 146580.62500000003 168005.96500000003 5.5000000000000009
decision_type=8 2 2 8 2 9 2 2 8 10 2 2 2 2
left_child=1 -1 3 -2 8 6 -6 -8 -5 -3 -10 -7 -13 -14
right_child=2 9 -4 4 5 11 7 -9 10 -11 -12 12 13 -15
leaf_value=-508.53482101112024 -263.45577188638219 -2052.3861398292279 -2233.9806683760639 -41.704766668274694 -839.73311307831852 467.72683930153221 -2689.1493881936494 255.55585886780807 560.56994332190982 -2219.8742340800973 -13.398593852730961 -670.72970279925664 626.61231169004839 971.34654917043815
leaf_weight=26 27 27 31 22 24 120 24 58 1080 20 23 20 30 60
leaf_count=26 27 27 31 22 24 120 24 58 1080 20 23 20 30 60
internal_value=0.00126256 -0.0299315 0.00276169 0.00315188 0.00342574 8.92859e-05 -0.0062069 -0.00170732 0.00442222 -0.0407447 0.00459202 0.003125 0.00136364 0.00333333
internal_weight=1592 73 1519 1488 1461 336 106 82 1125 47 1103 230 110 90
internal_count=1592 73 1519 1488 1461 336 106 82 1125 47 1103 230 110 90
cat_boundaries=0 1
cat_threshold=18886680
is_linear=0
shrinkage=0.05


Tree=9
num_leaves=15
num_cat=0
split_feature=32 64 58 36 6 9 8 9 51 8 14 43 17 16
split_gain=28.6032 5.74688 4.45606 2.42636 1.54541 2.73302 4.03333 1.81274 1.36726 1.66878 1.8854 0.718085 0.186971 0.177012
threshold=-818.4649999999998 47473.215000000004 14973.185000000003 2992.936666666667 1.0000000180025095e-35 5.5000000000000009 15.000000000000002 2.5000000000000004 2842.4850000000001 27.000000000000004 99.700000000000017 13278.365000000002 14899.075000000003 8601.3300000000017
decision_type=8 2 2 8 2 2 2 2 10 2 2 10 8 8
left_child=1 -1 3 -2 13 6 7 -6 9 10 -8 -3 -7 -5
right_child=2 11 -4 4 5 12 8 -9 -10 -11 -12 -13 -14 -15
leaf_value=-483.10807996056423 -250.28298329206305 -1949.7668328377667 -2122.2816349572608 32.98135272723907 -2180.4272379102363 223.51355646945586 -6.7641631416423564 -287.69232284811454 189.61208464079789 529.85602929809681 -524.13335742147649 -2084.6610047468425 786.35948255318408 577.33776548254252
leaf_weight=26 27 27 31 21 34 20 39 20 103 49 25 20 287 863
leaf_count=26 27 27 31 21 34 20 39 20 103 49 25 20 287 863
internal_value=0.00132538 -0.0292466 0.0027946 0.00318548 0.00345996 0.00144714 -0.00222222 -0.0144444 0.000833334 -0.0029646 -0.00828125 -0.0396808 0.00467427 0.00477376
internal_weight=1592 73 1519 1488 1461 577 270 54 216 113 64 47 307 884
internal_count=1592 73 1519 1488 1461 577 270 54 216 113 64 47 307 884
is_linear=0
shrinkage=0.05


Tree=10
num_leaves=15
num_cat=1
split_feature=32 64 58 36 7 2 17 8 32 13 7 7 9 58
split_gain=27.3359 5.33708 4.44043 2.11837 1.94039 2.72401 2.94915 2.40337 0.650285 0.567376 0.303557 0.768182 0.2 0.145773
threshold=-818.4649999999998 47473.215000000004 14973.185000000003 3190.4600000000005 99058.555000000008 0 24118.340000000004 15.000000000000002 2226.9800000000005 101.40000000000002 146580.62500000003 168005.96500000003 5.5000000000000009 3857.1950000000006
decision_type=8 2 2 8 2 9 8 2 8 2 2 2 2 2
left_child=1 -1 3 -2 8 6 -6 -8 -5 -3 -7 -12 -13 -10
right_child=2 9 -4 4 5 10 7 -9 13 -11 11 12 -14 -15
leaf_value=-458.95267596253598 -220.18783620920505 -2046.8351211259051 -2016.1675532093977 -41.268595971223 -528.36319435327766 431.87616140573022 -2281.5782407112492 169.58848950219522 508.29769798091729 -1859.6073743639606 -612.16875462637836 598.20674911616402 886.27547474049379 51.471553547016924
leaf_weight=26 30 27 31 22 21 120 28 57 1077 20 20 30 60 23
leaf_count=26 30 27 31 22 21 120 28 57 1077 20 20 30 60 23
internal_value=0.00132538 -0.0285616 0.00276169 0.00315188 0.0034225 8.92859e-05 -0.0062069 -0.00264706 0.00442068 -0.038617 0.003125 0.00136364 0.00333333 0.00459091
internal_weight=1592 73 1519 1488 1458 336 106 85 1122 47 230 110 90 1100
internal_count=1592 73 1519 1488 1458 336 106 85 1122 47 230 110 90 1100
cat_boundaries=0 1
cat_threshold=18886680
is_linear=0
shrinkage=0.05


Tree=11
num_leaves=15
num_cat=0
split_feature=32 64 58 58 16 14 7 9 17 16 32 4 21 10
split_gain=25.2727 5.6266 3.78024 1.61216 2.68265 1.59071 0.832995 3.88221 0.670968 0.4 0.398247 0.284378 0.107861 0.117164
threshold=-818.4649999999998 64321.23000000001 14973.185000000003 2571.5250000000001 17025.995000000003 98.550000000000011 106073.82000000002 5.5000000000000009 24788.690000000006 16523.920000000002 2692.8050000000007 0.45500000000000007 1446.6200030697685 31.200000000000006
decision_type=8 2 2 2 10 2 2 2 8 8 8 2 8 2
left_child=1 -1 3 6 5 11 10 -8 -6 -9 -2 -5 -12 -14
right_child=2 -3 -4 4 8 -7 7 9 -10 -11 12 -13 13 -15
leaf_value=-444.26806101894948 -12.510408908768389 -1957.6179308782459 -1915.3591755489279 -364.73293474365863 -207.45548230715073 -640.83895388063502 -1814.1333386986619 -225.13716146349063 183.89820483217264 740.08203686929619 67.26185507686499 71.051434581020644 262.30581713969286 527.04712722604643
leaf_weight=39 20 34 31 20 20 25 38 20 104 160 30 23 63 965
leaf_count=39 20 34 31 20 20 25 38 20 104 160 30 23 63 965
internal_value=0.00154523 -0.0271918 0.00292627 0.00328629 -0.000989583 -0.00897059 0.00391975 0.00110092 0.0033871 0.00416667 0.0044898 -0.00313953 0.00462193 0.00470817
internal_weight=1592 73 1519 1488 192 68 1296 218 124 180 1078 43 1058 1028
internal_count=1592 73 1519 1488 192 68 1296 218 124 180 1078 43 1058 1028
is_linear=0
shrinkage=0.05


Tree=12
num_leaves=15
num_cat=1
split_feature=44 64 58 24 7 9 17 24 9 9 32 33 43 0
split_gain=21.1655 4.47065 4.04853 1.9766 1.77958 2.49796 3.19616 1.99772 2.25 1.78565 1.46065 0.384831 0.171125 0.36904
threshold=1.0000000180025095e-35 47473.215000000004 14973.185000000003 18187.105000000003 99058.555000000008 8.5000000000000018 24118.340000000004 10807.670000000002 2.5000000000000004 -7.4999999999999991 2077.4000000000001 2609.4950000000003 5567.7250000000013 0
decision_type=10 2 2 10 2 2 8 10 2 2 8 8 10 1
left_child=2 -2 4 -3 10 6 -6 8 9 -8 -1 -12 13 -13
right_child=1 3 -4 -5 5 -7 7 -9 -10 -11 11 12 -14 -15
leaf_value=-165.34794908527695 -410.85809610912406 -1894.822203317709 -1960.5272803911587 -1199.9525367269496 -490.46134152676842 840.99808210697017 -12.722865664878585 143.23537527917838 300.80037331286849 -2199.8618988736575 -6.2763470706626716 218.72216965376103 456.29508650747522 506.58259875001517
leaf_weight=22 33 31 29 20 26 144 23 98 24 25 20 109 804 184
leaf_count=22 33 31 29 20 26 144 23 98 24 25 20 109 804 184
internal_value=0.00145101 -0.0229762 0.00281167 -0.0322549 0.00317444 1.86265e-10 -0.00367347 -0.00117647 -0.0075 -0.01375 0.00412204 0.00437332 0.00449863 0.00346416
internal_weight=1592 84 1508 51 1479 340 196 170 72 48 1139 1117 1097 293
internal_count=1592 84 1508 51 1479 340 196 170 72 48 1139 1117 1097 293
cat_boundaries=0 1
cat_threshold=532814
is_linear=0
shrinkage=0.05


Tree=13
num_leaves=15
num_cat=1
split_feature=32 64 58 16 36 32 1 58 13 3 9 34 9 7
split_gain=17.4971 5.92005 3.09227 3.45297 1.67865 1.25413 1.45018 1.81472 1.03497 0.865801 0.437379 1.49371 0.441852 0.646998
threshold=-818.4649999999998 64321.23000000001 11013.750000000002 35439.455000000009 3190.4600000000005 2959.1650000000004 0 4282.4700000000003 101.60000000000001 3.3500000000000001 1.5000000000000002 6445.8600000000015 5.5000000000000009 106073.82000000002
decision_type=8 2 2 10 8 10 1 2 2 2 2 8 2 2
left_child=1 -1 4 -4 -2 6 7 8 9 -6 -7 -12 13 -13
right_child=2 -3 3 -5 5 10 -8 -9 -10 -11 11 12 -14 -15
leaf_value=-392.33163952222463 -175.03539054717081 -1775.4189708757801 -1862.5009163716009 287.99484159182879 -275.76860791290977 577.95476157925305 387.52031188182781 -467.86107610548828 47.094088936002677 0.77172008160010253 -293.95184143871103 180.70901648854999 708.89869654134918 -639.18487817196376
leaf_weight=39 29 34 29 30 21 713 278 21 87 33 32 25 200 21
leaf_count=39 29 34 29 30 21 713 278 21 87 33 32 25 200 21
internal_value=0.00151382 -0.0223973 0.00266294 -0.00855932 0.00311644 0.00335779 0.00113636 -0.00255814 -0.000673759 -0.00611111 0.0043441 0.00266187 0.00398374 -0.000434782
internal_weight=1592 73 1519 59 1460 1431 440 162 141 54 991 278 246 46
internal_count=1592 73 1519 59 1460 1431 440 162 141 54 991 278 246 46
cat_boundaries=0 1
cat_threshold=1098
is_linear=0
shrinkage=0.05


Tree=14
num_leaves=15
num_cat=1
split_feature=32 64 58 16 36 32 1 58 4 9 9 7 12 20
split_gain=16.778 5.32577 3.18364 3.45297 1.26943 0.923886 0.990165 2.16529 0.438818 0.437379 1.35499 0.886447 0.436364 0.335177
threshold=-818.4649999999998 64321.23000000001 11013.750000000002 35439.455000000009 3190.4600000000005 2959.1650000000004 0 2571.5250000000001 0.35500000000000004 1.5000000000000002 5.5000000000000009 106073.82000000002 101.05000000000001 21204.720000000005
decision_type=8 2 2 10 8 10 1 2 2 2 2 2 2 8
left_child=1 -1 4 -4 -2 6 7 8 12 -7 11 -11 -6 -12
right_child=2 -3 3 -5 5 9 -8 -9 -10 10 13 -13 -14 -15
leaf_value=-372.71505754611343 -166.28362101981227 -1686.6480223319909 -1769.3758705530208 273.59509951223743 -43.66076920996889 549.05702350029037 170.35214152716628 -491.78688962140671 300.58207364294748 50.498380754118578 -20.975692309617685 -536.66326019578241 867.79572288593829 677.69850066042306
leaf_weight=39 29 34 29 30 24 713 328 20 48 28 24 24 20 202
leaf_count=39 29 34 29 30 24 713 328 20 48 28 24 24 20 202
internal_value=0.00170226 -0.0217123 0.00282752 -0.00855932 0.00328767 0.00349755 0.00159091 -0.00237705 0.000652174 0.0043441 0.00266187 -0.00461538 -0.00295455 0.00433628
internal_weight=1592 73 1519 59 1460 1431 440 112 92 991 278 52 44 226
internal_count=1592 73 1519 59 1460 1431 440 112 92 991 278 52 44 226
cat_boundaries=0 1
cat_threshold=328
is_linear=0
shrinkage=0.05


Tree=15
num_leaves=15
num_cat=1
split_feature=32 64 58 16 17 1 32 7 16 9 8 12 3 14
split_gain=14.8723 4.83644 3.14693 3.45297 1.75325 1.44299 2.67025 0.892121 1.19779 0.788059 1.63572 0.577034 1.0858 0.392593
threshold=-818.4649999999998 65287.080000000009 11013.750000000002 35439.455000000009 20407.630000000005 0 2692.8050000000007 49597.335000000006 13416.590000000002 8.5000000000000018 10.500000000000002 100.85000000000001 6.6500000000000012 101.2
decision_type=8 2 2 10 8 1 10 2 8 2 2 2 2 2
left_child=1 4 5 -4 -1 6 -2 -7 -9 10 -10 -12 13 -13
right_child=2 -3 3 -5 -6 7 -8 8 9 -11 11 12 -14 -15
leaf_value=-409.90874819250115 -216.82017574861482 -1626.9777503473858 -1680.9070770253697 259.91534453662558 51.146077099527886 379.25481915079655 29.631955585881286 -263.18602839307022 -622.11500392825553 777.38223836526004 121.90506209706973 -169.16216043849397 -389.63464096592497 363.20494428817699
leaf_weight=20 39 31 29 30 22 856 67 20 35 189 145 27 29 53
leaf_count=20 39 31 29 30 22 856 67 20 35 189 145 27 29 53
internal_value=0.00170226 -0.0203425 0.00276169 -0.00855932 -0.00928571 0.00321918 -0.00232759 0.0036437 0.00198795 0.00248954 0.000847751 0.00224409 -0.000504587 0.0025
internal_weight=1592 73 1519 59 42 1460 106 1354 498 478 289 254 109 80
internal_count=1592 73 1519 59 42 1460 106 1354 498 478 289 254 109 80
cat_boundaries=0 1
cat_threshold=64
is_linear=0
shrinkage=0.05


Tree=16
num_leaves=15
num_cat=1
split_feature=32 64 58 4 32 17 58 43 0 4 7 18 4 24
split_gain=13.2408 4.68078 3.34977 1.7145 1.59518 2.32305 1.02536 1.96503 0.599686 1.37269 0.415964 1.41465 0.30112 0.270422
threshold=-818.4649999999998 65287.080000000009 17085.440000000006 0.43500000000000005 3606.1450000000009 13424.175000000001 6713.8750000000009 10743.130000000003 0 0.31500000000000006 78523.950000000026 20119.050000000003 0.49500000000000005 10386.780000000002
decision_type=8 2 2 2 10 8 2 10 1 2 2 8 2 10
left_child=1 3 4 -1 5 -2 8 -8 9 -7 -6 -12 -11 -13
right_child=2 -3 -4 -5 10 6 7 -9 -10 12 11 13 -14 -15
leaf_value=-384.23728567824611 -132.34597194457135 -1545.6288628300165 -2173.1615167183627 55.923217771965739 550.88241826122237 -339.75029066040941 -722.9490589049276 25.380517533968103 166.4328930046056 -32.1654387423118 -111.22927512702387 -23.649773081368679 299.65692850215947 440.13397729526827
leaf_weight=22 37 31 20 20 705 20 35 32 310 42 26 24 43 225
leaf_count=22 37 31 20 20 705 20 35 32 310 42 26 24 43 225
internal_value=0.00182789 -0.0189726 0.00282752 -0.00809524 0.00309873 0.000857418 0.00178423 -0.00395522 0.00271084 -0.000652174 0.00428571 0.00263636 0.00205882 0.00379518
internal_weight=1592 73 1519 42 1499 519 482 67 415 105 980 275 85 249
internal_count=1592 73 1519 42 1499 519 482 67 415 105 980 275 85 249
cat_boundaries=0 1
cat_threshold=557574
is_linear=0
shrinkage=0.05


Tree=17
num_leaves=15
num_cat=1
split_feature=32 64 58 4 20 58 51 8 3 2 24 7 9 4
split_gain=10.8624 3.48656 2.57649 2.22952 1.84898 1.29532 2.83077 1.29924 1.25357 0.628329 0.942308 0.407473 1.97902 0.397373
threshold=-818.4649999999998 66599.910000000018 17085.440000000006 0.39500000000000007 11070.871666666668 2571.5250000000001 2842.4850000000001 27.000000000000004 4.1500000000000012 0 7464.3650000000007 117417.88500000002 5.5000000000000009 0.48500000000000004
decision_type=8 2 2 2 8 2 10 2 2 9 10 2 2 2
left_child=1 3 4 -1 -2 9 7 8 -7 10 13 -11 -13 -6
right_child=2 -3 -4 -5 5 6 -8 -9 -10 11 -12 12 -14 -15
leaf_value=-370.20144649896378 -91.812972884916192 -1491.6307990544462 -2064.5034408824445 61.462374515684054 -80.607562070867161 -487.70488895302736 110.30921313771321 794.86366274213401 -346.87694201472198 385.92433535982798 252.04046002990478 -1246.620232357368 540.66256120977357 48.243632788672699
leaf_weight=20 21 30 20 23 29 30 125 21 26 982 80 25 139 21
leaf_count=20 21 30 20 23 29 30 125 21 26 982 80 25 139 21
internal_value=0.00192211 -0.0169178 0.00282752 -0.0077907 0.00306538 0.0032747 -0.000445544 -0.00798701 -0.0119643 0.00386364 0.000357143 0.00422145 0.00195122 -0.005
internal_weight=1592 73 1519 43 1499 1478 202 77 56 1276 130 1146 164 50
internal_count=1592 73 1519 43 1499 1478 202 77 56 1276 130 1146 164 50
cat_boundaries=0 1
cat_threshold=4203528
is_linear=0
shrinkage=0.05


Tree=18
num_leaves=15
num_cat=1
split_feature=32 64 32 17 7 9 8 3 16 13 18 17 1 51
split_gain=11.5227 3.39132 1.89604 1.80555 1.53657 2.31743 3.36033 1.6491 1.4638 1.225 0.722705 0.59683 0.513799 1.02084
threshold=-1222.9999999999998 66599.910000000018 3831.9650000000006 13424.175000000001 88979.325000000026 5.5000000000000009 15.000000000000002 4.6500000000000012 10118.065000000001 100.70000000000002 22007.880000000001 31636.640000000003 0 3253.5200000000004
decision_type=8 2 8 8 2 2 2 2 10 2 8 8 1 8
left_child=1 9 3 8 12 6 7 -6 -2 -1 -7 -8 13 -4
right_child=2 -3 4 -5 5 10 11 -9 -10 -11 -12 -13 -14 -15
leaf_value=75.929285257079286 -7.9600865083761638 -1440.3326452011956 501.08933494157668 15.892358474096765 -2218.3884604829668 -15.09625265410582 -98.097072837632169 -446.82254032029778 -167.69417262812814 -351.69137417401566 633.41141294667989 106.51751040863033 561.88185297183452 -89.591929098548377
leaf_weight=20 23 29 69 103 21 20 20 22 25 20 187 99 898 36
leaf_count=20 23 29 69 103 21 20 20 22 25 20 187 99 898 36
internal_value=0.00179648 -0.0181884 0.0027019 -0.00261589 0.00328717 0.000528455 -0.00395062 -0.0159302 -0.010625 -0.00875 0.00403382 0.000378151 0.00430209 0.000652174
internal_weight=1592 69 1523 151 1372 369 162 43 48 40 207 119 1003 105
internal_count=1592 69 1523 151 1372 369 162 43 48 40 207 119 1003 105
cat_boundaries=0 1
cat_threshold=66
is_linear=0
shrinkage=0.05


Tree=19
num_leaves=15
num_cat=0
split_feature=32 64 20 4 58 9 32 16 5 9 7 9 20 20
split_gain=9.87864 3.8612 3.08323 2.67442 2.12953 3.00836 1.05821 0.94745 0.922266 0.78585 0.618885 2.7184 1.10465 0.349693
threshold=-818.4649999999998 66599.910000000018 11070.871666666668 0.39500000000000007 4458.045000000001 -1.0000000180025095e-35 2959.1650000000004 14651.845000000001 2.5000000000000004 -7.4999999999999991 109610.65500000001 4.5000000000000009 25913.336666666666 22448.508333333335
decision_type=8 2 8 2 2 2 8 10 2 2 2 2 8 8
left_child=1 3 -2 -1 6 7 8 9 -4 -6 13 -12 -13 -8
right_child=2 -3 4 -5 5 -7 10 -9 -10 -11 11 12 -14 -15
leaf_value=-334.10680546531478 -82.317470733103349 -1345.0326268416641 -51.817237212336551 75.973824498600763 26.586405669620049 -1209.898500404676 89.445995608550987 113.70457757754092 22.658739361746662 -369.53681563336721 -1853.9759346488879 -46.268156309585869 489.4256185436264 516.28318770200895
leaf_weight=20 21 30 21 23 25 26 74 93 23 24 27 20 152 1013
leaf_count=20 21 30 21 23 25 26 74 93 23 24 27 20 152 1013
internal_value=0.00173367 -0.0162329 0.0025971 -0.00662791 0.00286382 -0.00244048 0.00353383 0.000422535 -0.00409091 -0.00520408 0.00379471 0.00123116 0.00354651 0.00426403
internal_weight=1592 73 1519 43 1498 168 1330 142 44 49 1286 199 172 1087
internal_count=1592 73 1519 43 1498 168 1330 142 44 49 1286 199 172 1087
is_linear=0
shrinkage=0.05


Tree=20
num_leaves=15
num_cat=1
split_feature=32 64 32 17 58 24 7 36 7 25 24 0 4 9
split_gain=9.48448 4.33509 2.41272 2.34631 1.39879 1.829 1.38528 1.08217 1.39593 0.677352 0.596343 1.12693 0.809524 1.34294
threshold=-2515.0749999999994 66599.910000000018 3403.3400000000006 13424.175000000001 7423.5800000000008 14974.475 161430.34000000005 8701.0750000000025 78523.950000000026 13639.125000000002 11458.895000000002 0 0.49500000000000005 1.0000000180025095e-35
decision_type=8 2 8 8 2 10 2 8 2 10 10 1 2 2
left_child=1 -1 3 -2 7 6 -6 8 -4 -10 11 12 13 -9
right_child=2 -3 4 -5 5 -7 -8 10 9 -11 -12 -13 -14 -15
leaf_value=-254.03850445318869 -186.94570774476713 -1370.9145398974672 74.565562766045147 6.5085806519241478 -1120.8305739734399 300.32547573112629 -169.28523254719869 22.423731079841197 -114.26450248500701 -11.192651586702187 855.83593740882134 251.71953187241016 357.05755383370047 -1548.8240795074244
leaf_weight=29 39 26 101 96 20 35 22 46 20 21 694 370 51 22
leaf_count=29 39 26 101 96 20 35 22 46 20 21 694 370 51 22
internal_value=0.00176508 -0.0186364 0.00249512 -0.00388889 0.00310984 -0.00344156 -0.0104762 0.00349057 -0.000633803 -0.00841463 0.00398563 0.00264826 -0.00158915 -0.00529412
internal_weight=1592 55 1537 135 1402 77 42 1325 142 41 1183 489 119 68
internal_count=1592 55 1537 135 1402 77 42 1325 142 41 1183 489 119 68
cat_boundaries=0 1
cat_threshold=561668
is_linear=0
shrinkage=0.05


Tree=21
num_leaves=15
num_cat=1
split_feature=32 64 20 33 58 24 9 11 2 24 43 4 3 18
split_gain=7.41254 4.03202 3.49746 1.81085 1.78944 2.20371 2.3353 1.78686 1.05883 1.29572 0.874908 0.430904 0.398268 0.370354
threshold=-3793.1549999999993 66599.910000000018 16210.953333333333 3499.1500000000001 4994.5800000000008 20210.290000000005 -7.4999999999999991 99.100000000000009 0 11792.600000000002 11426.580000000002 0.37500000000000006 3.8500000000000001 28344.125000000004
decision_type=8 2 8 10 2 10 2 2 9 10 10 2 2 8
left_child=1 -1 3 -2 8 6 12 -8 9 10 11 -4 -6 -11
right_child=2 -3 4 -5 5 -7 7 -9 -10 13 -12 -13 -14 -15
leaf_value=-188.73594227689912 -229.57023967446978 -1395.5023573004801 -298.76802488407355 -30.750038881775421 205.35035097168685 57.48682093572733 -320.67262961424183 -1204.3277683276119 303.88059591773822 -20.515795504964181 -30.938826127832328 182.42847517262189 -251.7505816296628 1087.5484414078333
leaf_weight=23 27 22 21 36 23 82 20 23 1104 20 31 46 21 93
leaf_count=23 27 22 21 36 23 82 20 23 1104 20 31 46 21 93
internal_value=0.00167085 -0.0183333 0.00225275 -0.00928571 0.00274259 -0.00210059 -0.00764368 -0.0159302 0.00336502 2.26246e-05 -0.00418367 -0.000970149 0.000454546 0.00367257
internal_weight=1592 45 1547 63 1484 169 87 43 1315 211 98 67 44 113
internal_count=1592 45 1547 63 1484 169 87 43 1315 211 98 67 44 113
cat_boundaries=0 1
cat_threshold=5775372
is_linear=0
shrinkage=0.05


Tree=22
num_leaves=15
num_cat=1
split_feature=32 64 33 16 58 24 8 32 16 0 7 12 11 4
split_gain=6.67808 4.63878 3.37649 2.54036 1.403 2.10638 0.98 0.944056 0.759707 1.08554 1.12232 0.715004 0.736306 0.511998
threshold=-3793.1549999999993 66599.910000000018 3014.9150000000004 18649.605000000003 7423.5800000000008 19413.530000000002 15.000000000000002 3130.9000000000005 21565.34 0 145423.65000000002 100.45 99.350000000000009 0.28500000000000009
decision_type=8 2 8 10 2 10 2 10 10 1 2 2 2 2
left_child=1 -1 3 7 8 6 -6 -2 9 10 11 13 -13 -4
right_child=2 -3 4 -5 5 -7 -8 -9 -10 -11 -12 12 -14 -15
leaf_value=-179.29914516305411 -158.77586968621392 -1325.7272394354561 -75.528476610861759 10.573251690617951 -1463.1456018601807 137.56063353865929 -245.2761178355762 -12.978701223946652 847.12475251873809 183.42169474112052 -1499.9021406932295 83.929319605126437 -45.950292933970928 147.41037200106209
leaf_weight=23 30 22 29 47 25 44 25 22 693 421 21 25 43 122
leaf_count=23 30 22 29 47 25 44 25 22 693 421 21 25 43 122
internal_value=0.00176508 -0.0172222 0.00231739 -0.00661616 0.00292818 -0.00297872 -0.01 -0.0142308 0.00333826 0.00212557 -0.0006 0.00043379 -0.00382353 0.00235099
internal_weight=1592 45 1547 99 1448 94 50 52 1354 661 240 219 68 151
internal_count=1592 45 1547 99 1448 94 50 52 1354 661 240 219 68 151
cat_boundaries=0 1
cat_threshold=50702
is_linear=0
shrinkage=0.05


Tree=23
num_leaves=15
num_cat=1
split_feature=32 4 24 64 14 16 1 58 9 9 24 20 43 3
split_gain=6.73274 2.82822 3.09851 2.57152 2.15111 1.64342 1.67218 2.86415 0.862537 2.17146 1.8758 0.838565 0.80003 0.435904
threshold=2463.9550000000004 0.52500000000000013 19802.460000000003 50800.890000000007 100.15000000000002 12280.625000000002 0 3299.7100000000005 1.0000000180025095e-35 5.5000000000000009 16378.765000000001 27370.311666666672 14545.220000000003 1.8500000000000003
decision_type=8 2 10 2 2 10 1 2 2 2 10 8 8 2
left_child=1 2 3 4 -1 6 -2 12 -7 10 -10 -11 -8 -14
right_child=5 -3 -4 -5 -6 8 7 -9 9 11 -12 -13 13 -15
leaf_value=-66.203335977905212 364.25447862168647 24.09256667527994 35.848167197856981 -1259.4408774636831 -374.5816715973109 573.72973900447812 -37.176333587616966 -806.59297139677096 -1006.8158456092641 -44.784767635332884 34.296794116920204 545.43567814165499 -47.113495810315356 40.223650639821926
leaf_weight=25 223 43 25 22 20 698 30 29 24 36 33 187 37 160
leaf_count=25 223 43 25 22 20 698 30 29 24 36 33 187 37 160
internal_value=0.00160804 -0.00907407 -0.0140217 -0.0196269 -0.0127778 0.0025978 0.00019833 -0.0025188 0.00377301 0.00142857 -0.0072807 0.00365471 -0.000726872 0.000431472
internal_weight=1592 135 92 67 45 1457 479 256 978 280 57 223 227 197
internal_count=1592 135 92 67 45 1457 479 256 978 280 57 223 227 197
cat_boundaries=0 1
cat_threshold=933
is_linear=0
shrinkage=0.05


Tree=24
num_leaves=15
num_cat=2
split_feature=33 58 16 1 58 28 47 10 64 3 20 9 0 3
split_gain=5.31832 3.9731 1.29959 1.65285 1.7687 1.23929 1.03189 0.840638 0.820436 1.00919 0.616736 1.26267 0.433338 0.998021
threshold=3451.6800000000007 17449.435000000001 13416.590000000002 0 1.0000000180025095e-35 13218.176666666668 1569.5950000000005 33.850000000000009 50800.890000000007 5.1500000000000012 27370.311666666672 3.5000000000000004 1 2.2500000000000004
decision_type=8 2 10 1 2 8 8 2 2 2 8 2 1 2
left_child=5 2 3 4 7 -1 -7 -2 9 -8 11 -4 13 -5
right_child=1 -3 10 12 -6 6 8 -9 -10 -11 -12 -13 -14 -15
leaf_value=-800.01118358590918 -532.72550290265588 -1480.1323333070438 238.70336546819473 -275.30335695775312 -736.6948798239265 54.565047924132045 7.4785280474636968 36.212065192480132 -598.3060291966076 -39.774806073151403 575.84553807618931 -134.87030853264483 265.36540747411783 130.91332718746764
leaf_weight=37 29 25 82 20 20 22 37 88 22 23 815 39 240 93
leaf_count=37 29 25 82 20 20 22 37 88 22 23 815 39 240 93
internal_value=0.0018593 0.00276017 0.00310659 0.00102041 -0.0035034 -0.00741135 -0.00461538 -0.00141026 -0.00719512 -0.00416667 0.00419872 0.000867769 0.00279614 0.000121951
internal_weight=1592 1451 1426 490 137 141 104 117 82 60 936 121 353 113
internal_count=1592 1451 1426 490 137 141 104 117 82 60 936 121 353 113
cat_boundaries=0 1 2
cat_threshold=1088 577542
is_linear=0
shrinkage=0.05


Tree=25
num_leaves=15
num_cat=1
split_feature=32 64 16 32 58 7 0 7 20 9 3 33 24 11
split_gain=5.46306 3.41858 1.7272 2.7765 1.70047 1.28926 0.863102 0.897926 0.667977 0.987662 0.646877 0.469749 0.327896 0.226784
threshold=-3793.1549999999993 66599.910000000018 18532.520000000004 1577.7 7423.5800000000008 168780.12000000002 0 123191.12000000001 27413.678333333333 1.5000000000000002 1.0500000000000003 3099.2200000000007 7384.2350000000015 99.350000000000009
decision_type=8 2 10 8 2 2 1 2 8 2 2 8 10 2
left_child=1 -1 3 -2 6 -6 7 11 9 -4 -8 -5 13 -13
right_child=2 -3 8 4 5 -7 10 -9 -10 -11 -12 12 -14 -15
leaf_value=-86.817728848090951 -213.98149509830728 -1155.6737575670547 127.23968761271418 -8.6570758867806141 -764.47009110666284 2.6332418123519576 -112.63486821873572 -1444.5000798383717 678.25907270833932 -73.17202665012654 171.9558224673963 89.098355516518907 87.847011217241672 -11.049973034190288
leaf_weight=23 28 22 77 23 20 21 20 30 761 35 336 85 54 57
leaf_count=23 28 22 77 23 20 21 20 30 761 35 336 85 54 57
internal_value=0.00217337 -0.015 0.00267292 0.000771514 0.00143963 -0.00841463 0.00210744 -0.000212355 0.00414089 0.000535714 0.00363388 0.000890411 0.00168367 0.000422535
internal_weight=1592 45 1547 674 646 41 605 249 873 112 356 219 196 142
internal_count=1592 45 1547 674 646 41 605 249 873 112 356 219 196 142
cat_boundaries=0 1
cat_threshold=836236
is_linear=0
shrinkage=0.05


Tree=26
num_leaves=15
num_cat=2
split_feature=32 9 7 2 8 11 64 7 7 33 2 3 18 51
split_gain=5.21544 2.87203 1.15637 2.1161 2.23555 0.902986 0.927413 2.25714 0.956399 0.992063 0.52479 0.596059 0.446738 0.408671
threshold=3461.0450000000005 1.0000000180025095e-35 88979.325000000026 0 15.000000000000002 97.65000000000002 41853.430000000008 153422.99500000002 61491.290000000008 1574.3500000000001 1 3.1500000000000008 24004.495000000006 1.0000000180025095e-35
decision_type=8 2 2 9 2 2 2 2 2 10 9 2 8 8
left_child=1 5 10 4 -4 -1 8 -8 9 -7 11 -2 -5 -6
right_child=2 -3 3 12 13 6 7 -9 -10 -11 -12 -13 -14 -15
leaf_value=27.594968852713652 -139.19851826058363 -1135.9923494860222 -1521.2796402570793 -40.494194937116958 -21.346574590891422 -46.331127218471856 -242.80042644535848 -80.759002731535745 91.788879739029113 2.7202025347660816 399.41836738889458 73.190321810262517 325.92125517834029 355.5980038740405
leaf_weight=28 28 30 40 23 26 21 22 36 34 24 880 116 248 36
leaf_count=28 28 30 40 23 26 21 22 36 34 24 880 116 248 36
internal_value=0.0018907 -0.00576923 0.00295991 0.000576408 -0.00526786 -0.00318182 -0.00485401 -0.00965517 -0.00132911 -0.00611111 0.00382813 0.000779221 0.00286477 0.000161291
internal_weight=1592 195 1397 373 102 165 137 58 79 45 1024 144 271 62
internal_count=1592 195 1397 373 102 165 137 58 79 45 1024 144 271 62
cat_boundaries=0 1 2
cat_threshold=19017732 4721672
is_linear=0
shrinkage=0.05


Tree=27
num_leaves=15
num_cat=2
split_feature=58 33 16 0 4 7 4 17 25 1 14 9 34 24
split_gain=4.07677 2.16762 1.24855 1.63442 1.98008 1.53895 2.81028 1.1281 1.51504 0.776515 0.832182 0.448038 1.11746 0.414348
threshold=20521.015000000003 3099.2200000000007 21565.34 0 0.16500000000000004 145423.65000000002 0.53500000000000014 13424.175000000001 6783.8400000000011 1 100.55000000000001 1.0000000180025095e-35 9046.9200000000019 12944.330000000004
decision_type=2 8 10 1 2 2 2 10 10 1 2 2 8 8
left_child=1 7 3 -3 -5 9 -7 8 -1 10 13 -4 -13 -6
right_child=-2 2 11 4 5 6 -8 -9 -10 -11 -12 12 -14 -15
leaf_value=-30.201911964400747 -1350.1495725662769 195.31381127947202 890.15706444886803 -142.91603307555917 51.83615662158109 -1415.0368496026235 256.9173858483253 5.726937875982137 -182.73763100503302 136.07976781912726 -73.526197580041298 -103.57988322604012 480.38778346524555 -25.655254841374735
leaf_weight=35 23 316 544 22 31 27 22 59 26 210 32 30 168 47
leaf_count=35 23 316 544 22 31 27 22 59 26 210 32 30 168 47
internal_value=0.00198492 0.00229127 0.00282609 0.00132249 -0.000860349 -1.35499e-05 -0.00826531 -0.00416667 -0.00893443 0.00125 -0.00208333 0.00425876 0.00222222 0.000512821
internal_weight=1592 1569 1449 707 391 369 49 120 61 320 110 742 198 78
internal_count=1592 1569 1449 707 391 369 49 120 61 320 110 742 198 78
cat_boundaries=0 1 2
cat_threshold=731249 3074
is_linear=0
shrinkage=0.05


Tree=28
num_leaves=15
num_cat=1
split_feature=58 24 3 33 58 3 2 7 9 8 32 3 10 43
split_gain=4.03792 3.58235 4.662 1.12317 1.02248 0.814801 0.671713 1.20297 1.51055 0.921905 0.529887 0.443402 0.427907 0.37396
threshold=7423.5800000000008 15588.260000000002 3.5500000000000003 3099.2200000000007 8765.7750000000015 4.9500000000000011 0 88979.325000000026 8.5000000000000018 21.000000000000004 6589.3950000000013 3.3500000000000001 82.350000000000009 14292.570000000002
decision_type=2 8 2 8 2 2 9 2 2 2 10 2 2 8
left_child=3 2 -2 5 -3 12 7 10 9 -9 13 -6 -1 -5
right_child=1 4 -4 6 11 -7 -8 8 -10 -11 -12 -13 -14 -15
leaf_value=16.816565382064201 -1338.521977997988 -67.769343159783787 -117.24681503882412 -19.271747641578301 -160.02859484927504 -42.504475246036094 290.44255515909873 -1020.6940481504862 420.49528972265784 -4.4759681672120966 938.95074830619819 39.956136592213589 -50.563498474210604 67.500586171195238
leaf_weight=23 22 29 30 26 21 21 884 35 44 25 191 76 20 145
leaf_count=23 22 29 30 26 21 21 884 35 44 25 191 76 20 145
internal_value=0.00198492 -0.00511236 -0.0161538 0.00287836 -0.000555555 -0.00359375 0.00318519 0.00153361 -0.00317308 -0.00833333 0.00292818 0.00190722 0.000348837 0.000906433
internal_weight=1592 178 52 1414 126 64 1350 466 104 60 362 97 43 171
internal_count=1592 178 52 1414 126 64 1350 466 104 60 362 97 43 171
cat_boundaries=0 1
cat_threshold=24813582
is_linear=0
shrinkage=0.05


Tree=29
num_leaves=15
num_cat=2
split_feature=32 9 16 0 24 1 9 5 62 4 10 3 7 9
split_gain=5.00379 1.68415 1.04942 1.37896 1.40833 0.938534 0.99946 0.822867 0.907283 1.12181 0.675197 0.658561 0.516955 0.60039
threshold=3461.0450000000005 1.0000000180025095e-35 21827.715000000004 0 13592.955000000002 1 2.5000000000000004 1.0000000180025095e-35 8765.7750000000015 0.35500000000000004 60.900000000000006 5.1500000000000012 49597.335000000006 3.5000000000000004
decision_type=8 2 10 1 10 1 2 2 2 2 2 2 2 2
left_child=1 7 3 -2 5 6 10 -1 9 -9 -5 -11 -7 -14
right_child=2 -3 -4 4 -6 12 -8 8 -10 11 -12 -13 13 -15
leaf_value=-175.58785650977924 182.15948933073742 -950.99200023678554 689.45334910850022 -1063.9932776677967 -103.86837892994309 218.11368972337979 179.2373050798673 -51.921133254056535 37.338211518147055 54.573076244403836 34.722219047801531 -22.797591923771876 -368.40040411926606 120.62929991411593
leaf_weight=31 337 30 724 52 22 116 31 35 52 26 21 21 37 57
leaf_count=31 337 30 724 52 22 116 31 35 52 26 21 21 37 57
internal_value=0.00173367 -0.00576923 0.00278096 0.00135958 -0.000924855 -9.55412e-05 -0.00377193 -0.00378788 -0.00208955 -0.00536585 -0.00732877 -0.000319149 0.00181818 -0.000851064
internal_weight=1592 195 1397 673 336 314 104 165 134 82 73 47 210 94
internal_count=1592 195 1397 673 336 314 104 165 134 82 73 47 210 94
cat_boundaries=0 1 2
cat_threshold=208113 1104
is_linear=0
shrinkage=0.05


Tree=30
num_leaves=15
num_cat=1
split_feature=32 9 6 9 52 8 3 5 3 1 32 4 4 34
split_gain=4.62065 1.34639 1.34527 1.61851 3.15478 1.50534 1.28926 0.892202 0.889719 0.652677 1.14208 0.560947 0.415177 0.349391
threshold=3461.0450000000005 1.0000000180025095e-35 1.0000000180025095e-35 8.5000000000000018 1805.5350000000001 10.500000000000002 2.4500000000000006 1.0000000180025095e-35 9.6500000000000004 0 3831.9650000000006 0.19500000000000003 0.41500000000000004 3837.3650000000002
decision_type=8 2 2 2 8 2 2 2 2 1 10 2 2 8
left_child=1 7 13 4 -4 6 -6 -1 11 10 12 -9 -7 -2
right_child=2 -3 3 -5 5 9 -8 8 -10 -11 -12 -13 -14 -15
leaf_value=-166.80846368429027 -8.6715815754272221 -903.44240022494614 -285.62762684187027 470.23336807514744 -1617.0289716958648 -803.04412968364409 7.501962409383407 -35.840165550033724 -38.759164804538131 241.56963640088463 107.33327195974772 3.927685893417495 1.3028247985605419 429.27434676665064
leaf_weight=31 21 30 34 225 20 29 21 20 22 142 64 92 23 818
leaf_count=31 21 30 34 225 20 29 21 20 22 142 64 92 23 818
internal_value=0.00195352 -0.00525641 0.00295991 0.00105735 -0.00115616 0.00048495 -0.00841463 -0.00348485 -0.00171642 0.00189922 -0.000952381 8.92859e-05 -0.00653846 0.00422527
internal_weight=1592 195 1397 558 333 299 41 165 134 258 116 112 52 839
internal_count=1592 195 1397 558 333 299 41 165 134 258 116 112 52 839
cat_boundaries=0 1
cat_threshold=1864
is_linear=0
shrinkage=0.05


Tree=31
num_leaves=15
num_cat=2
split_feature=32 3 58 7 2 3 17 1 32 11 5 18 32 20
split_gain=3.80083 1.96914 1.67612 1.08933 1.73023 3.03554 0.978887 0.802982 0.976316 1.11364 0.862134 0.728363 0.280109 0.569337
threshold=1577.7 3.5500000000000003 8765.7750000000015 87063.920000000013 0 3.2500000000000004 42191.365000000013 1 6697.4650000000011 97.550000000000011 2.5000000000000004 26168.880000000001 8083.0500000000011 19227.351666666669
decision_type=8 2 2 2 9 2 8 1 10 2 2 8 10 10
left_child=1 -1 -3 7 5 -5 -7 8 9 -2 -11 -6 13 -9
right_child=3 2 -4 4 11 6 -8 12 -10 10 -12 -13 -14 -15
leaf_value=-748.91970426149601 106.44924830138289 -67.028168224067514 42.337738903682435 -1762.7440567137583 -45.735153889262143 -259.32783563395554 233.63368194196335 83.221710735258839 483.64472064563626 5.9587005998052804 -63.560325797013377 230.96931156723178 1170.8405664892418 -73.956904041186789
leaf_weight=38 25 31 46 26 31 26 57 501 53 21 34 256 427 20
leaf_count=38 25 31 46 26 31 26 57 501 53 21 34 256 427 20
internal_value=0.00201633 -0.00673913 -0.00214286 0.00269804 0.000454546 -0.00466387 -0.000421687 0.00351989 -0.000244755 -0.00375 -0.00772727 0.00247475 0.00400835 0.00327255
internal_weight=1592 115 77 1477 396 109 83 1081 133 80 55 287 948 521
internal_count=1592 115 77 1477 396 109 83 1081 133 80 55 287 948 521
cat_boundaries=0 1 2
cat_threshold=18919428 2112
is_linear=0
shrinkage=0.05


Tree=32
num_leaves=15
num_cat=1
split_feature=32 63 36 4 64 0 7 4 32 12 46 7 11 32
split_gain=3.63496 1.3497 1.051 0.902658 1.30634 0.7827 1.74921 0.853437 1.1129 0.523956 0.518519 0.862854 0.433929 0.286364
threshold=3403.3400000000006 52238.295000000006 5229.7900000000009 0.52500000000000013 41853.430000000008 0 143515.74500000002 0.33500000000000008 7425.3300000000008 101.05000000000001 264.89500000000004 49597.335000000006 106.65000000000002 2077.4000000000001
decision_type=8 2 8 2 2 1 2 2 10 2 10 2 2 10
left_child=1 3 12 4 10 6 7 8 -4 -9 11 -1 -2 -5
right_child=2 -3 5 13 -6 -7 -8 9 -10 -11 -12 -13 -14 -15
leaf_value=3.8236396474520435 -14.518135281006648 -800.56707773848689 -68.595885479106656 66.843651786048952 -165.90645947635491 292.704531278415 -884.12246478209909 474.34644923876607 473.73153559674205 -12.188369378775731 101.30088065066131 -693.09158276290168 -41.75653406799492 -1.9460480738824573
leaf_weight=34 28 21 31 35 39 1092 33 149 23 26 21 20 20 20
leaf_count=34 28 21 31 35 39 1092 33 149 23 26 21 20 20 20
internal_value=0.00201633 -0.00447368 0.00289586 -0.00298817 -0.00552632 0.00315362 0.000588235 0.00216157 -0.00333333 0.00385714 -0.00166667 -0.00425926 -0.004375 0.00227273
internal_weight=1592 190 1402 169 114 1354 262 229 54 175 75 54 48 55
internal_count=1592 190 1402 169 114 1354 262 229 54 175 75 54 48 55
cat_boundaries=0 1
cat_threshold=49666
is_linear=0
shrinkage=0.05


Tree=33
num_leaves=15
num_cat=2
split_feature=58 33 10 17 64 32 32 0 4 47 33 1 3 10
split_gain=3.28237 2.81972 2.27665 1.2463 1.14002 1.00278 0.925371 1.00282 1.13399 0.813947 1.27201 0.83388 0.802594 1.02926
threshold=17449.435000000001 3282.2050000000004 62.650000000000006 31636.640000000003 41853.430000000008 2959.1650000000004 8083.0500000000011 0 0.15500000000000003 259.09166666666675 6247.3250000000016 1 4.6500000000000012 49.20000000000001
decision_type=2 8 2 10 2 10 10 1 2 10 10 1 2 2
left_child=1 3 -2 4 5 -1 7 -3 -9 11 -11 12 13 -10
right_child=2 6 -4 -5 -6 -7 -8 8 9 10 -12 -13 -14 -15
leaf_value=22.729724642921113 -1505.4996604839489 157.10435871704883 -23.569522137046306 27.268969733346871 -358.58500980008438 -15.700186031178291 926.68265056701296 -54.31739764443212 -313.22751496465224 -117.76571987077082 91.292488002435519 199.78616883417234 26.870038987983964 76.812850256599859
leaf_weight=32 21 367 20 24 22 40 611 22 61 20 21 187 106 38
leaf_count=32 21 367 20 24 22 40 611 22 61 20 21 187 106 38
internal_value=0.0018907 0.00225983 -0.0120732 -0.00516949 -0.00776596 -0.00472222 0.0028716 0.00177616 0.000161291 0.000727483 -0.00597561 0.00142857 -0.000813953 -0.00409091
internal_weight=1592 1551 41 118 94 72 1433 822 455 433 41 392 205 99
internal_count=1592 1551 41 118 94 72 1433 822 455 433 41 392 205 99
cat_boundaries=0 1 2
cat_threshold=735281 3192
is_linear=0
shrinkage=0.05


Tree=34
num_leaves=15
num_cat=2
split_feature=33 58 17 25 1 2 24 32 46 17 4 7 5 48
split_gain=2.8302 1.89948 1.27133 1.20098 0.926257 0.947081 1.54549 0.827732 0.840421 0.864891 0.75 0.659728 0.646998 0.32636
threshold=3364.4100000000003 17449.435000000001 13424.175000000001 7471.1150000000007 0 1 7464.3650000000007 8541.9000000000015 438.58500000000004 16934.285000000003 0.39500000000000007 112287.58000000002 2.5000000000000004 85.68874956141569
decision_type=8 2 10 10 1 9 8 10 8 10 2 2 2 8
left_child=2 4 3 10 5 13 -7 8 -8 11 -1 -10 -4 -2
right_child=1 -3 12 -5 -6 6 7 -9 9 -11 -12 -13 -14 -15
leaf_value=4.5638303691562072 -84.002199756497049 -1005.2176735954725 -230.6225513158162 -183.00192860786512 453.58979649182993 -54.575847352936016 43.109091724323314 1002.5010951791563 2.4863042309044054 -110.9583216207543 -263.63439460627694 -998.89303299479707 27.748276802169116 114.1774354116552
leaf_weight=24 28 25 27 20 826 21 56 63 65 22 24 20 42 329
leaf_count=24 28 25 27 20 826 21 56 63 65 22 24 20 42 329
internal_value=0.00201633 0.00266323 -0.00485401 -0.00970588 0.0029021 0.00133551 -0.00103113 0.000132744 -0.00174847 -0.00434579 -0.00541667 -0.00205882 -7.24636e-05 0.0029564
internal_weight=1592 1455 137 68 1430 604 247 226 163 107 48 85 69 357
internal_count=1592 1455 137 68 1430 604 247 226 163 107 48 85 69 357
cat_boundaries=0 1 2
cat_threshold=3650 94683377
is_linear=0
shrinkage=0.05


Tree=35
num_leaves=15
num_cat=2
split_feature=32 25 16 0 58 1 32 7 18 7 8 4 8 14
split_gain=2.32862 1.71259 1.16961 1.3444 1.55007 1.2793 2.06064 0.755515 0.588594 0.922068 1.28929 0.49687 0.485541 0.444168
threshold=-818.4649999999998 13570.830000000002 21827.715000000004 0 8185.9400000000005 1 4349.2450000000008 112287.58000000002 26915.780000000002 53263.42500000001 21.000000000000004 0.32500000000000007 15.000000000000002 92.500000000000014
decision_type=8 8 10 1 2 1 8 2 8 2 2 2 2 2
left_child=1 -1 3 13 5 6 -5 -7 9 -4 -11 -8 -9 -2
right_child=2 -3 8 4 -6 7 11 12 -10 10 -12 -13 -14 -15
leaf_value=-631.57300601976135 -33.08723422054598 30.49252034254712 314.75097278287353 -20.819503205380851 -983.81357060307403 26.122052337533532 -280.97876062909586 -992.11310403025664 746.66444948342371 -156.36046478220825 88.170903734697248 7.4546659950662928 10.609819163909775 110.87323199923581
leaf_weight=32 38 41 67 21 21 238 29 20 649 21 24 70 23 298
leaf_count=32 38 41 67 21 21 238 29 20 649 21 24 70 23 298
internal_value=0.00207915 -0.00664384 0.00249835 0.00110818 -0.000787037 -0.000112219 -0.00423077 0.0017354 0.00388305 0.000535714 -0.005 -0.00156566 -0.00430233 0.0034104
internal_weight=1592 73 1519 758 422 401 120 281 761 112 45 99 43 336
internal_count=1592 73 1519 758 422 401 120 281 761 112 45 99 43 336
cat_boundaries=0 1 2
cat_threshold=207977 2322
is_linear=0
shrinkage=0.05


Tree=36
num_leaves=15
num_cat=0
split_feature=32 3 7 7 58 6 9 8 9 9 43 53 33 13
split_gain=3.02498 0.955223 1.34734 2.08558 1.33636 0.866159 1.60556 3.02152 2.45455 1.53409 0.855615 0.810008 0.691573 1.05143
threshold=3461.0450000000005 10.100000000000001 117417.88500000002 146988.18500000003 16438.710000000003 1.0000000180025095e-35 6.5000000000000009 15.000000000000002 -1.0000000180025095e-35 2.5000000000000004 11032.320000000002 946.96413802213237 4883.7400000000007 103.95000000000002
decision_type=8 2 2 2 2 2 2 2 2 2 10 8 8 2
left_child=1 2 10 -4 -5 12 7 8 -7 -10 -1 -9 13 -2
right_child=5 -3 3 4 -6 6 -8 11 9 -11 -12 -13 -14 -15
leaf_value=-22.690664080210958 16.487297200145452 -19.967595515880305 -324.54450152025441 48.227772023042633 -690.49206311122555 66.41374176266531 340.87670573141349 -78.479575436798314 -1113.9340936128717 -251.6518541924535 21.508925248050325 92.128703141189774 494.58767189654822 -11.995245407375755
leaf_weight=20 39 21 31 33 22 22 285 32 24 20 68 175 776 24
leaf_count=20 39 21 31 33 22 22 285 32 24 20 68 175 776 24
internal_value=0.0018593 -0.00397436 -0.00275862 -0.0072093 -0.00136364 0.00267359 0.00114695 -0.00159341 -0.0109091 -0.0177273 0.00159091 0.00137681 0.00368892 -0.00134921
internal_weight=1592 195 174 86 55 1397 558 273 66 44 88 207 839 63
internal_count=1592 195 174 86 55 1397 558 273 66 44 88 207 839 63
is_linear=0
shrinkage=0.05


Tree=37
num_leaves=15
num_cat=2
split_feature=32 2 3 9 1 16 5 17 3 3 43 11 17 26
split_gain=2.42819 1.28952 1.65474 1.96617 1.32629 1.31871 0.980419 1.23144 0.762487 0.696245 0.640906 0.536629 0.444148 0.974659
threshold=3461.0450000000005 0 2.2500000000000004 1.0000000180025095e-35 1 12280.625000000002 1.0000000180025095e-35 14185.400000000001 1.3500000000000003 5.9500000000000011 13647.210000000001 110.30000000000001 23142.225000000002 11222.390000000001
decision_type=8 9 2 2 1 10 2 8 2 2 10 2 8 10
left_child=6 2 3 8 5 -4 -1 10 -2 -9 -8 -6 13 -3
right_child=1 12 4 -5 11 -7 7 9 -10 -11 -12 -13 -14 -15
leaf_value=-288.77082357945363 -18.715195951781919 40.342604293648066 -84.930876144935226 -981.38973063813194 470.33497424317852 8.7473843873408743 -564.16554269251446 29.310677293079859 610.11741130632333 -21.960981201204188 -12.794887655157773 -108.48713482030797 426.27017316828346 -105.27859659014428
leaf_weight=34 23 135 39 27 206 66 23 77 36 36 25 25 804 36
leaf_count=34 23 135 39 27 206 66 23 77 36 36 25 25 804 36
internal_value=0.00176508 0.00249463 0.000138889 -0.00604651 0.00172619 -0.00282609 -0.00346154 -0.0018323 -0.000932203 0.0010177 -0.00854167 0.00375519 0.00347716 0.00119883
internal_weight=1592 1397 422 86 336 105 195 161 59 113 48 231 975 171
internal_count=1592 1397 422 86 336 105 195 161 59 113 48 231 975 171
cat_boundaries=0 1 2
cat_threshold=24753160 3168
is_linear=0
shrinkage=0.05


Tree=38
num_leaves=15
num_cat=2
split_feature=32 2 46 1 58 13 33 3 4 9 43 10 7 9
split_gain=1.93408 2.20082 2.84692 1.52169 1.89871 1.33834 0.802716 0.754796 0.699507 0.624936 0.526377 0.505618 0.4942 0.746053
threshold=5351.4050000000016 0 1040.4650000000004 1 2571.5250000000001 102.35000000000001 6342.8650000000007 6.4500000000000011 0.55500000000000016 4.5000000000000009 16010.505000000003 34.150000000000013 123191.12000000001 8.5000000000000018
decision_type=10 9 10 1 2 2 8 2 2 2 10 2 2 2
left_child=1 2 3 4 7 -6 9 8 10 -2 -1 -5 -8 -14
right_child=6 -3 -4 11 5 -7 12 -9 -10 -11 -12 -13 13 -15
leaf_value=-56.656608692999399 32.49592701507224 53.938920971198087 -562.63384354565574 -1.5518664730937186 -304.19241598804035 -589.58579004177977 670.49594210432542 20.35394546230253 -40.457502659215294 -114.77579101885419 96.270754860745143 95.936043865342199 -309.55696352382972 585.99570554613524
leaf_weight=83 96 336 22 31 22 25 617 54 20 31 20 115 57 63
leaf_count=83 96 336 22 31 22 25 617 54 20 31 20 115 57 63
internal_value=0.00195352 5.49452e-05 -0.00246269 -0.00148649 -0.00397436 -0.0130851 0.00355324 -0.00177966 -0.00394309 -0.00011811 -0.00228155 0.0024359 0.00418589 0.00125
internal_weight=1592 728 392 370 224 47 864 177 123 127 103 146 737 120
internal_count=1592 728 392 370 224 47 864 177 123 127 103 146 737 120
cat_boundaries=0 1 2
cat_threshold=86586460 3920
is_linear=0
shrinkage=0.05


Tree=39
num_leaves=15
num_cat=3
split_feature=58 32 1 0 14 4 20 7 11 24 0 4 12 5
split_gain=1.97167 1.26019 1.58436 2.07816 1.78229 1.11207 0.62845 0.836997 0.57619 0.570969 0.745368 0.806061 0.821739 0.593939
threshold=20521.015000000003 6697.4650000000011 0 1 100.65000000000002 0.42500000000000004 27413.678333333333 53263.42500000001 98.000000000000014 11792.600000000002 2 0.41500000000000004 99.750000000000014 5.5000000000000009
decision_type=2 10 1 1 2 2 8 2 2 8 1 2 2 2
left_child=1 2 3 4 8 -6 7 -3 -1 -5 -11 13 -13 -12
right_child=-2 6 -4 9 5 -7 -8 -9 -10 10 11 12 -14 -15
leaf_value=-762.18937619472774 -775.25670963994912 160.39832949357765 137.97993085751176 15.188632005953393 -263.98747028224187 -12.575797381287307 712.91746809313861 -175.33872541593195 35.518925491614034 181.82583620514865 -16.210614614937267 36.163765889375007 -67.139044044107052 -380.46320234596368
leaf_weight=30 23 59 354 127 33 21 653 29 40 109 24 46 24 20
leaf_count=30 23 59 354 127 33 21 653 29 40 109 24 46 24 20
internal_value=0.00214196 0.002355 0.00101449 -0.00088843 -0.00619403 -0.0135185 0.0038529 -0.000113636 -0.00142857 0.00111111 -0.000381166 -0.00306452 1.86265e-10 -0.00863636
internal_weight=1592 1569 828 474 124 54 741 88 70 350 223 114 70 44
internal_count=1592 1569 828 474 124 54 741 88 70 350 223 114 70 44
cat_boundaries=0 1 2 3
cat_threshold=3666 279298 730145
is_linear=0
shrinkage=0.05


Tree=40
num_leaves=15
num_cat=1
split_feature=58 9 1 33 46 7 43 5 5 10 3 17 9 14
split_gain=2.21507 1.77254 0.831398 1.86072 0.713998 0.70379 1.07381 0.664866 1.3913 0.607266 2.18182 0.450437 0.344057 0.294393
threshold=7423.5800000000008 -1.0000000180025095e-35 0 5498.3850000000011 3792.4600000000005 153422.99500000002 17348.435000000001 6.5000000000000009 8.5000000000000018 32.250000000000007 3.0500000000000003 21645.935000000005 -3.4999999999999996 100.75000000000001
decision_type=2 2 1 8 8 2 8 2 2 2 2 8 2 2
left_child=2 5 3 -1 -4 6 -2 13 -9 10 -6 -11 -7 -5
right_child=1 -3 4 7 9 12 -8 8 -10 11 -12 -13 -14 -15
leaf_value=-64.552913859886118 25.811914061050942 -666.42834340678689 97.650565832719451 351.99460849601496 -368.76723650482018 163.09859636565875 -67.734595409500344 -135.98180917543613 612.99497470697258 -65.791694305067864 349.49840641486674 333.28720091120908 -66.273754576467738 32.859026948804164
leaf_weight=25 26 36 789 88 22 71 21 23 23 29 32 330 24 53
leaf_count=25 26 36 789 88 22 71 21 23 23 29 32 330 24 53
internal_value=0.00211055 -0.00314607 0.00277228 -0.00018018 0.00326733 -0.000633803 -0.0056383 0.00152406 -0.00369565 0.00161017 -0.00333333 0.00235376 0.00184211 0.00322695
internal_weight=1592 178 1414 212 1202 142 47 187 46 413 54 359 95 141
internal_count=1592 178 1414 212 1202 142 47 187 46 413 54 359 95 141
cat_boundaries=0 1
cat_threshold=2560
is_linear=0
shrinkage=0.05


Tree=41
num_leaves=15
num_cat=2
split_feature=58 32 0 17 24 1 14 7 13 58 3 12 7 36
split_gain=1.92087 1.42109 1.46338 1.82194 1.24303 0.832519 0.713766 0.964143 0.653333 0.6014 0.498275 0.653923 0.477655 1.32663
threshold=20521.015000000003 8713.3700000000008 0 20174.865000000005 9439.3700000000008 1 97.500000000000014 173051.08500000002 105.45 7423.5800000000008 3.5500000000000003 100.75000000000001 87063.920000000013 14833.840000000002
decision_type=2 10 1 8 10 1 2 2 2 2 2 2 2 8
left_child=1 2 3 4 -1 -5 7 -4 -6 10 11 -7 -3 -14
right_child=-2 12 6 5 8 9 -8 -9 -10 -11 -12 -13 13 -15
leaf_value=1.6656152908717439 -709.17400385964561 952.85125490421422 32.329947378531038 441.52484559197285 -111.376785871913 10.81751523386567 85.739181811288631 -924.15959135269031 -36.851858327860782 -244.52889691094438 52.035183072100722 -28.882693480159663 -149.59598703563336 1019.0650092866459
leaf_weight=35 23 427 263 106 30 39 370 20 20 25 82 22 33 97
leaf_count=35 23 427 263 106 30 39 370 20 20 25 82 22 33 97
internal_value=0.00195352 0.0021638 0.00104743 -0.00150406 -0.00794118 0.000437956 0.0024359 0.000583039 -0.013 -0.00174157 -0.000594405 -0.00401639 0.0041921 0.00153846
internal_weight=1592 1569 1012 359 85 274 653 283 50 168 143 61 557 130
internal_count=1592 1569 1012 359 85 274 653 283 50 168 143 61 557 130
cat_boundaries=0 1 2
cat_threshold=311574 271
is_linear=0
shrinkage=0.05


Tree=42
num_leaves=15
num_cat=2
split_feature=32 2 4 6 8 9 32 21 14 7 36 1 24 32
split_gain=1.89536 2.09841 2.56487 2.25697 1.87539 2.82965 1.08943 0.970221 0.790188 0.700209 1.11889 0.659582 0.700699 0.449242
threshold=8713.3700000000008 0 0.49500000000000005 1.0000000180025095e-35 15.000000000000002 6.5000000000000009 1379.4400000000003 4495.3121785050416 97.050000000000011 87063.920000000013 13219.503333333332 1 15762.945000000002 3753.2250000000008
decision_type=10 9 2 2 2 2 10 10 2 2 8 1 8 10
left_child=1 2 3 8 5 -5 -6 11 -1 -2 -11 12 -3 -13
right_child=9 7 -4 4 6 -7 -8 -9 -10 10 -12 13 -14 -15
leaf_value=-14.744629991840672 905.20869215900348 -44.572911375754558 89.641010692893829 -1392.3985926845069 10.59714905079575 -8.6081288580238162 -21.43655150960025 -11.588508049897301 17.388508674929035 -138.41708092044684 507.07605627558905 33.898390061165635 117.5375540409127 140.28805277019305
leaf_weight=33 427 46 133 38 32 24 23 23 72 26 106 319 80 210
leaf_count=33 427 46 133 38 32 24 23 23 72 26 106 319 80 210
internal_value=0.00167085 0.000401743 -0.00267123 -0.00603604 -0.010812 -0.0167742 -0.00409091 0.00202035 -0.000714286 0.0040161 0.000833334 0.00240458 -0.000882353 0.00314471
internal_weight=1592 1033 355 222 117 62 55 678 105 559 132 655 126 529
internal_count=1592 1033 355 222 117 62 55 678 105 559 132 655 126 529
cat_boundaries=0 1 2
cat_threshold=2700302 530
is_linear=0
shrinkage=0.05


Tree=43
num_leaves=15
num_cat=2
split_feature=58 9 16 0 1 7 46 47 48 10 9 12 3 14
split_gain=1.88433 2.3448 1.33599 1.77981 1.49626 1.14939 1.39434 0.949632 0.933889 0.809032 0.820334 0.828431 1.54435 0.492869
threshold=7423.5800000000008 1.0000000180025095e-35 21565.34 0 1 153422.99500000002 441.78000000000003 405.44833333333338 78.513965106063779 70.850000000000009 2.5000000000000004 100.75000000000001 3.2500000000000004 93.65000000000002
decision_type=2 2 10 1 1 2 8 8 8 2 2 2 2 2
left_child=2 5 3 4 -1 6 -2 -4 -6 10 11 12 -10 -5
right_child=1 -3 7 13 8 -7 -8 -9 9 -11 -12 -13 -14 -15
leaf_value=164.19627430701965 45.004635396461367 -661.95647651534171 -96.183570830640974 -25.591563964356062 -186.42521450836546 45.723353280444172 -104.83393080964018 460.45129337645432 -875.1410595311296 1.4569158347567681 108.85742469218758 -29.643886390345429 15.223111367622943 75.981428265116094
leaf_weight=132 22 28 22 44 20 99 29 680 22 41 37 34 46 336
leaf_count=132 22 28 22 44 20 99 29 680 22 41 37 34 46 336
internal_value=0.00170226 -0.00314607 0.00231259 0.000786517 -0.00187134 -0.000666666 -0.00676471 0.0038604 -0.00452381 -0.00361111 -0.00543165 -0.0077451 -0.00455882 0.00307692
internal_weight=1592 178 1414 712 332 150 51 702 200 180 139 102 68 380
internal_count=1592 178 1414 712 332 150 51 702 200 180 139 102 68 380
cat_boundaries=0 1 2
cat_threshold=807574 685
is_linear=0
shrinkage=0.05


Tree=44
num_leaves=15
num_cat=3
split_feature=58 32 1 0 3 12 7 9 52 36 10 5 5 2
split_gain=1.89572 1.53065 1.60919 1.90859 1.64805 1.55737 0.774371 0.983439 2.23297 0.818891 0.72535 0.82352 0.672549 0.647906
threshold=20521.015000000003 6254.4100000000008 0 1 7.5500000000000007 100.75000000000001 87063.920000000013 8.5000000000000018 3732.1850000000009 6864.6166666666677 49.20000000000001 5.5000000000000009 5.5000000000000009 2
decision_type=2 10 1 1 2 2 2 2 8 8 2 2 2 9
left_child=1 2 3 4 5 12 9 8 -8 -3 11 -5 -1 -4
right_child=-2 6 13 10 -6 -7 7 -9 -10 -11 -12 -13 -14 -15
leaf_value=21.60169996740688 -591.88245277427654 -26.143060760593585 -3.9827825311532181 28.765545247944985 3.0865330719060324 -92.583121220707326 -301.3497391822915 387.83493407156379 36.154265551846329 638.90834754266768 16.314613592201596 -203.60557583923662 -235.57938112919729 184.50972619886053
leaf_weight=30 23 29 121 79 21 39 20 98 79 550 169 42 21 271
leaf_count=30 23 29 121 79 21 39 20 98 79 550 169 42 21 271
internal_value=0.0018593 0.0020682 0.000523329 -0.001691 -0.00698347 -0.0105556 0.00364691 0.000939086 -0.00257576 0.00456822 0.0005 -0.00243802 -0.00480392 0.00276119
internal_weight=1592 1569 793 401 111 90 776 197 99 579 290 121 51 392
internal_count=1592 1569 793 401 111 90 776 197 99 579 290 121 51 392
cat_boundaries=0 1 2 3
cat_threshold=3664 279300 150995996
is_linear=0
shrinkage=0.05


Tree=45
num_leaves=15
num_cat=1
split_feature=58 32 2 4 7 8 9 9 9 3 32 17 3 11
split_gain=1.90409 1.34961 1.6147 1.18659 1.50716 1.10954 2.29479 1.01866 2.56059 0.825057 0.73003 0.568545 0.964498 1.34003
threshold=20521.015000000003 6254.4100000000008 0 0.50500000000000012 39364.930000000008 15.000000000000002 3.5000000000000004 1.0000000180025095e-35 6.5000000000000009 6.0500000000000007 1379.4400000000003 20747.720000000005 4.7500000000000009 97.750000000000014
decision_type=2 10 9 2 2 2 2 2 2 2 10 8 2 2
left_child=1 2 3 4 11 6 -6 -3 9 -9 -7 -1 13 -13
right_child=-2 7 -4 -5 5 10 -8 8 -10 -11 -12 12 -14 -15
leaf_value=9.6554104971101413 -562.28833013556266 575.26034777852863 37.18810740836954 28.507339426805419 -1149.2323450443394 6.2531645284017658 -13.364970815420273 -13.961192500324186 345.21969779601818 -278.52090891495158 -26.568884418366267 80.232165189678128 117.62519868379096 -33.293596247984986
leaf_weight=36 23 554 415 151 23 35 24 34 167 21 22 21 37 29
leaf_count=36 23 554 415 151 23 35 24 34 167 21 22 21 37 29
internal_value=0.0018907 0.00210006 0.000649433 -0.00170103 -0.00403084 -0.00846154 -0.0141489 0.00358247 0.000720721 -0.00863636 -0.00377193 -0.000284553 -0.00247126 -0.007
internal_weight=1592 1569 793 378 227 104 47 776 222 55 57 123 87 50
internal_count=1592 1569 793 378 227 104 47 776 222 55 57 123 87 50
cat_boundaries=0 1
cat_threshold=141112348
is_linear=0
shrinkage=0.05


Tree=46
num_leaves=15
num_cat=3
split_feature=33 1 21 32 2 1 3 10 9 7 9 8 13 33
split_gain=1.67984 2.00387 1.98074 1.49767 1.40618 1.3026 0.92716 1.12971 0.850679 0.843365 1.34366 2.26767 0.793709 0.89415
threshold=6342.8650000000007 0 3849.8931099012066 4588.2750000000005 1 2 3.4500000000000006 38.20000000000001 -1.4999999999999998 87063.920000000013 7.5000000000000009 21.000000000000004 104.45000000000002 2943.1700000000005
decision_type=8 1 10 10 9 1 2 2 2 2 2 2 2 10
left_child=1 -1 12 4 -2 -6 7 -7 -8 -5 11 -11 -3 -14
right_child=3 2 -4 9 5 6 8 -9 -10 10 -12 -13 13 -15
leaf_value=32.549202012817233 148.7572696823855 1.4508128227609882 -136.93323975170793 516.50686244656629 248.57438984027749 -169.00683193091905 -188.82852702521578 -9.2513621936200252 41.744267952008371 -342.20828338967459 343.87637505196221 931.03219267925726 -37.160841978258524 -45.616961113047921
leaf_weight=100 216 116 38 570 101 28 29 55 89 41 113 37 23 36
leaf_count=100 216 116 38 570 101 28 29 55 89 41 113 37 23 36
internal_value=0.00173367 -0.00154952 -0.00419282 0.00253714 0.000463321 -0.00173077 -0.00400474 -0.00825301 -0.00135593 0.00394875 0.0010733 -0.00397436 -0.00214286 -0.00686441
internal_weight=1592 313 213 1279 518 302 201 83 118 761 191 78 175 59
internal_count=1592 313 213 1279 518 302 201 83 118 761 191 78 175 59
cat_boundaries=0 1 2 3
cat_threshold=444 75778275 645
is_linear=0
shrinkage=0.05


Tree=47
num_leaves=15
num_cat=1
split_feature=32 2 4 6 8 9 43 7 36 46 11 11 3 12
split_gain=1.60301 1.61751 2.11693 1.88366 1.73354 2.70614 1.05138 0.700209 1.62978 0.67766 0.645624 0.938775 0.7095 0.399234
threshold=8713.3700000000008 0 0.49500000000000005 1.0000000180025095e-35 15.000000000000002 3.5000000000000004 15391.420000000002 87063.920000000013 13219.503333333332 3103.6100000000006 103.30000000000003 97.40000000000002 4.6500000000000012 103.25000000000001
decision_type=10 9 2 2 2 2 10 2 8 10 2 2 2 2
left_child=1 2 3 10 5 -5 -6 -2 -9 -3 11 -1 -13 -4
right_child=7 9 13 4 6 -7 -8 8 -10 -11 -12 12 -14 -15
leaf_value=123.73226868142511 750.39191499384242 39.732552297159806 103.03018106833383 -1345.765446414794 7.8494556802883722 -35.467109909649892 -29.117045309397799 -136.81020509015275 481.31444015058054 -90.015712188492301 24.319440491611832 -25.875956292386537 22.172319613871867 -2.4311213427493121
leaf_weight=23 427 588 132 34 42 29 20 26 106 30 51 29 20 35
leaf_count=23 427 588 132 34 42 29 20 26 106 30 51 29 20 35
internal_value=0.0018593 0.000692159 -0.00170588 -0.00467742 -0.009 -0.0148413 -0.00306452 0.0040161 0.000833334 0.00229299 -0.000284553 -0.00333333 -0.0072449 0.00260479
internal_weight=1592 1033 415 248 125 63 62 559 132 618 123 72 49 167
internal_count=1592 1033 415 248 125 63 62 559 132 618 123 72 49 167
cat_boundaries=0 1
cat_threshold=141112334
is_linear=0
shrinkage=0.05


Tree=48
num_leaves=15
num_cat=3
split_feature=32 21 17 1 0 11 32 0 60 32 3 32 43 43
split_gain=1.74796 1.36917 1.86069 1.57612 1.5839 1.4865 1.93978 0.885692 1.09061 0.843244 0.780255 0.560712 0.538828 0.433613
threshold=10037.900000000001 4419.6761401057074 21803.495000000006 0 1 103.60000000000001 4895.5650000000014 2 -0.93301270189221919 4084.0350000000003 4.0500000000000007 2554.9350000000004 16833.365000000002 7316.0750000000007
decision_type=10 10 10 1 1 2 10 1 2 10 2 10 8 10
left_child=1 3 -3 7 5 10 -7 8 -1 11 12 -6 -5 -12
right_child=-2 2 -4 4 9 6 -8 -9 -10 -11 13 -13 -14 -15
leaf_value=-16.028104696084295 836.19818821979595 -123.28898560123628 18.639803754644113 -556.91141131782831 3.8246043646323025 -86.573956827053294 -72.430946574286807 319.42917507713878 29.388057870829769 138.79801683043402 -5.5044304325305129 -7.7083706138726971 -12.209238923296873 33.501827116304106
leaf_weight=22 479 21 20 24 188 27 28 349 87 170 42 34 58 43
leaf_count=22 479 21 20 24 188 27 28 349 87 170 42 34 58 43
internal_value=0.00163945 0.000552561 -0.00841463 0.000895523 -0.000769231 -0.00405172 -0.0113636 0.00307692 -0.000882353 0.00114428 -0.00188623 -0.000855856 -0.00536585 0.00147059
internal_weight=1592 1113 41 1072 614 222 55 458 109 392 167 222 82 85
internal_count=1592 1113 41 1072 614 222 55 458 109 392 167 222 82 85
cat_boundaries=0 1 2 3
cat_threshold=429 279190 557130
is_linear=0
shrinkage=0.05


Tree=49
num_leaves=15
num_cat=2
split_feature=33 1 24 4 32 1 58 34 10 7 9 8 46 16
split_gain=1.58212 2.22868 2.18997 2.1248 1.44128 1.32959 1.05169 0.997617 0.869596 0.723912 0.955897 1.89409 0.654183 0.581818
threshold=6342.8650000000007 0 11458.895000000002 0.43500000000000005 3403.3400000000006 1 2571.5250000000001 7946.5800000000008 52.20000000000001 87063.920000000013 7.5000000000000009 21.000000000000004 714.08500000000015 11953.980000000001
decision_type=8 1 10 2 10 1 2 8 2 2 2 2 10 10
left_child=1 2 -1 -4 5 6 -2 -5 -8 -6 11 12 -11 -3
right_child=4 13 3 7 9 -7 8 -9 -10 10 -12 -13 -14 -15
leaf_value=6.2341889878154895 -3.4781324682895454 -2.1996090990698538 -142.64528788022628 -170.72528039367518 409.49354409229778 200.74545633215467 -421.77328194472534 37.595997495567623 1.3265098362857615 -298.36675756674077 277.54042592442079 721.17241835690561 -159.81018197107383 26.155334744657011
leaf_weight=44 179 33 21 27 598 249 28 23 23 21 119 40 22 165
leaf_count=44 179 33 21 27 598 249 28 23 23 21 119 40 22 165
internal_value=0.00179648 -0.00138978 -0.0066 -0.0126056 0.00257623 0.000407098 -0.00229167 -0.007 -0.00872549 0.003875 0.00128713 -0.00283133 -0.0101163 0.001875
internal_weight=1592 313 115 71 1279 479 230 50 51 800 202 83 43 198
internal_count=1592 313 115 71 1279 479 230 50 51 800 202 83 43 198
cat_boundaries=0 1 2
cat_threshold=579 1368
is_linear=0
shrinkage=0.05


Tree=50
num_leaves=15
num_cat=3
split_feature=33 1 24 4 32 1 0 9 10 5 9 9 8 36
split_gain=1.68959 1.86103 1.4554 2.28484 1.27468 1.08381 1.52218 1.11895 0.953947 1.30733 0.872837 2.02042 1.07305 0.769838
threshold=6402.3200000000006 0 11458.895000000002 0.43500000000000005 4641.1100000000015 1 2 2.5000000000000004 48.900000000000006 5.5000000000000009 1.0000000180025095e-35 6.5000000000000009 15.000000000000002 8067.9350000000004
decision_type=8 1 10 2 10 1 1 2 2 2 2 2 2 8
left_child=1 2 -1 -4 5 6 -2 8 9 -8 -6 12 -12 -5
right_child=4 -3 3 13 10 -7 7 -9 -10 -11 11 -13 -14 -15
leaf_value=5.9224795384247173 70.832203700567575 5.1820458009085026 -132.96094832524111 -139.64373631916595 506.60999558093818 134.97700375681865 -38.879853880574572 281.16738981285488 -2.5525609188594589 -202.96372625722518 -405.66715811025472 355.91914863040552 -29.252639432165253 48.762211775740326
leaf_weight=44 102 200 22 28 530 273 47 30 40 29 22 162 38 25
leaf_count=44 102 200 22 28 530 273 47 30 40 29 22 162 38 25
internal_value=0.00167085 -0.00158307 -0.00624031 -0.011 0.00248625 0.000585413 -0.00178295 -0.0049359 -0.0075 -0.0107895 0.00380319 0.00117117 -0.00666667 -0.00537736
internal_weight=1592 319 119 75 1273 521 248 146 116 76 752 222 60 53
internal_count=1592 319 119 75 1273 521 248 146 116 76 752 222 60 53
cat_boundaries=0 1 2 3
cat_threshold=579 3184 731177
is_linear=0
shrinkage=0.05


Tree=51
num_leaves=15
num_cat=2
split_feature=58 32 33 1 0 10 43 43 46 32 9 9 53 10
split_gain=1.38964 1.18895 1.35203 0.958357 1.2227 0.808595 0.803154 1.13984 2.18428 0.773333 0.761473 1.85573 4.09578 0.570829
threshold=17449.435000000001 6254.4100000000008 5351.4050000000016 0 1 62.650000000000006 21069.320000000003 12674.790000000003 242.47000000000003 3130.9000000000005 1.5000000000000002 8.5000000000000018 2287.7234363794432 31.200000000000006
decision_type=2 10 8 1 1 2 8 10 10 10 2 2 8 2
left_child=1 3 -3 13 -5 -2 7 9 -9 -6 -4 12 -12 -1
right_child=5 2 10 4 6 -7 -8 8 -10 -11 11 -13 -14 -15
leaf_value=-21.161256496003844 -1057.4857466153501 -35.669754732767927 492.40603381205619 18.462872569017389 -40.938396788516968 98.90915033104514 -4.866709874054914 4.8084839200651537 -79.987811370030101 5.104978215108158 -290.47851587865836 416.95154951254858 34.247522569147115 154.62561892075178
leaf_weight=30 21 37 527 220 25 20 163 29 36 29 21 134 56 244
leaf_count=30 21 37 527 220 25 20 163 29 36 29 21 134 56 244
internal_value=0.0018907 0.00213088 0.00351613 0.000747423 -0.000566406 -0.00719512 -0.00270548 -0.00592437 -0.0103846 -0.000555555 0.00398374 0.0014455 -0.00474026 0.00306338
internal_weight=1592 1551 775 776 502 41 282 119 65 54 738 211 77 274
internal_count=1592 1551 775 776 502 41 282 119 65 54 738 211 77 274
cat_boundaries=0 1 2
cat_threshold=173 175217
is_linear=0
shrinkage=0.05


Tree=52
num_leaves=15
num_cat=2
split_feature=58 32 21 2 1 24 3 5 14 14 7 16 7 36
split_gain=1.38278 1.01553 1.04174 0.795604 0.861151 1.60538 1.67203 0.608003 0.739138 0.639122 0.567227 0.527569 0.516629 1.5825
threshold=20521.015000000003 10037.900000000001 4419.6761401057074 0 1 15413.705000000002 3.3500000000000001 2.5000000000000004 101.85000000000001 95.700000000000017 49597.335000000006 8006.5800000000008 83750.190000000017 13219.503333333332
decision_type=2 10 10 9 1 8 2 2 2 2 2 10 2 8
left_child=1 2 3 4 5 6 -1 8 9 -6 -11 -10 -3 -14
right_child=-2 12 -4 -5 7 -7 -8 -9 11 10 -12 -13 13 -15
leaf_value=17.981107143961946 -440.61199743239604 804.13267194690059 -39.006220298010845 48.305560304295852 129.07159151501872 7.2837096914235451 -81.18154930054564 38.696975897437653 -146.62733582737695 -17.142447835259897 -331.38987323992234 23.512032563320499 -216.81900298441352 984.44053457128166
leaf_weight=20 23 359 38 581 21 73 27 194 20 30 21 67 22 96
leaf_count=20 23 359 38 581 21 73 27 194 20 30 21 67 22 96
internal_value=0.00195352 0.00213193 0.00129121 0.00158444 3.10561e-05 -0.00346154 -0.0109574 0.00128099 -0.000974843 -0.00472222 -0.0077451 0.00212644 0.0040566 0.00118644
internal_weight=1592 1569 1092 1054 473 120 47 353 159 72 51 87 477 118
internal_count=1592 1569 1092 1054 473 120 47 353 159 72 51 87 477 118
cat_boundaries=0 1 2
cat_threshold=157817902 2592
is_linear=0
shrinkage=0.05


Tree=53
num_leaves=15
num_cat=4
split_feature=58 32 2 1 4 32 33 3 0 1 18 3 3 32
split_gain=1.38278 1.12916 0.723207 1.06093 0.681895 1.02396 1.62054 1.03725 0.615441 0.585797 0.486966 0.484263 1.5347 0.516888
threshold=20521.015000000003 10037.900000000001 0 1 0.43500000000000005 4084.0350000000003 6342.8650000000007 3.2500000000000004 2 3 15508.745000000001 8.2500000000000018 6.2500000000000009 7853.7500000000009
decision_type=2 10 9 1 2 10 8 2 1 1 10 2 2 8
left_child=1 2 3 4 5 7 -7 -1 -4 11 -5 12 13 -10
right_child=-2 -3 8 10 -6 6 -8 -9 9 -11 -12 -13 -14 -15
leaf_value=-293.23376652876061 -418.58139756077628 734.55243943516552 172.64872492370091 102.19649361048113 1.5031714229776147 -104.4745490465974 -5.0718128375451492 4.0296606585765913 11.75064578176849 105.34207432714614 -31.642944948427754 18.300631425992179 -48.302768562576432 -29.795475711997774
leaf_weight=34 23 477 224 171 83 24 32 51 104 171 20 52 25 101
leaf_count=34 23 477 224 171 83 24 32 51 104 171 20 52 25 101
internal_value=0.00195352 0.00213193 0.00124542 -0.000411765 -0.00269231 -0.00492908 -0.0101786 -0.00147059 0.00223435 0.00111231 0.00226368 -0.000308219 -0.00130435 0.000121951
internal_weight=1592 1569 1092 415 224 141 56 85 677 453 191 282 230 205
internal_count=1592 1569 1092 415 224 141 56 85 677 453 191 282 230 205
cat_boundaries=0 1 2 3 4
cat_threshold=23663662 3696 174177 1115
is_linear=0
shrinkage=0.05


Tree=54
num_leaves=15
num_cat=2
split_feature=7 9 52 8 3 32 1 0 4 36 32 3 12 5
split_gain=1.11355 2.15821 3.54508 1.62678 2.29365 1.08931 0.757419 0.565241 1.18526 0.535812 0.514564 0.420964 0.403229 0.561195
threshold=49597.335000000006 8.5000000000000018 650.71333333333348 10.500000000000002 2.3500000000000001 4975.9000000000005 0 1 0.42500000000000004 6233.8733333333339 3831.9650000000006 1.2500000000000002 97.300000000000026 5.5000000000000009
decision_type=2 2 8 2 2 10 1 1 2 8 10 2 2 2
left_child=5 2 -2 4 -4 6 -1 8 -5 -7 11 -8 13 -13
right_child=1 -3 3 7 -6 9 10 -9 -10 -11 -12 12 -14 -15
leaf_value=220.30597777238097 -400.29294074766818 276.76707900465061 -1236.3521092816795 -175.14851512741632 -0.35500666186880708 -4.7073592398977402 -17.306125473978753 30.841028929429559 18.438134173350115 355.70021759929023 -20.465613703176519 23.717479995686581 16.814211298075531 -41.060305316402371
leaf_weight=125 34 216 21 39 42 27 22 259 65 533 35 34 112 28
leaf_count=125 34 216 21 39 42 27 22 259 65 533 35 34 112 28
internal_value=0.00195352 0.000414201 -0.00152174 -0.00028169 -0.00769841 0.00308952 0.000926966 0.00100551 -0.00201754 0.00446429 -0.000809128 0.000153061 0.000977012 -0.00225806
internal_weight=1592 676 460 426 63 916 356 363 104 560 231 196 174 62
internal_count=1592 676 460 426 63 916 356 363 104 560 231 196 174 62
cat_boundaries=0 1 2
cat_threshold=397 262922
is_linear=0
shrinkage=0.05


Tree=55
num_leaves=15
num_cat=3
split_feature=32 47 2 1 7 8 4 11 7 36 25 4 1 11
split_gain=1.16498 1.00538 0.962168 0.944543 0.829213 1.12887 0.759712 1.15577 0.75515 1.58861 0.587836 0.653162 0.460313 0.457281
threshold=8083.0500000000011 1684.4050000000004 0 1 112287.58000000002 15.000000000000002 0.35500000000000004 101.75000000000001 83750.190000000017 13219.503333333332 11391.095000000003 0.55500000000000016 2 100.25000000000001
decision_type=10 10 9 1 2 2 2 2 2 8 10 2 1 2
left_child=1 2 3 4 10 -6 7 -5 -2 -10 11 13 -4 -1
right_child=8 -3 12 6 5 -7 -8 -9 9 -11 -12 -13 -14 -15
leaf_value=-0.66923533946083458 483.32948555651757 -274.37231495692839 0.64051258562522573 -79.460146867640788 -1174.5345119484161 21.69607746051102 65.801134549570392 12.380270926385322 -82.053425895783221 220.46077508894038 -15.663492590830883 -11.470825041898877 114.28051544674318 26.404531283943868
leaf_weight=55 461 20 123 30 31 22 178 44 32 126 22 31 359 58
leaf_count=55 461 20 123 30 31 22 178 44 32 126 22 31 359 58
internal_value=0.00217337 0.00109455 0.00132739 -0.000301455 -0.00264192 -0.00820755 0.00175573 -0.00243243 0.00386914 0.000886076 -0.0010241 0.000138889 0.00286585 0.00190266
internal_weight=1592 973 953 471 219 53 252 74 619 158 166 144 482 113
internal_count=1592 973 953 471 219 53 252 74 619 158 166 144 482 113
cat_boundaries=0 1 2 3
cat_threshold=23606846 3608 594
is_linear=0
shrinkage=0.05


Tree=56
num_leaves=15
num_cat=2
split_feature=33 1 18 32 12 1 43 16 3 9 14 5 7 9
split_gain=1.64511 2.08288 1.76 1.11551 0.969799 0.906385 1.2463 0.900708 0.760464 0.869673 0.951017 1.62764 0.624704 0.950695
threshold=6342.8650000000007 0 14828.630000000001 4641.1100000000015 99.550000000000026 1 14971.620000000001 11953.980000000001 4.9500000000000011 2.5000000000000004 96.65000000000002 1.5000000000000002 83750.190000000017 8.5000000000000018
decision_type=8 1 10 10 2 1 10 10 2 2 2 2 2 2
left_child=1 2 4 5 -1 8 -7 -3 9 10 -2 -12 -5 -14
right_child=3 7 -4 12 -6 6 -8 -9 -10 -11 11 -13 13 -15
leaf_value=11.86524656523653 -339.56944103183281 -4.5301297986203215 -97.85225948769137 372.0496779528778 -57.290669062633221 310.33077029935771 -40.548791217216419 18.637016732035089 17.225435868735342 166.97071430522183 -129.4224602281021 41.747481939258549 -55.430226210207344 302.99789613925185
leaf_weight=52 41 33 32 560 34 262 29 162 96 31 22 40 101 97
leaf_count=52 41 33 32 560 34 262 29 162 96 31 22 40 101 97
internal_value=0.0018593 -0.00138978 -0.00632812 0.00265442 -0.00313953 0.000873321 0.00267442 0.00182927 -0.00145833 -0.00395522 -0.00616505 -0.00225806 0.00387863 0.00146465
internal_weight=1592 313 118 1279 86 521 291 195 230 134 103 62 758 198
internal_count=1592 313 118 1279 86 521 291 195 230 134 103 62 758 198
cat_boundaries=0 1 2
cat_threshold=2625 1114
is_linear=0
shrinkage=0.05


Tree=57
num_leaves=15
num_cat=3
split_feature=58 32 1 0 34 3 37 9 32 5 7 0 32 11
split_gain=0.992465 0.810956 0.762153 0.931443 0.736761 1.1278 1.80648 0.680241 0.648025 0.615712 0.853186 0.429564 0.411094 0.405093
threshold=20521.015000000003 4975.9000000000005 0 1 9046.9200000000019 6.0500000000000007 1499.0842056744093 2.5000000000000004 3865.8450000000007 6.5000000000000009 104951.645 2 2554.9350000000004 99.100000000000009
decision_type=2 10 1 1 8 2 10 2 10 2 2 1 10 2
left_child=1 2 3 7 5 -3 -7 9 -5 10 13 12 -4 -1
right_child=-2 4 11 8 -6 6 -8 -9 -10 -11 -12 -13 -14 -15
leaf_value=24.783449400225209 -359.33381390468969 30.049641106497575 14.496636208827262 12.047142479410979 313.50941630622708 35.612190902313664 -94.573447611640361 156.58826092430192 -38.048734427110787 -96.243888621527304 -555.09701984494768 124.21605562899737 -21.108950296956795 -6.9758899194392008
leaf_weight=21 23 111 89 194 723 31 20 25 28 25 20 232 23 27
leaf_count=21 23 111 89 194 723 31 20 25 28 25 20 232 23 27
internal_value=0.00226759 0.00241874 0.00112573 -0.000571428 0.00341808 0.000370371 -0.00578431 -0.00398437 0.00133621 -0.00629032 -0.00382353 0.00274011 8.19674e-05 -0.000208333
internal_weight=1592 1569 684 340 885 162 51 118 222 93 68 344 112 48
internal_count=1592 1569 684 340 885 162 51 118 222 93 68 344 112 48
cat_boundaries=0 1 2 3
cat_threshold=3664 344960 561240
is_linear=0
shrinkage=0.05


Tree=58
num_leaves=15
num_cat=2
split_feature=2 7 4 14 33 32 10 0 16 10 43 32 9 9
split_gain=1.07476 2.16386 2.38194 1.15112 0.811461 0.756391 0.967755 0.525897 0.734722 0.73373 0.419048 0.396301 0.637693 1.66664
threshold=0 123191.12000000001 0.53500000000000014 100.15000000000002 4764.2650000000003 3753.2250000000008 87.450000000000017 1 21979.135000000002 44.70000000000001 22321.550000000003 4641.1100000000015 1.0000000180025095e-35 6.5000000000000009
decision_type=9 2 2 2 8 10 2 1 10 2 8 10 2 2
left_child=1 7 3 -3 5 -2 -7 8 9 -1 -11 -6 -13 -14
right_child=4 2 -4 -5 11 6 -8 -9 -10 10 -12 12 13 -15
leaf_value=-16.777661963011585 13.721787408701921 -1306.9501003195139 103.35960123730425 -207.62556424005581 19.400755086653582 -38.526956052722383 2.0755753015064813 317.23097980921398 331.1134690398481 -7.0158189354479354 41.827023253650268 318.10953908856521 -61.764236392275365 195.81852750850203
leaf_weight=30 92 21 36 27 407 36 31 140 48 20 22 479 47 156
leaf_count=30 92 21 36 27 407 36 31 140 48 20 22 479 47 156
internal_value=0.00198492 -0.000508474 -0.0075 -0.0147917 0.00265501 -0.000660377 -0.00470149 0.00173077 -0.000769231 -0.00402778 0.000238095 0.00316345 0.00390029 0.00155172
internal_weight=1592 344 84 48 1248 159 67 260 120 72 42 1089 682 203
internal_count=1592 344 84 48 1248 159 67 260 120 72 42 1089 682 203
cat_boundaries=0 1 2
cat_threshold=19440642 147522
is_linear=0
shrinkage=0.05


Tree=59
num_leaves=15
num_cat=2
split_feature=17 1 24 33 3 5 9 24 0 10 46 16 4 13
split_gain=1.36724 1.96841 1.81129 1.23437 1.5873 1.48163 1.2398 0.879796 0.87645 0.880369 1.4881 0.796323 0.793851 0.595238
threshold=24118.340000000004 0 9217.2600000000002 7946.5800000000008 3.0500000000000003 3.5000000000000004 3.5000000000000004 14580.320000000002 1 43.750000000000007 351.25000000000006 11720.570000000002 0.39500000000000007 101.25000000000001
decision_type=8 1 10 10 2 2 2 10 1 2 8 10 2 2
left_child=1 11 -3 4 13 -6 -7 8 9 10 -2 -1 -12 -4
right_child=7 2 3 -5 5 6 -8 -9 -10 -11 12 -13 -14 -15
leaf_value=-298.83333050296454 -104.36298917382042 17.142461579312233 9.1703791160768109 128.82725581743759 -63.38010048935628 -11.809055225256154 -105.34989152228395 272.66321357345163 63.078487162434982 18.15967182987962 -253.4130670128016 107.39964620458619 81.989347362870546 -242.48098276340957
leaf_weight=25 21 41 21 26 35 28 21 645 356 122 31 146 53 21
leaf_count=25 21 41 21 26 35 28 21 645 356 122 31 146 53 21
internal_value=0.00192211 -0.000769231 -0.0041133 -0.0068421 -0.00888889 -0.0128571 -0.0072449 0.00271987 0.00131218 -0.00111814 -0.00452381 0.0030663 -0.00154762 -0.000952381
internal_weight=1592 364 193 152 126 84 49 1228 583 227 105 171 84 42
internal_count=1592 364 193 152 126 84 49 1228 583 227 105 171 84 42
cat_boundaries=0 1 2
cat_threshold=1196 836290
is_linear=0
shrinkage=0.05


Tree=60
num_leaves=15
num_cat=3
split_feature=32 0 4 14 5 48 8 8 33 7 2 1 34 14
split_gain=1.12257 1.25104 1.03953 1.46957 0.796838 0.701861 0.619804 2.3454 0.693018 0.616282 0.586449 0.628209 0.43466 0.468085
threshold=10037.900000000001 0 0.38500000000000006 101.75000000000001 3.5000000000000004 2445.2951269212858 10.500000000000002 7.5000000000000009 7946.5800000000008 229703.15000000005 1 2 9046.9200000000019 101.85000000000001
decision_type=10 1 2 2 2 10 2 2 8 2 9 1 8 2
left_child=1 2 3 4 -1 10 7 8 -4 12 11 -3 13 -2
right_child=9 5 6 -5 -6 -7 -8 -9 -10 -11 -12 -13 -14 -15
leaf_value=-225.46390242154976 273.71771910727983 30.715074238550599 -8.4483734212420405 -60.480942538587215 4.784022308977594 -50.786168499606134 94.436508933853787 -1038.2589701884926 110.90012989541381 -78.292860963467461 71.07580629246327 -6.8862568597903264 878.82742751607009 -83.102077398615947
leaf_weight=22 22 123 34 23 70 21 84 20 99 21 448 169 411 25
leaf_count=22 22 123 34 23 70 21 84 20 99 21 448 169 411 25
internal_value=0.00182789 0.000956873 -0.00149171 -0.00543478 -0.0026087 0.00208171 0.00035865 -0.00153595 0.000864662 0.00385177 0.00236486 0.000529801 0.00423581 -0.000319149
internal_weight=1592 1113 352 115 92 761 237 153 133 479 740 292 458 47
internal_count=1592 1113 352 115 92 761 237 153 133 479 740 292 458 47
cat_boundaries=0 1 2 3
cat_threshold=50706 151524888 159
is_linear=0
shrinkage=0.05


Tree=61
num_leaves=15
num_cat=2
split_feature=33 1 21 18 32 1 43 9 9 16 10 5 10 7
split_gain=1.35213 2.13584 1.25964 1.19565 1.16329 0.836518 0.790243 0.779451 0.737611 0.728139 0.692316 0.807653 0.798066 0.674109
threshold=8063.3950000000013 0 4419.6761401057074 24004.495000000006 4641.1100000000015 1 15101.105000000001 2.5000000000000004 2.5000000000000004 19902.910000000003 48.70000000000001 5.5000000000000009 32.250000000000007 123191.12000000001
decision_type=8 1 10 10 10 1 10 2 2 10 2 2 2 2
left_child=1 -1 8 -4 5 6 -2 10 -3 -10 11 12 -7 -6
right_child=4 2 3 -5 13 7 -8 -9 9 -11 -12 -13 -14 -15
leaf_value=49.445258703021523 299.60247741238635 -0.33690866691648347 -75.249628853099935 -81.985649602836375 341.59403032892988 -14.779801045251231 -29.041060672579363 152.63726543841241 1.6183354838592381 -104.22394093030512 6.0586227589453445 -249.70108804925712 45.525664605226837 26.623626119492471
leaf_weight=192 221 136 22 23 551 23 23 56 22 20 101 37 59 106
leaf_count=192 221 136 22 23 551 23 23 56 22 20 101 37 59 106
internal_value=0.00167085 -0.000783132 -0.00401288 -0.0116667 0.00253611 0.000769231 0.00283465 -0.00111888 -0.00230337 -0.00809524 -0.0025 -0.00508403 -0.00231707 0.00393455
internal_weight=1592 415 223 45 1177 520 244 276 178 42 220 119 82 657
internal_count=1592 415 223 45 1177 520 244 276 178 42 220 119 82 657
cat_boundaries=0 1 2
cat_threshold=1196 429
is_linear=0
shrinkage=0.05


Tree=62
num_leaves=15
num_cat=4
split_feature=2 1 33 4 32 3 46 43 14 7 32 0 1 4
split_gain=1.21569 1.46893 1.07829 0.914605 0.770933 0.963291 0.661353 0.839683 1.03052 0.633772 0.533203 0.577576 0.998103 0.495712
threshold=0 1 4764.2650000000003 0.30500000000000005 3753.2250000000008 5.3500000000000005 692.32500000000016 17200.330000000005 98.550000000000011 136588.89500000005 9843.8750000000018 2 3 0.27500000000000008
decision_type=9 1 8 2 10 2 10 8 2 2 10 1 1 2
left_child=1 3 4 -1 -2 -6 7 -5 -9 -3 11 -4 13 -13
right_child=2 9 10 6 5 -7 -8 8 -10 -11 -12 12 -14 -15
leaf_value=68.451140567402859 6.2734898138878918 263.68912167017396 104.89994962626734 -311.9373016748018 4.0303368774120694 -45.985081183469312 10.46126457789256 278.78799071018034 -11.574080614238975 -15.991854974277169 563.78605304313203 -11.157481501373066 -27.447049759327225 107.32318480118687
leaf_weight=24 102 128 364 30 45 29 20 20 22 24 412 32 154 186
leaf_count=24 102 128 364 30 45 29 20 20 22 24 412 32 154 186
internal_value=0.00176508 -0.00129496 0.00237631 -0.00531746 -0.00125 -0.00513513 -0.00804348 -0.0102778 -0.00571429 0.00191358 0.00295296 0.00214674 0.000680628 0.00280702
internal_weight=1592 268 1324 116 176 74 92 72 42 152 1148 736 372 218
internal_count=1592 268 1324 116 176 74 92 72 42 152 1148 736 372 218
cat_boundaries=0 1 2 3 4
cat_threshold=21536802 3592 469301 3717
is_linear=0
shrinkage=0.05


Tree=63
num_leaves=15
num_cat=2
split_feature=2 7 9 33 11 9 46 0 3 33 33 43 17 16
split_gain=1.21638 1.61424 2.02976 1.66071 1.32423 1.16696 1.01731 0.879523 1.24278 0.591677 0.574858 0.627237 0.913505 0.526756
threshold=0 78523.950000000026 8.5000000000000018 2175.4050000000002 104.65000000000002 2.5000000000000004 416.38000000000005 1 2.4500000000000006 7487.5850000000009 4549.5650000000005 15023.055000000002 15111.345000000003 12386.130000000003
decision_type=9 2 2 8 2 2 10 1 2 8 8 10 10 8
left_child=1 7 3 -3 5 6 -5 8 -1 -10 11 -2 -13 -12
right_child=10 2 -4 4 -6 -7 -8 -9 9 -11 13 12 -14 -15
leaf_value=-14.489108564149156 9.1923434870672889 15.031635834768011 247.92824900336734 -768.59419418976586 -357.83301605032187 192.25247844879334 -6.2719002459739164 112.82942975373255 -15.592510901964472 31.72722233529085 -26.982630259673886 4.2026271490385767 -46.958026067597764 149.92872505572402
leaf_weight=28 66 28 44 32 23 21 20 224 23 65 30 23 29 936
leaf_count=28 66 28 44 32 23 21 20 224 23 65 30 23 29 936
internal_value=0.00182789 -0.000212355 -0.00422619 -0.0075 -0.010625 -0.00732877 -0.0113462 0.00176471 -0.00174603 0.00102273 0.00276051 -0.000508474 -0.00461538 0.00318841
internal_weight=1592 508 168 124 96 73 52 340 116 88 1084 118 52 966
internal_count=1592 508 168 124 96 73 52 340 116 88 1084 118 52 966
cat_boundaries=0 1 2
cat_threshold=23633946 147462
is_linear=0
shrinkage=0.05


Tree=64
num_leaves=15
num_cat=3
split_feature=32 0 9 9 10 17 1 7 43 13 3 34 14 1
split_gain=1.15769 1.07926 1.18801 2.51222 2.17509 1.83792 0.949156 0.616282 0.596608 0.575728 0.536941 0.43466 0.468085 0.412072
threshold=10037.900000000001 0 1.0000000180025095e-35 2.5000000000000004 51.250000000000007 13946.310000000001 1 229703.15000000005 21028.555000000004 95.700000000000003 10.100000000000001 9046.9200000000019 101.85000000000001 2
decision_type=10 1 2 2 2 10 1 2 10 2 2 8 2 1
left_child=1 13 6 4 -4 -5 8 11 10 -8 -3 12 -2 -1
right_child=7 2 3 5 -6 -7 9 -9 -10 -11 -12 -13 -14 -15
leaf_value=1.3217877622675054 228.32775233847212 7.6613881207063619 -1143.7317267057788 140.31835039252755 -299.03745764014218 -47.862935727089301 -16.992115108010264 -44.206207262490558 -12.405701566150606 35.942562421894237 -44.445561103666741 787.73349757359517 -90.381984541225847 72.705328449829665
leaf_weight=121 22 80 21 91 23 37 25 21 23 308 23 411 25 361
leaf_count=121 22 80 21 91 23 37 25 21 23 308 23 411 25 361
internal_value=0.00179648 0.00091195 -0.000460218 -0.00401163 -0.0143182 -0.00046875 0.000860567 0.00385177 -0.00272059 0.00223032 -0.00131068 0.00423581 -0.000319149 0.0026626
internal_weight=1592 1113 631 172 44 128 459 479 126 333 103 458 47 482
internal_count=1592 1113 631 172 44 128 459 479 126 333 103 458 47 482
cat_boundaries=0 1 2 3
cat_threshold=473185 2368 594
is_linear=0
shrinkage=0.05


Tree=65
num_leaves=15
num_cat=2
split_feature=1 0 7 32 16 4 5 8 33 9 14 21 43 4
split_gain=1.0405 1.38755 1.11184 0.96595 0.897008 1.17188 0.880208 1.1808 0.625369 1.05214 0.601829 0.544396 0.365957 0.46298
threshold=0 1 112287.58000000002 6254.4100000000008 15892.715000000002 0.57500000000000007 6.5000000000000009 15.000000000000002 8063.3950000000013 1.5000000000000002 94.15000000000002 4419.6761401057074 6571.295000000001 0.33500000000000008
decision_type=1 1 2 10 10 2 2 2 8 2 2 10 10 2
left_child=1 2 3 4 5 12 7 -4 9 -2 -3 -12 13 -1
right_child=8 10 6 -5 -6 -7 -8 -9 -10 -11 11 -13 -14 -15
leaf_value=-12.919563851253223 38.331704406725287 -12.76160596892823 -789.09155729052111 138.64817711314964 -23.022432797111684 -10.734738871068572 26.546808406099299 -20.6087206661709 255.1894336030058 -92.266832930630528 29.848248198682327 -55.818046267549121 26.9187221765423 87.494856557894352
leaf_weight=21 156 44 36 92 20 26 32 28 686 38 313 31 43 26
leaf_count=21 156 44 36 92 20 26 32 28 686 38 313 31 43 26
internal_value=0.00195352 0.000498615 -0.00188623 -4.38595e-05 -0.00272059 -0.00103448 -0.00645833 -0.00984375 0.00308989 0.000618557 0.00248744 0.00325581 0.00166667 -0.00138298
internal_weight=1592 712 324 228 136 116 96 64 880 194 388 344 90 47
internal_count=1592 712 324 228 136 116 96 64 880 194 388 344 90 47
cat_boundaries=0 1 2
cat_threshold=3664 412438
is_linear=0
shrinkage=0.05


Tree=66
num_leaves=15
num_cat=3
split_feature=32 1 0 7 18 43 33 46 17 5 24 2 5 4
split_gain=1.27727 0.88809 1.16587 1.10086 0.910811 0.771393 0.697779 0.609992 0.597661 0.600824 0.566786 0.400804 0.553987 0.380952
threshold=9539.9150000000027 0 1 176747.86500000002 18068.295000000002 14189.240000000002 7583.3500000000013 3358.8150000000005 20461.180000000004 2.5000000000000004 6912.0900000000011 2 2.5000000000000004 0.48500000000000004
decision_type=10 1 1 2 8 8 8 10 8 2 8 9 2 2
left_child=1 4 3 5 -1 -3 -2 11 -7 13 -6 12 -4 -10
right_child=6 2 7 -5 10 8 -8 -9 9 -11 -12 -13 -14 -15
leaf_value=-48.598282988071681 -52.156002810449877 12.986539684540929 -18.376922142634111 -875.27768998286558 -4.3322062610512289 -33.90182499227091 535.57087133819221 -93.541419254326129 -146.36873158980481 0.26814549935591447 108.65085017387815 25.953516664654668 25.607239795449228 -2.4438684705106541
leaf_weight=34 29 63 37 21 20 43 475 21 21 78 400 265 64 21
leaf_count=34 29 63 37 21 20 43 475 21 21 78 400 265 64 21
internal_value=0.00182789 0.000863971 -0.000357143 -0.00297665 0.00252155 -0.00207965 0.00390873 0.00134761 -0.00389571 -0.00208333 0.00321429 0.00185792 -0.000855856 -0.00690476
internal_weight=1592 1088 634 247 454 226 504 387 163 120 420 366 101 42
internal_count=1592 1088 634 247 454 226 504 387 163 120 420 366 101 42
cat_boundaries=0 1 2 3
cat_threshold=2221 594462 18878464
is_linear=0
shrinkage=0.05


Tree=67
num_leaves=15
num_cat=4
split_feature=32 21 18 0 4 6 7 36 2 1 43 14 1 43
split_gain=1.04308 1.13155 1.65859 0.860785 0.832042 1.25025 0.710492 1.3822 0.520825 0.684711 0.684551 0.59275 0.402773 0.544294
threshold=10037.900000000001 4419.6761401057074 22065.395000000004 0 0.51500000000000012 1.0000000180025095e-35 83750.190000000017 13219.503333333332 1 2 11716.105000000001 95.700000000000017 3 17734.730000000007
decision_type=10 10 10 1 2 2 2 8 9 1 8 2 1 8
left_child=1 3 -3 4 5 -1 -2 -8 10 11 -5 -10 13 -12
right_child=6 2 -4 8 -6 -7 7 -9 9 -11 12 -13 -14 -15
