tree
version=v4
num_class=1
num_tree_per_iteration=1
label_index=0
max_feature_idx=66
objective=quantile
feature_names=field_investigator_id sector district vintage_years digital_adoption upi_adoption_start_month loan_taken_in_dataset loan_amount loan_tenure_months loan_start_month_offset rainfall_index milk_price_index poultry_feed_price_index raw_material_price_index retail_demand_index local_disruption income_lag1 income_lag2 income_lag3 income_lag6 income_roll_mean_3 income_roll_std_3 income_roll_mean_6 income_roll_std_6 expenses_lag1 expenses_lag2 expenses_lag3 expenses_lag6 expenses_roll_mean_3 expenses_roll_std_3 expenses_roll_mean_6 expenses_roll_std_6 net_cash_flow_lag1 net_cash_flow_lag2 net_cash_flow_lag3 net_cash_flow_lag6 net_cash_flow_roll_mean_3 net_cash_flow_roll_std_3 net_cash_flow_roll_mean_6 net_cash_flow_roll_std_6 net_cash_flow_trend_slope_6 share_negative_ncf_trailing_3 share_negative_ncf_trailing_6 savings_balance_lag1 missed_or_late_count_trailing_3 missed_or_late_count_trailing_6 upi_inflow_txn_volume_lag1 upi_inflow_txn_volume_roll_mean_3 upi_inflow_txn_volume_roll_std_3 upi_inflow_txn_volume_roll_mean_6 upi_inflow_txn_volume_roll_std_6 upi_outflow_txn_volume_lag1 upi_outflow_txn_volume_roll_mean_3 upi_outflow_txn_volume_roll_std_3 upi_outflow_txn_volume_roll_mean_6 upi_outflow_txn_volume_roll_std_6 data_complete_lag1 data_complete_rate_trailing_6 emi_due_at_origin has_loan_at_origin month_sin month_cos known_emi_magnitude known_emi_next_3 known_emi_next_6 debt_service_ratio_3 debt_service_ratio_6
feature_infos=-1:0:1:2:3:4:5:6:7:8:9:10:11:12:13:14:15:16:17:18:19 -1:0:10:8:9:5:6:4:11:1:7:3:2 -1:14:21:26:4:11:12:23:0:2:27:3:17:13:18:5:1:24:7:6:10:19:15:16:9:8:20:22 [0.10000000000000001:25] [0.10000000000000001:0.94999999999999996] [0:14] [0:1] [0:366868.67999999999] [0:48] [-36:22] [5:141.5] [95.099999999999994:113.59999999999999] [92.700000000000003:105.5] [92.599999999999994:113.2] [72.099999999999994:109.7] [0:1] [4879.2200000000003:188189.67999999999] [4879.2200000000003:112748.75999999999] [4879.2200000000003:112748.75999999999] none [5867.2833333333328:124357.11] [183.26512606967319:76703.76796262509] none none [2957.8600000000001:135256.14999999999] [2957.8600000000001:76769.660000000003] [2957.8600000000001:76769.660000000003] none [3370.2166666666667:89099.493333333332] [23.006912729294559:55278.785854862072] none none [-16780.349999999999:63022.269999999997] [-14814.370000000001:45352.019999999997] [-13674.85:42869.470000000001] none [-12889.68:45485.146666666667] [81.820117330642248:21731.950039244824] none none none [0:1] none [3697.8200000000002:49812.43] [0:3] [0:3] [0:58965.230000000003] [102.81333333333332:24499.736666666668] [4.2239831123399556:30719.89284962813] none none [0:31668.09] [0:22012.453333333331] [0:12174.259378413948] none none [0:1] none [0:28602.98] [0:1] [-1:-0.50000000000000044] [-0.50000000000000044:0.86602540378443837] [0:28602.98] [0:85808.940000000002] [0:171617.88] [-1.8236586320570081:7.5224817787259974] none
tree_sizes=1323 1394 1379 1411 1390 1392 1394 1395 1381 1386 1392 1416 1383 1386 1381 1394 1403 1410 1416 1409 1400 1396 1405 1403 1402 1410 1413 1398 1417 1391 1404 1399 1409 1424 1413 1413 1402 1391 1419 1409 1396 1401 1424 1399 1403 1430 1415 1417 1398 1420 1414 1396 1420 1402 1422 1413 1404 1418 1418 1414 1413 1407 1405 1406 1375 1421 1424 1411 1408 1415 1436 1415 1417 1419 1416 1422 1419 1413 1417 1424 1414 1404 1422 1415 1407 1432 1423 1409 1433 1415 1406 1417 1420 1417 1442 1412 1407 1409 1428 1424 1426 1426 1421 1412 1436 1428 1406 1447 1422 1429 1418 1418 1422 1436 1435 1433 1418 1411 1430 1412 1423 1423 1440 1419 1419 1426 1435 1414 1425 1427 1424 1419 1398 1441 1414 1433 1436 1426 1417 1416 1419 1407 1431 1449 1415 1420 1438 1439 1442 1401 1425 1432 1418 1413 1399 1413 1405 1424 1407 1418 1451 1430 1435 1421 1421 1426 1427 1421 1429 1413 1406 1427 1425 1431 1406 1418 1442 1412 1423 1427 1421 1416 1404 1412 1422 1423 1435 1437 1427 1447 1419 1400 1421 1425 1409 1420 1393 1377 1429 1423 1447 1397 1432 1424 1423 1429 1414 1407 1418 1435 1407 1422 1426 1409 1416 1379 1415 1416 1430 1418 1423 1421 1419 1411 1414 1412 1399 1415 1420 1424 1450 1465 1415 1423 1440 1416 1383 1402 1445 1431 1394 1439 1433 1421 1422 1402 1408 1412 1414 1417 1424 1439 1442 1465 1420 1429 1463 1418 1408 1434 1405 1418 1424 1438 1423 1411 1410 1410 1419 1411 1427 1428 1424 1402 1427 1432 1432 1418 1422 1401 1415 1429 1434 1405 1425 1416 1429 1427 1434 1430 1440 1436 1446 1419 1422 1406 1449 1430 1430 1443

Tree=0
num_leaves=15
num_cat=3
split_feature=32 36 32 1 7 24 9 3 10 10 1 4 0 13
split_gain=43.4281 10.4124 4.41227 3.53469 2.74883 2.79992 1.28647 0.960028 0.947024 0.991472 0.822004 1.59148 0.644225 1.29639
threshold=19615.975000000002 21087.893333333337 14460.275000000003 0 64595.380000000012 23898.200000000004 1.5000000000000002 3.0500000000000003 51.850000000000001 43.750000000000007 1 0.62500000000000011 2 98.450000000000017
decision_type=10 8 8 1 2 10 2 2 2 2 1 2 1 2
left_child=2 -2 10 4 5 7 -3 -4 9 -9 11 -1 13 -5
right_child=1 6 3 12 -6 -7 -8 8 -10 -11 -12 -13 -14 -15
leaf_value=112877.87033540085 114363.5253315717 119804.09798568682 116444.6053258434 114509.3183000546 113734.61388183982 115807.82106982339 120757.78647401855 114280.02592089758 114018.5525191933 116759.14208617434 112402.98926230893 119734.32540129646 113550.69699310698 113764.97289781058
leaf_weight=88 31 60 30 25 96 24 25 26 33 20 825 25 201 83
leaf_count=88 31 60 30 25 96 24 25 26 33 20 825 25 201 83
internal_value=114142 114142 114142 114142 114142 114142 114142 114142 114142 114142 114142 114142 114142 114142
internal_weight=1592 116 1476 538 229 133 85 109 79 46 938 113 309 108
internal_count=1592 116 1476 538 229 133 85 109 79 46 938 113 309 108
cat_boundaries=0 1 2 3
cat_threshold=661 516 789168
is_linear=0
shrinkage=1


Tree=1
num_leaves=15
num_cat=2
split_feature=32 36 32 1 8 5 24 8 5 4 13 3 1 4
split_gain=36.5323 8.80743 5.20723 3.62294 3.00647 2.63376 1.8087 1.08993 0.930933 0.927813 1.13428 0.726175 0.659532 0.736862
threshold=20848.915000000005 22325.675000000007 14460.275000000003 0 7.5000000000000009 2.5000000000000004 34254.140000000007 15.000000000000002 1.5000000000000002 0.49500000000000005 101.85000000000001 2.7500000000000004 1 0.62500000000000011
decision_type=10 8 8 1 2 2 10 2 2 2 2 2 1 2
left_child=2 -2 12 -4 5 11 9 -3 -6 10 -7 -5 13 -1
right_child=1 7 3 4 8 6 -8 -9 -10 -11 -12 -13 -14 -15
leaf_value=-1201.2645876191928 747.68229112640881 6105.235329246796 -712.08635923747431 2295.364749897707 5253.4711456452314 2148.3594872587864 2351.4087745062411 6265.5563972150348 -610.67995725192156 1260.0510074290278 399.3952733763706 -124.48670530347475 -1652.401607056521 5312.3677249816437
leaf_weight=88 25 47 212 22 37 24 23 20 99 40 52 53 825 25
leaf_count=88 25 47 212 22 37 24 23 20 99 40 52 53 825 25
internal_value=-0.000257539 0.0303261 -0.00213333 0.0016726 0.00472222 0.0085514 0.0126259 0.0397761 -0.000955884 0.0100862 0.0068421 0.000999999 -0.00441365 -0.000528456
internal_weight=1592 92 1500 562 350 214 139 67 136 116 76 75 938 113
internal_count=1592 92 1500 562 350 214 139 67 136 116 76 75 938 113
cat_boundaries=0 1 2
cat_threshold=3170 516
is_linear=0
shrinkage=0.05


Tree=2
num_leaves=15
num_cat=2
split_feature=32 36 32 1 8 5 4 0 4 6 12 5 32 3
split_gain=31.7329 9.4472 4.87794 2.80217 2.04017 1.43069 2.7329 1.09165 1.14397 2.20161 1.00464 0.856902 0.807309 0.675
threshold=20848.915000000005 24306.305000000004 14460.275000000003 0 7.5000000000000009 2.5000000000000004 0.49500000000000005 1 0.37500000000000006 1.0000000180025095e-35 99.300000000000026 1.5000000000000002 25027.760000000006 2.8500000000000001
decision_type=10 8 8 1 2 2 2 1 2 2 2 2 10 2
left_child=2 -2 -1 4 5 13 10 8 9 -5 -7 -6 -3 -4
right_child=1 12 3 7 11 6 -8 -9 -10 -11 -12 -13 -14 -15
leaf_value=-1477.3080966355092 441.51056948537138 2534.8371232537011 2262.6240551320057 2617.1877892696866 5217.4677986553461 675.364567956668 2029.386546340208 -735.46921225413064 -597.95207172402377 -2401.0477442736842 2.9421748583146838 -669.09702962575057 6472.0728137354936 -69.628568726260411
leaf_weight=938 28 21 20 31 35 27 40 180 51 21 41 76 43 40
leaf_count=938 28 21 20 31 35 27 40 180 51 21 41 76 43 40
internal_value=-0.00035176 0.0281522 -0.0021 0.00158363 0.0050346 0.00869047 0.0121296 -0.00192833 0.00207964 0.0075 0.00602941 -4.50462e-05 0.03875 0.0025
internal_weight=1592 92 1500 562 279 168 108 283 103 52 68 111 64 60
internal_count=1592 92 1500 562 279 168 108 283 103 52 68 111 64 60
cat_boundaries=0 1 2
cat_threshold=901 264305
is_linear=0
shrinkage=0.05


Tree=3
num_leaves=15
num_cat=2
split_feature=32 36 32 1 21 24 24 24 32 1 32 24 8 5
split_gain=31.4035 9.17239 4.07861 2.65397 1.66079 1.83165 1.03638 0.954076 0.664499 0.623806 0.61836 0.470641 0.450787 0.58135
threshold=20981.120000000006 24306.305000000004 14705.160000000002 0 28268.790699361951 34254.140000000007 28091.120000000006 34765.990000000013 27303.425000000003 1 12602.845000000001 27090.215000000004 7.5000000000000009 1.5000000000000002
decision_type=10 8 8 1 8 10 8 10 10 1 10 10 2 2
left_child=2 -2 9 4 -4 6 -6 -5 -3 10 11 -1 -8 -14
right_child=1 8 3 7 5 -7 12 -9 -10 -11 -12 -13 13 -15
leaf_value=-830.04368187072987 509.03091003934196 2899.0612532542427 -805.54383873345398 -582.33918531150346 728.44721052765271 2063.7939850059279 1258.1082106773752 165.74085214189256 6747.9066531114313 -1790.0370784277666 387.62838004412043 1756.2385112225668 4956.5946789344616 -612.29497927682974
leaf_weight=160 27 25 38 255 26 22 113 25 36 743 22 21 25 54
leaf_count=160 27 25 38 255 26 22 113 25 36 743 22 21 25 54
internal_value=-0.000508795 0.0285227 -0.00220745 0.00118279 0.00454861 0.00625 0.00486238 -0.00224138 0.0392623 -0.00420719 -0.00147887 -0.00251381 0.00359375 0.000696201
internal_weight=1592 88 1504 558 278 240 218 280 61 946 203 181 192 79
internal_count=1592 88 1504 558 278 240 218 280 61 946 203 181 192 79
cat_boundaries=0 1 2
cat_threshold=901 13
is_linear=0
shrinkage=0.05


Tree=4
num_leaves=15
num_cat=3
split_feature=32 36 32 1 51 17 0 4 4 32 1 32 14 11
split_gain=28.2736 9.09441 3.75832 2.3521 1.63982 3.53282 0.773387 1.12356 1.70115 0.606187 0.518312 0.657443 0.380952 0.84947
threshold=20981.120000000006 26593.160000000003 14705.160000000002 0 1834.3200000000002 50095.055000000008 1 0.44500000000000006 0.32500000000000007 27303.425000000003 2 12602.845000000001 96.350000000000009 103.90000000000002
decision_type=10 8 8 1 8 8 1 2 2 10 1 10 2 2
left_child=2 -2 10 4 5 -4 7 8 -5 -3 11 -1 -6 -14
right_child=1 9 3 6 12 -7 -8 -9 -10 -11 -12 -13 13 -15
leaf_value=-716.5490959332177 2371.203143513525 2213.9641382736595 -51.030618818757858 -83.216594732396175 2.1053630359135584 2325.1758181819619 -468.12155183650805 -1152.2324189094686 1057.5771242199824 6131.950928546883 -1700.5352245063784 368.24696104191463 3198.1495738114045 -396.58520065088328
leaf_weight=181 36 23 24 40 78 26 229 39 31 29 743 22 54 37
leaf_count=181 36 23 24 40 78 26 229 39 31 29 743 22 54 37
internal_value=-0.000728644 0.0268182 -0.00234043 0.000913977 0.00482533 0.013 -0.00170487 0.00166667 0.00556338 0.0401923 -0.00426004 -0.00171362 0.00269231 0.00489011
internal_weight=1592 88 1504 558 219 50 339 110 71 52 946 203 169 91
internal_count=1592 88 1504 558 219 50 339 110 71 52 946 203 169 91
cat_boundaries=0 1 2 3
cat_threshold=653 543440 13
is_linear=0
shrinkage=0.05


Tree=5
num_leaves=15
num_cat=3
split_feature=32 18 32 1 51 17 32 7 0 5 1 32 4 4
split_gain=25.1861 9.40407 3.50248 2.04949 1.42343 3.04051 1.03547 0.728227 0.785032 1.32846 0.518312 0.657443 0.442281 0.625002
threshold=20981.120000000006 63081.155000000006 14705.160000000002 0 1834.3200000000002 50095.055000000008 27303.425000000003 210131.67000000001 1 6.5000000000000009 2 12602.845000000001 0.51500000000000012 0.64500000000000013
decision_type=10 8 8 1 8 8 10 2 1 2 1 10 2 2
left_child=2 -2 10 4 5 -4 -3 8 9 -5 11 -1 -6 -14
right_child=1 6 3 7 12 -7 -8 -9 -10 -11 -12 -13 13 -15
leaf_value=-680.72164113655651 1286.4947909665341 2638.6928180192954 -48.479087877820191 -830.70380303704701 8.225006436080923 2208.9170272728638 5918.2069198825411 44.836133571406087 -515.69854744350039 1259.6272407964823 -1615.5084632810592 349.83461298981859 1899.9406349469464 690.71052972806365
leaf_weight=181 35 25 24 71 90 26 28 20 219 29 743 22 37 42
leaf_count=181 35 25 24 71 90 26 28 20 219 29 743 22 37 42
internal_value=-0.00088568 0.0251136 -0.00240692 0.000734766 0.00438865 0.012 0.0383962 -0.00170487 -0.00233542 0.00136364 -0.00426004 -0.00171362 0.00239645 0.00512658
internal_weight=1592 88 1504 558 219 50 53 339 319 100 946 203 169 79
internal_count=1592 88 1504 558 219 50 53 339 319 100 946 203 169 79
cat_boundaries=0 1 2 3
cat_threshold=653 805456 13
is_linear=0
shrinkage=0.05


Tree=6
num_leaves=15
num_cat=4
split_feature=32 18 32 2 1 51 32 5 7 28 1 4 32 1
split_gain=22.3027 9.51556 2.68252 2.22432 2.1997 2.68363 2.13601 1.19481 0.79852 0.695817 0.551025 0.515577 0.44663 0.762795
threshold=20054.885000000002 68569.365000000005 12474.085000000001 0 1 1002.6250000000001 27303.425000000003 2.5000000000000004 221635.00000000003 34783.626666666671 2 0.62500000000000011 12774.700000000003 3
decision_type=10 8 8 9 1 8 10 2 2 8 1 2 10 1
left_child=2 9 10 4 -4 -6 -3 -7 12 -2 11 -1 13 -5
right_child=1 6 3 8 5 7 -8 -9 -10 -11 -12 -13 -14 -15
leaf_value=-1052.9985955590462 -177.38400833217494 3519.7960149260457 -188.57158595112111 -1133.4857217555682 1244.230503325165 -836.64111981270662 5900.8571871774247 1999.0576137959013 5366.1478617475641 2826.0854984387415 -1632.9143252480769 4001.747675279039 -249.47367827184428 75.873366966250728
leaf_weight=83 22 37 100 104 29 40 25 37 20 24 754 23 141 153
leaf_count=83 22 37 100 104 29 40 25 37 20 24 754 23 141 153
internal_value=-0.00101131 0.0209259 -0.00260782 -0.000112181 0.00402778 0.0087931 0.0337097 0.00474026 -0.00219626 0.00369565 -0.00441861 -0.000689656 -0.00273869 -0.00149806
internal_weight=1592 108 1484 624 206 106 62 77 418 46 860 106 398 257
internal_count=1592 108 1484 624 206 106 62 77 418 46 860 106 398 257
cat_boundaries=0 1 2 3 4
cat_threshold=345784 1888 516 3176
is_linear=0
shrinkage=0.05


Tree=7
num_leaves=15
num_cat=3
split_feature=32 18 1 2 6 4 32 33 60 10 5 0 8 16
split_gain=20.0391 8.86679 3.22299 1.91224 2.47498 2.25426 1.42617 1.34216 1.2749 1.11243 0.896104 0.515424 0.585036 0.469219
threshold=21956.110000000004 71760.080000000016 0 1 1.0000000180025095e-35 0.67500000000000016 15903.275000000001 13662.940000000001 -0.93301270189221919 48.70000000000001 4.5000000000000009 2 7.5000000000000009 54618.035000000011
decision_type=10 8 1 9 2 2 8 8 2 2 2 1 2 8
left_child=2 -2 3 13 7 -6 -4 -5 -8 -9 -3 12 -10 -1
right_child=1 10 6 4 5 -7 8 9 11 -11 -12 -13 -14 -15
leaf_value=-895.84465400440683 1016.8823510958608 4329.516681188129 -1235.5704776817302 259.20310578776127 -1003.1577431502669 6444.5204745852498 721.20415289585355 643.4609626857424 590.80492878926736 2903.1458395557902 5977.2273374374163 -405.18846390120842 -1081.905576559833 367.35665939160162
leaf_weight=75 36 23 835 20 64 24 23 21 66 27 21 270 51 36
leaf_count=75 36 23 835 20 64 24 23 21 66 27 21 270 51 36
internal_value=-0.00126256 0.023125 -0.00255291 0.00240072 0.00584337 0.000681817 -0.00360558 0.0133824 -0.00121951 0.0179167 0.0381818 -0.00189923 0.000905511 -0.00252066
internal_weight=1592 80 1512 267 156 88 1245 68 410 48 44 387 117 111
internal_count=1592 80 1512 267 156 88 1245 68 410 48 44 387 117 111
cat_boundaries=0 1 2 3
cat_threshold=5 142755848 284708
is_linear=0
shrinkage=0.05


Tree=8
num_leaves=15
num_cat=3
split_feature=32 29 16 1 0 58 4 43 10 1 25 11 5 5
split_gain=16.327 8.44884 2.76078 2.45699 1.72909 2.1025 1.10143 1.00511 0.757545 0.627157 0.682025 0.926725 0.560264 1.21006
threshold=21956.110000000004 16180.689951639206 47141.06500000001 0 1 2434.2350000000006 0.40500000000000008 21769.960000000003 51.850000000000001 2 20066.535000000003 102.85000000000001 4.5000000000000009 2.5000000000000004
decision_type=10 8 8 1 1 2 2 10 2 1 8 2 2 2
left_child=2 -2 9 4 5 6 -4 -3 -8 10 -1 -12 13 -6
right_child=1 7 3 -5 12 -7 8 -9 -10 -11 11 -13 -14 -15
leaf_value=-911.83239665945712 468.70893648781714 1356.7232701930179 196.04596751896989 -385.08328493018433 -190.72243869366653 -673.84720728896502 5219.7380518349037 6458.7301487966361 3670.5598332263289 -1078.6530109972705 -222.21331732312422 1148.2269068281228 -174.80520571221282 2236.198252519403
leaf_weight=75 37 20 29 291 65 20 22 23 29 813 47 27 72 22
leaf_count=75 37 20 29 291 65 20 22 23 29 813 47 27 72 22
internal_value=-0.00138819 0.020625 -0.00255291 0.000272726 0.00373606 0.00863636 0.013125 0.0356977 0.017549 -0.0041684 -0.000911951 0.00243243 0.000325443 0.00304598
internal_weight=1592 80 1512 550 259 100 80 43 51 962 149 74 159 87
internal_count=1592 80 1512 550 259 100 80 43 51 962 149 74 159 87
cat_boundaries=0 1 2 3
cat_threshold=397 533078 5
is_linear=0
shrinkage=0.05


Tree=9
num_leaves=15
num_cat=3
split_feature=32 25 32 29 0 1 7 5 12 12 1 16 24 25
split_gain=13.7447 8.19156 2.50267 2.37696 1.60253 1.58445 1.80401 1.29661 0.728139 0.706522 0.650667 0.55088 0.534329 0.411708
threshold=20054.885000000002 44324.320000000007 15562.430000000002 16180.689951639206 0 1 64595.380000000012 2.5000000000000004 100.45 101.05000000000001 2 53931.280000000006 27090.215000000004 7619.1600000000008
decision_type=10 8 8 8 1 1 2 2 2 2 1 8 10 10
left_child=2 3 10 -2 -4 6 7 -6 -3 -8 12 -7 13 -1
right_child=1 8 4 -5 5 11 9 -9 -10 -11 -12 -13 -14 -15
leaf_value=67.69044468669594 -153.5912775957564 4186.957820932822 -387.92078199268735 4664.7705993783466 871.92237815310239 47.395085241404779 -1496.8843826320763 1605.9064471050431 3653.4558899667968 3627.7186883406503 -1205.7620649066093 -111.07606389609008 1363.9079534069524 -795.93060772490526
leaf_weight=60 41 22 205 25 25 26 26 34 20 20 831 174 22 61
leaf_count=60 41 22 205 25 25 26 26 34 20 20 831 174 22 61
internal_value=-0.00138819 0.0158333 -0.00264151 0.00484848 0.000196077 0.00246032 0.00717391 0.0136441 0.0330952 0.000434781 -0.00412731 -0.000238096 -0.000751635 -0.00210744
internal_weight=1592 108 1484 66 510 305 105 59 42 46 974 200 143 121
internal_count=1592 108 1484 66 510 305 105 59 42 46 974 200 143 121
cat_boundaries=0 1 2 3
cat_threshold=230787 141 140
is_linear=0
shrinkage=0.05


Tree=10
num_leaves=15
num_cat=3
split_feature=32 20 32 5 1 36 24 0 4 14 12 1 5 3
split_gain=12.1195 5.98186 2.82092 2.54375 1.94045 1.62919 3.76539 1.09322 0.800433 1.2322 0.659566 0.535204 0.52521 0.457551
threshold=20719.410000000003 83195.383333333346 12474.085000000001 4.5000000000000009 0 18466.383333333335 35027.855000000003 1 0.46500000000000002 95.700000000000017 96.200000000000003 2 6.5000000000000009 3.1500000000000008
decision_type=10 8 8 2 1 8 10 1 2 2 2 1 2 2
left_child=2 -2 11 -3 -4 -6 7 -7 10 -10 -9 -1 -12 -11
right_child=1 3 4 -5 5 6 -8 8 9 13 12 -13 -14 -15
leaf_value=-212.05091108161525 383.29376041625903 3850.6397717259324 -457.45314490074179 4786.4587135332304 -512.52631589245414 -151.73717151830397 1811.3541926058124 1886.4316042093551 36.446344668068562 1667.2494900704762 -465.85653421147299 -1563.1173199815553 144.45183610446898 3306.9346094878961
leaf_weight=129 43 30 242 23 65 114 26 22 37 22 40 731 28 40
leaf_count=129 43 30 242 23 65 114 26 22 37 22 40 731 28 40
internal_value=-0.00138819 0.0158333 -0.00249332 0.0270755 3.14453e-05 0.00217822 0.00366261 0.00209571 0.00429648 0.00762626 0.00111111 -0.00436047 -0.00132353 0.0119355
internal_weight=1592 96 1496 53 636 394 329 303 189 99 90 860 68 62
internal_count=1592 96 1496 53 636 394 329 303 189 99 90 860 68 62
cat_boundaries=0 1 2 3
cat_threshold=3170 136459 140
is_linear=0
shrinkage=0.05


Tree=11
num_leaves=15
num_cat=2
split_feature=32 29 32 16 2 24 7 1 7 24 25 3 3 3
split_gain=10.0992 5.02109 2.93886 2.27665 2.10738 1.99302 1.43615 0.680929 0.565205 0.495492 0.415027 0.544444 0.370812 0.413648
threshold=22191.015000000003 16180.689951639206 15789.525000000001 74744.260000000024 0 34765.990000000013 199433.16500000001 1 81269.545000000027 27090.215000000004 7619.1600000000008 3.7500000000000004 4.1500000000000012 2.0500000000000003
decision_type=10 8 8 10 9 10 2 1 2 10 10 2 2 2
left_child=2 -2 7 -3 5 6 8 9 12 10 11 -1 13 -4
right_child=1 3 4 -5 -6 -7 -8 -9 -10 -11 -12 -13 -14 -15
leaf_value=-738.10814913934178 307.4096954762191 939.11259412173899 -38.430431834674906 5419.5815371509552 -240.99164828790236 2220.0744542101929 3141.5884768683309 -1045.5275098941709 -1317.7338124479943 1182.1573769756876 -755.11430437593378 556.13954010306588 -21.318463600491988 1056.5794503210909
leaf_weight=24 35 21 29 20 288 28 20 841 46 23 62 36 72 47
leaf_count=24 35 21 29 20 288 28 20 841 46 23 62 36 72 47
internal_value=-0.00173367 0.0160526 -0.00262533 0.0279268 0.000377357 0.00373016 0.00224299 -0.00423935 0.000927834 -0.000806453 -0.00213115 0.000833332 0.00243243 0.00486842
internal_weight=1592 76 1516 41 530 242 214 986 194 145 122 60 148 76
internal_count=1592 76 1516 41 530 242 214 986 194 145 122 60 148 76
cat_boundaries=0 1 2
cat_threshold=136594588 140
is_linear=0
shrinkage=0.05


Tree=12
num_leaves=15
num_cat=2
split_feature=32 29 24 1 4 8 5 5 10 4 1 33 11 16
split_gain=8.72645 4.11608 2.46814 1.76902 1.718 1.12387 1.43465 1.26104 1.08521 0.732358 0.625679 0.5765 0.729293 0.484615
threshold=22191.015000000003 16180.689951639206 34765.990000000013 0 0.46500000000000002 7.5000000000000009 2.5000000000000004 1.5000000000000002 53.800000000000004 0.39500000000000007 1 20642.660000000003 100.95 55964.830000000009
decision_type=10 8 8 1 2 2 2 2 2 2 1 8 2 8
left_child=2 -2 10 5 -3 6 -4 -7 9 -8 11 -1 -13 -5
right_child=1 4 3 13 -6 7 8 -9 -10 -11 -12 12 -14 -15
leaf_value=-451.05632028404557 292.03921070240875 1260.1031577302065 138.59479013156161 17.867207582955416 3836.4222405512737 3910.9382663680512 1693.3372852217676 -542.47433458590081 973.31004062173906 2732.4473220409418 -845.78168100102994 -186.29478795558364 726.45926638250296 -478.53100355159796
leaf_weight=98 35 20 50 20 21 31 22 68 30 27 844 36 30 260
leaf_count=98 35 20 50 20 21 31 22 68 30 27 844 36 30 260
internal_value=-0.00179648 0.0147368 -0.00262533 0.000216534 0.0254878 0.00340336 0.00662791 -0.000454547 0.0108228 0.0154082 -0.00405754 -0.000977013 0.00257576 -0.00241379
internal_weight=1592 76 1516 508 41 228 129 99 79 49 1008 164 66 280
internal_count=1592 76 1516 508 41 228 129 99 79 49 1008 164 66 280
cat_boundaries=0 1 2
cat_threshold=397 5
is_linear=0
shrinkage=0.05


Tree=13
num_leaves=15
num_cat=3
split_feature=32 29 32 4 2 1 32 4 7 5 11 1 32 17
split_gain=8.10958 3.69728 2.34464 2.16312 1.75205 3.14269 1.81284 1.15667 0.883284 0.692701 0.620205 0.52977 0.485659 0.447739
threshold=22191.015000000003 16180.689951639206 12602.845000000001 0.46500000000000002 0 1 15789.525000000001 0.46500000000000002 64595.380000000012 6.5000000000000009 102.85000000000001 2 13662.940000000001 42191.365000000013
decision_type=10 8 8 2 9 1 10 2 2 2 2 1 8 8
left_child=2 -2 11 -3 5 6 7 -4 -9 -7 -11 13 -6 -1
right_child=1 3 4 -5 12 9 -8 8 -10 10 -12 -13 -14 -15
leaf_value=-607.97317654958829 277.43725016728831 1197.0979998436953 -30.192032626245251 3644.6011285237105 26.301771210185731 -306.75894879541016 2588.0587567945881 1563.392374661405 4029.8611572315053 80.432193259114683 -191.84411303106131 -1374.2975441298811 -195.26925063614181 104.99727169813778
leaf_weight=75 35 20 29 21 28 97 24 21 29 21 22 735 380 55
leaf_count=75 35 20 29 21 28 97 24 21 29 21 22 735 380 55
internal_value=-0.0018593 0.0140789 -0.00265831 0.0242683 -0.000391706 0.00290514 0.00915929 0.0063924 0.011 -0.002 0.00313953 -0.00436416 -0.00236842 -0.00107143
internal_weight=1592 76 1516 41 651 243 103 79 50 140 43 865 408 130
internal_count=1592 76 1516 41 651 243 103 79 50 140 43 865 408 130
cat_boundaries=0 1 2 3
cat_threshold=136577692 653 140
is_linear=0
shrinkage=0.05


Tree=14
num_leaves=15
num_cat=3
split_feature=32 29 32 4 2 1 3 5 4 5 32 11 1 4
split_gain=8.04578 3.69728 2.32453 2.16312 1.56386 2.42821 1.53284 1.52381 0.691451 0.674996 0.639749 0.625 0.515207 0.452051
threshold=22191.015000000003 16180.689951639206 12474.085000000001 0.46500000000000002 0 1 4.7500000000000009 3.5000000000000004 0.46500000000000002 6.5000000000000009 13338.735000000002 102.85000000000001 2 0.62500000000000011
decision_type=10 8 8 2 9 1 2 2 2 2 8 2 1 2
left_child=2 -2 12 -3 5 6 8 -8 -4 -7 -6 -11 13 -1
right_child=1 3 4 -5 10 9 7 -9 -10 11 -12 -13 -14 -15
leaf_value=-262.30121539903013 263.56538765892446 1137.2430998515113 -86.430021927454078 3462.371072097525 25.022544530227826 -291.42100135563965 5387.3954213403249 2462.2554093054441 1375.0499452462163 328.5735843935978 -184.19932882222213 -170.6723353111629 -1323.436748781812 1468.719063339888
leaf_weight=95 35 20 23 21 23 97 21 21 38 20 393 20 731 34
leaf_count=95 35 20 23 21 23 97 21 21 38 20 393 20 731 34
internal_value=-0.00179648 0.0140789 -0.00259235 0.0242683 -0.000350611 0.0028 0.00827434 0.0164286 0.00401639 -0.00159864 -0.0021831 0.00375 -0.00430233 -0.00104317
internal_weight=1592 76 1516 41 656 240 103 42 61 137 416 40 860 129
internal_count=1592 76 1516 41 656 240 103 42 61 137 416 40 860 129
cat_boundaries=0 1 2 3
cat_threshold=136577716 653 140
is_linear=0
shrinkage=0.05


Tree=15
num_leaves=15
num_cat=3
split_feature=32 29 32 1 24 4 0 33 3 3 1 4 13 43
split_gain=6.85522 2.92706 2.23572 1.5232 1.6684 1.35941 0.899608 0.84494 0.616415 1.04897 0.515207 0.452051 0.407851 0.308727
threshold=22191.015000000003 16180.689951639206 12474.085000000001 0 41494.905000000006 0.46500000000000002 1 19228.640000000003 5.8500000000000005 4.3500000000000005 2 0.62500000000000011 97.300000000000026 9502.220000000003
decision_type=10 8 8 1 10 2 1 8 2 2 1 2 2 10
left_child=2 -2 10 4 6 -3 7 -4 9 -9 11 -1 -5 -8
right_child=1 5 3 12 -6 -7 13 8 -10 -11 -12 -13 -14 -15
leaf_value=-249.18615462907874 250.38711827597845 1080.3809448589361 -640.82968137377247 29.297561016194852 2055.6388986546935 3289.2525184926485 6.8765249601281813 457.01902406229993 -202.5588579737672 3446.512199252059 -1257.2649113427215 1395.2831101728937 -190.01589905633935 -133.57373888371623
leaf_weight=95 35 20 26 33 22 21 113 44 21 21 731 34 317 59
leaf_count=95 35 20 26 33 22 21 113 44 21 21 731 34 317 59
internal_value=-0.0018907 0.0127632 -0.00262533 -0.00042683 0.00212025 0.0218293 0.00116197 0.00442623 0.0072093 0.00961538 -0.00430233 -0.00104317 -0.00263889 -0.00115385
internal_weight=1592 76 1516 656 306 41 284 112 86 65 860 129 350 172
internal_count=1592 76 1516 656 306 41 284 112 86 65 860 129 350 172
cat_boundaries=0 1 2 3
cat_threshold=397 567396 140
is_linear=0
shrinkage=0.05


Tree=16
num_leaves=15
num_cat=3
split_feature=32 32 17 2 34 46 1 4 5 1 3 3 8 10
split_gain=5.95466 2.81971 2.28305 1.40945 0.78125 1.25321 0.719934 0.778539 0.615704 0.505756 1.22194 0.419719 0.387531 0.474226
threshold=32718.940000000006 15467.095000000003 63661.55000000001 0 21524.050000000007 1015.6500000000002 1 0.62500000000000011 1.5000000000000002 2 3.4500000000000006 4.9500000000000011 7.5000000000000009 51.250000000000007
decision_type=10 8 10 9 8 10 1 2 2 1 2 2 2 2
left_child=1 6 3 4 -3 8 7 11 -6 10 -5 -1 13 -10
right_child=-2 2 -4 9 5 -7 -8 -9 12 -11 -12 -13 -14 -15
leaf_value=-741.5960044264325 5149.6175932210017 -253.20141182978151 2078.10269892526 376.17205275625412 1959.7349350966633 811.22803803092711 -831.050182003646 4390.4293639654015 1419.6405741278411 -467.02531661351122 -161.46059376549371 34.773013849760808 -1113.1653115476665 -38.705220219332325
leaf_weight=55 20 28 21 27 45 30 856 23 27 238 92 36 50 44
leaf_count=55 20 28 21 27 45 30 856 23 27 238 92 36 50 44
internal_value=-0.00211055 -0.00245547 0.000232557 -0.000352841 0.00269231 0.00392857 -0.00412371 -0.000161291 0.00222891 -0.00227521 0.000426355 -0.00225275 0.0003719 0.00274648
internal_weight=1592 1572 602 581 224 196 970 114 166 357 119 91 121 71
internal_count=1592 1572 602 581 224 196 970 114 166 357 119 91 121 71
cat_boundaries=0 1 2 3
cat_threshold=69599380 36 432
is_linear=0
shrinkage=0.05


Tree=17
num_leaves=15
num_cat=2
split_feature=32 17 1 4 12 32 43 5 43 0 13 10 5 33
split_gain=4.95783 1.73555 1.58687 1.61751 1.35656 0.890429 0.838586 0.81188 0.595238 0.548295 0.545066 0.46118 0.358088 0.470996
threshold=22191.015000000003 70354.095000000016 0 0.70000000000000007 99.550000000000026 13050.730000000001 8489.1600000000017 4.5000000000000009 25651.455000000005 1 98.350000000000009 48.70000000000001 2.5000000000000004 16695.565000000002
decision_type=10 8 1 2 2 8 10 2 10 1 2 2 2 8
left_child=2 8 3 6 -5 -4 7 11 -2 10 -7 -1 -12 -14
right_child=1 -3 5 4 -6 9 -8 -9 -10 -11 12 -13 13 -15
leaf_value=351.5199004405265 -180.77467888285071 2770.6665521749219 -1106.8852435615697 -85.376160588209018 4834.3276633205742 134.51105062032747 -162.55358272628101 -651.42643996152174 558.07848885140447 -174.06498945738363 -327.78323325829564 1143.88478981354 -372.02776704383587 177.27838501693137
leaf_weight=21 21 34 753 21 25 26 149 29 21 250 65 23 34 120
leaf_count=21 21 34 753 21 25 26 149 29 21 250 65 23 34 120
internal_value=-0.0023304 0.0101316 -0.00295515 0.000575538 0.00913043 -0.0036884 -0.00117117 0.00321918 0.00333333 -0.00207071 -0.000294119 0.0075 -0.00111872 0.000194804
internal_weight=1592 76 1516 268 46 1248 222 73 42 495 245 44 219 154
internal_count=1592 76 1516 268 46 1248 222 73 42 495 245 44 219 154
cat_boundaries=0 1 2
cat_threshold=5 866913
is_linear=0
shrinkage=0.05


Tree=18
num_leaves=15
num_cat=2
split_feature=16 1 24 2 51 7 5 43 16 3 4 6 13 10
split_gain=5.79454 2.52078 1.56868 1.74221 2.32759 1.50831 2.37087 0.585242 0.394737 0.408293 0.325334 0.487552 0.430774 0.332418
threshold=86081.49500000001 0 34765.990000000013 1 1.0000000180025095e-35 80391.570000000022 4.5000000000000009 13982.280000000001 44818.665000000008 2.9500000000000006 0.42500000000000004 1.0000000180025095e-35 99.90000000000002 42.000000000000007
decision_type=10 1 8 9 8 2 2 8 10 2 2 2 2 2
left_child=1 5 -3 4 -4 7 -7 -1 9 -6 11 12 -5 -14
right_child=-2 2 3 10 8 6 -8 -9 -10 -11 -12 -13 13 -15
leaf_value=847.51256633742253 4662.452906164669 -653.6573756376124 2024.7560748122983 153.16160876375253 2458.5630480274276 5816.5821124696622 28.402547752564217 -64.149758470774046 -611.36682458059829 -84.938167163057642 -388.26999641497969 -1116.7074960807311 52.685889354918913 -80.973033269000496
leaf_weight=20 24 935 20 20 22 21 30 71 20 54 188 76 28 63
leaf_count=20 24 935 20 20 22 21 30 71 20 54 188 76 28 63
internal_value=-0.002299 -0.0026722 -0.00329387 -0.00102851 0.00412698 0.00355263 0.0106863 -5.49462e-05 0.00125 0.00289474 -0.00266234 -0.00125669 0.000855855 -0.000604397
internal_weight=1592 1568 1426 491 116 142 51 91 96 76 375 187 111 91
internal_count=1592 1568 1426 491 116 142 51 91 96 76 375 187 111 91
cat_boundaries=0 1 2
cat_threshold=132 134488208
is_linear=0
shrinkage=0.05


Tree=19
num_leaves=15
num_cat=3
split_feature=16 32 1 43 11 33 1 0 13 3 7 14 16 12
split_gain=4.80575 2.10642 1.72327 2.5668 1.22968 0.905995 0.628566 0.677514 0.578681 0.664894 0.448758 0.305311 0.29056 0.276998
threshold=86081.49500000001 9483.1050000000014 0 19571.430000000004 95.450000000000017 15999.475000000002 1 2 106.60000000000001 2.1500000000000008 80391.570000000022 98.750000000000014 45695.900000000001 96.200000000000003
decision_type=10 8 1 10 2 8 1 1 2 2 2 2 8 2
left_child=1 -1 3 10 -4 -6 -7 -8 9 11 -3 -9 -11 -14
right_child=-2 2 4 -5 5 6 7 8 -10 12 -12 -13 13 -15
leaf_value=-1534.6768249841068 4429.3302608564363 -126.85891684622334 1578.8730530614421 3902.8440639864184 -468.86837273374908 -699.91832437380424 -253.57725037344039 1946.6771763026104 535.37542284081508 17.315521568453057 2466.6675652714875 -3.5345212078108945 135.52653496812943 -111.20272572970437
leaf_weight=682 24 64 31 32 214 133 106 24 43 38 28 23 26 124
leaf_count=682 24 64 31 32 214 133 106 24 43 38 28 23 26 124
internal_value=-0.00220478 -0.00254464 -0.000936796 0.00432836 -0.00182643 -0.00226402 -0.00113153 -5.07626e-05 0.00125 0.000319148 0.000434781 0.0056383 -0.00101064 -0.002
internal_weight=1592 1568 886 124 762 731 517 384 278 235 92 47 188 150
internal_count=1592 1568 886 124 762 731 517 384 278 235 92 47 188 150
cat_boundaries=0 1 2 3
cat_threshold=140 3136 165160
is_linear=0
shrinkage=0.05


Tree=20
num_leaves=15
num_cat=3
split_feature=32 32 2 7 9 1 3 1 10 4 4 25 32 24
split_gain=4.09695 1.58178 1.58571 1.64188 1.83995 1.06806 1.91553 0.66455 0.613369 0.765432 0.820513 0.578789 0.598809 0.557692
threshold=32718.940000000006 12300.375000000002 0 199433.16500000001 10.500000000000002 1 4.9500000000000011 2 51.250000000000007 0.45500000000000007 0.35500000000000004 19705.210000000003 4157.0250000000005 29262.280000000002
decision_type=10 8 9 2 2 1 2 1 2 2 2 8 10 10
left_child=1 7 3 5 -5 6 13 11 9 10 -7 -1 -13 -3
right_child=-2 2 -4 4 -6 8 -8 -9 -10 -11 -12 12 -14 -15
leaf_value=-570.00164080300817 4299.0142276001516 955.08966564106777 -144.54144428638142 -73.373952994327354 5402.4186392545889 -299.84769494567212 2243.5540242139787 -1030.2293107948522 -222.76696177525892 -927.03621498932796 1705.6146013928262 -389.27345139261394 904.31248397684794 -207.57428221997009
leaf_weight=61 20 52 382 20 21 26 26 723 111 31 24 27 39 29
leaf_count=61 20 52 382 20 21 26 26 723 111 31 24 27 39 29
internal_value=-0.00248744 -0.00277354 -0.00105263 0.00142857 0.0108537 0.000183945 0.00397436 -0.0042353 -0.0020297 0.00117284 0.005 -0.000620439 0.00257576 0.000555554
internal_weight=1592 1572 722 340 41 299 107 850 192 81 50 127 66 81
internal_count=1592 1572 722 340 41 299 107 850 192 81 50 127 66 81
cat_boundaries=0 1 2 3
cat_threshold=144974485 525 140
is_linear=0
shrinkage=0.05


Tree=21
num_leaves=15
num_cat=3
split_feature=16 1 7 0 43 24 1 5 8 4 5 3 8 5
split_gain=3.31659 1.82208 2.05594 1.66704 1.89653 1.05672 0.986975 1.23666 0.858294 0.709502 0.939918 0.68096 0.183115 0.162916
threshold=86081.49500000001 0 197512.05500000002 1 11271.120000000001 49538.785000000011 2 2.5000000000000004 7.5000000000000009 0.27500000000000008 5.5000000000000009 3.9500000000000006 21.000000000000004 1.5000000000000002
decision_type=10 1 2 1 8 8 1 2 2 2 2 2 2 2
left_child=1 2 3 4 -1 -3 -7 -8 9 -9 -11 -6 -10 -5
right_child=-2 5 -4 13 11 6 7 8 12 10 -12 -13 -14 -15
leaf_value=316.64977922636331 3992.913036433607 -490.83084730171635 5013.1115249487748 -77.039135028107225 -154.01032229411499 -1045.0959582098233 -852.20810835350096 1485.0306706624606 -1032.7258196007861 -759.36442496451809 2033.7592649719115 2964.5090866253372 633.42211555313133 -543.37213654069251
leaf_weight=22 24 942 22 61 46 126 75 20 34 32 33 35 20 100
leaf_count=22 24 942 22 61 46 126 75 20 34 32 33 35 20 100
internal_value=-0.00261307 -0.00289541 0.000743242 -0.000454547 0.00429203 -0.00368421 -0.00132353 0.00080357 0.00363309 0.0067647 0.00423077 0.00117284 -0.0012963 -0.00353801
internal_weight=1592 1568 286 264 103 1282 340 214 139 85 65 81 54 161
internal_count=1592 1568 286 264 103 1282 340 214 139 85 65 81 54 161
cat_boundaries=0 1 2 3
cat_threshold=5 66140 1120
is_linear=0
shrinkage=0.05


Tree=22
num_leaves=15
num_cat=4
split_feature=16 1 0 4 13 32 5 1 0 10 43 46 32 12
split_gain=3.28279 1.56035 2.10839 1.51252 1.81356 0.937572 0.717047 0.772183 0.879057 0.763852 0.477454 0.411899 0.650903 0.371724
threshold=86081.49500000001 0 1 0.71500000000000008 98.950000000000017 12474.085000000001 2.5000000000000004 2 3 38.20000000000001 11104.865000000002 884.43000000000018 20278.820000000003 101.05000000000001
decision_type=10 1 1 2 2 8 2 1 1 2 10 8 8 2
left_child=1 2 3 4 -1 -3 -7 -8 -9 -10 -6 -11 -13 -4
right_child=-2 5 13 -5 10 6 7 8 9 11 -12 12 -14 -15
leaf_value=1945.9086604788195 3793.2673846119269 -954.17630385515372 -518.76286915823846 4969.0635639147158 401.41527029513622 -355.72943086035184 -460.53435881885883 -83.942845041063222 2105.2337123880329 -537.69635965786415 -355.51777204597852 217.35206414600032 3.4484528740865437 -18.047935881156182
leaf_weight=22 24 733 99 25 29 169 123 109 33 20 36 23 72 75
leaf_count=22 24 733 99 25 29 169 123 109 33 20 36 23 72 75
internal_value=-0.00251885 -0.00279975 0.000574323 0.00565574 0.00304598 -0.00352941 -0.00199454 -0.000789475 0.000805242 0.00322785 -0.00115385 0.00152174 0.00289474 -0.00282609
internal_weight=1592 1568 286 112 87 1282 549 380 257 148 65 115 95 174
internal_count=1592 1568 286 112 87 1282 549 380 257 148 65 115 95 174
cat_boundaries=0 1 2 3 4
cat_threshold=5 295516 1120 563586
is_linear=0
shrinkage=0.05


Tree=23
num_leaves=15
num_cat=4
split_feature=16 1 0 14 13 7 32 0 32 33 2 16 3 7
split_gain=3.28279 1.53485 2.66087 1.61664 0.768002 0.705275 0.546923 0.43865 0.563368 0.381927 0.376411 0.71427 0.732464 0.321504
threshold=86081.49500000001 0 1 100.15000000000002 101.15000000000002 156748.98000000004 10930.705000000002 2 13135.930000000002 22265.635000000006 3 47141.06500000001 3.9500000000000006 81269.545000000027
decision_type=10 1 1 2 2 2 8 1 8 8 9 8 2 2
left_child=1 2 3 4 -1 9 -3 8 -8 -5 11 -4 -13 -10
right_child=-2 6 10 5 -6 -7 7 -9 13 -11 -12 12 -14 -15
leaf_value=1940.9213233353048 3603.604015381331 -1284.4776337238568 -536.28508659085287 -230.14151621131234 1870.7926472942029 3680.484063584081 40.315122906622193 -214.88167799990083 -40.168102664021802 342.10533888680146 -225.20951167341315 -447.92684753720732 2988.4086309778668 -205.61879000219452
leaf_weight=21 24 567 63 28 20 20 28 307 148 23 239 25 21 58
leaf_count=21 24 567 63 28 20 20 28 307 148 23 239 25 21 58
internal_value=-0.00251885 -0.00279975 -0.00031915 0.00606557 0.0145122 0.00204225 -0.00379249 -0.00268947 -0.00090164 -0.00107843 -0.00248603 4.20157e-05 0.00478261 -0.00184466
internal_weight=1592 1568 460 112 41 71 1108 541 234 51 348 109 46 206
internal_count=1592 1568 460 112 41 71 1108 541 234 51 348 109 46 206
cat_boundaries=0 1 2 3 4
cat_threshold=141 303216 873045 136323092
is_linear=0
shrinkage=0.05


Tree=24
num_leaves=15
num_cat=3
split_feature=16 32 2 1 3 33 5 24 11 1 5 3 3 3
split_gain=2.56982 1.47995 1.40055 2.21957 1.44645 1.55787 1.30645 0.643014 0.746178 0.306421 0.608466 0.242061 0.328409 0.233938
threshold=86081.49500000001 9483.1050000000014 0 1 4.6500000000000012 15846.330000000002 4.5000000000000009 29262.280000000002 100.75000000000001 2 6.5000000000000009 2.1500000000000008 1.5500000000000003 3.0500000000000003
decision_type=10 8 9 1 2 8 2 10 2 1 2 2 2 2
left_child=1 9 3 4 7 -6 -7 8 13 10 -1 12 -4 -3
right_child=-2 2 11 -5 5 6 -8 -9 -10 -11 -12 -13 -14 -15
leaf_value=-755.01029514201662 3423.4238146122643 -273.99484153702679 -93.200751055725902 -175.00814226441923 -259.85611713135086 4539.6489380193962 434.23618875339145 -167.70775349354943 927.49119019890713 -1510.9292799757743 517.32796881742456 -208.85823705320414 1763.1712810695819 47.186157564416895
leaf_weight=77 24 30 44 179 20 31 31 32 36 581 24 431 20 32
leaf_count=77 24 30 44 179 20 31 31 32 36 581 24 431 20 32
internal_value=-0.00248744 -0.00273597 -0.00138826 0.000860348 0.00423423 0.00963415 0.0135484 0.00115384 0.00316326 -0.0044868 -0.0013964 -0.00311881 -0.000312501 -0.000161292
internal_weight=1592 1568 886 391 212 82 62 130 98 682 101 495 64 62
internal_count=1592 1568 886 391 212 82 62 130 98 682 101 495 64 62
cat_boundaries=0 1 2 3
cat_threshold=144975516 669 134
is_linear=0
shrinkage=0.05


Tree=25
num_leaves=15
num_cat=3
split_feature=16 1 7 32 0 43 1 4 32 7 46 5 13 32
split_gain=2.60974 1.65963 1.48971 0.988062 0.821891 0.723826 0.624591 1.1484 0.800395 0.40312 0.274167 0.252632 0.192857 0.169874
threshold=86081.49500000001 0 197512.05500000002 15903.275000000001 1 11969.280000000001 2 0.48500000000000004 18173.325000000001 76926.105000000025 924.10500000000013 1.5000000000000002 100.70000000000002 7773.1600000000008
decision_type=10 1 2 8 1 8 1 2 10 2 8 2 2 10
left_child=1 2 5 13 6 -1 12 8 -8 -7 -6 -9 -5 -3
right_child=-2 3 -4 4 10 9 7 11 -10 -11 -12 -13 -14 -15
leaf_value=603.86195637832122 3252.2526238816508 -1725.9395051465426 4007.3819926163123 135.90051868917416 4.6346768021443223 -212.2023540087506 2088.9951269216212 169.45778395519619 10.54456887614198 2757.2302284215361 -335.97306268890134 -287.66147072874281 -272.66049646054722 -201.57776113153957
leaf_weight=23 24 504 24 21 21 73 32 30 23 22 286 27 84 398
leaf_count=23 24 504 24 21 21 73 32 30 23 22 286 27 84 398
internal_value=-0.00261307 -0.00286352 0.00223684 -0.00336351 -0.00166031 8.47446e-05 0.000726871 0.00319672 0.00863636 -0.00184211 -0.00326499 -0.00149123 -0.00195652 -0.00439025
internal_weight=1592 1568 142 1426 524 118 217 112 55 95 307 57 105 902
internal_count=1592 1568 142 1426 524 118 217 112 55 95 307 57 105 902
cat_boundaries=0 1 2 3
cat_threshold=132 799344 1392
is_linear=0
shrinkage=0.05


Tree=26
num_leaves=15
num_cat=3
split_feature=32 1 7 0 43 32 32 12 0 13 5 16 3 3
split_gain=2.50438 1.23268 2.06089 1.21688 1.04537 0.800501 0.619946 0.596277 0.506909 0.552312 0.547945 0.478139 0.533189 0.429501
threshold=32718.940000000006 0 197512.05500000002 1 11969.280000000001 9483.1050000000014 19260.560000000001 93.800000000000011 2 99.40000000000002 5.5000000000000009 31927.375000000004 6.4500000000000011 3.9500000000000006
decision_type=10 1 2 1 8 8 8 2 1 2 2 10 2 2
left_child=1 2 3 4 -1 -3 -6 -7 -9 -10 -11 12 -12 -8
right_child=-2 5 -4 -5 6 7 13 8 9 10 11 -13 -14 -15
leaf_value=440.99676348055914 3180.7904724741052 -1317.7525293692725 3908.7747054607362 -325.97652739978054 -399.42165254804451 32.520678570649835 -76.631596368175664 -192.53725313350947 12.237714678021902 -307.96632753680205 613.57577918631591 -56.008558669451418 -154.62106205252928 3179.0408026720029
leaf_weight=27 20 592 23 154 43 24 21 242 46 226 43 70 41 20
leaf_count=27 20 592 23 154 43 24 21 242 46 226 43 70 41 20
internal_value=-0.00258166 -0.00280534 0.000201341 -0.00103774 0.00285124 -0.00345441 0.000357142 -0.00232659 -0.00260479 -0.00144496 -0.00210526 0.000194804 0.00273809 0.0047561
internal_weight=1592 1572 288 265 111 1284 84 692 668 426 380 154 84 41
internal_count=1592 1572 288 265 111 1284 84 692 668 426 380 154 84 41
cat_boundaries=0 1 2 3
cat_threshold=5 66262 185354
is_linear=0
shrinkage=0.05


Tree=27
num_leaves=15
num_cat=4
split_feature=32 32 2 1 7 33 10 10 32 11 1 13 4 1
split_gain=2.48652 1.24521 1.10454 1.41535 2.24569 1.10542 0.823025 0.648678 0.812698 0.618132 0.354625 0.89131 0.335043 0.271553
threshold=32718.940000000006 9483.1050000000014 0 1 197512.05500000002 22847.475000000002 75.550000000000011 51.250000000000007 17223.070000000003 100.75000000000001 2 98.700000000000017 0.60500000000000009 3
decision_type=10 8 9 1 2 8 2 2 8 2 1 2 2 1
left_child=1 13 3 7 5 -5 9 8 -3 12 11 -4 -7 -1
right_child=-2 2 10 4 -6 6 -8 -9 -10 -11 -12 -13 -14 -15
leaf_value=-554.50020661575957 3021.7509488504002 6.9590309404411315 11.17191256489083 -265.2526221918074 3916.8592224383583 -107.80353507379101 933.22365835921744 -187.28838807153213 -263.18759968614586 1496.457242296289 -178.40108608641975 -188.97205394489532 1314.4425952094477 -1284.197150740516
leaf_weight=129 20 20 23 68 21 45 22 172 70 35 311 80 20 556
leaf_count=129 20 20 23 68 21 45 22 172 70 35 311 80 20 556
internal_value=-0.00251885 -0.00274173 -0.00150507 0.000175982 0.0031448 0.00157895 0.00442623 -0.00224265 0.00111111 0.0025 -0.00334906 -0.000575222 -0.000384617 -0.00434307
internal_weight=1592 1572 887 473 211 190 122 262 90 100 414 103 65 685
internal_count=1592 1572 887 473 211 190 122 262 90 100 414 103 65 685
cat_boundaries=0 1 2 3 4
cat_threshold=212084373 3440 296 518
is_linear=0
shrinkage=0.05


Tree=28
num_leaves=15
num_cat=3
split_feature=1 24 32 33 2 46 5 9 4 6 5 1 5 3
split_gain=1.62046 2.41491 1.18997 1.07004 1.17035 1.16287 0.638083 0.444481 0.389995 0.384488 0.432353 0.285692 0.318527 0.403529
threshold=0 26569.220000000005 10689.255000000001 32949.410000000011 1 884.43000000000018 1.0000000180025095e-35 11.500000000000002 0.48500000000000004 1.0000000180025095e-35 5.5000000000000009 2 2.5000000000000004 4.0500000000000007
decision_type=1 10 8 8 9 10 2 2 2 2 2 1 2 2
left_child=1 6 -2 -4 5 7 -1 8 9 10 -5 12 -6 -14
right_child=2 -3 3 4 11 -7 -8 -9 -10 -11 -12 -13 13 -15
leaf_value=1826.0636679338529 -985.47518583380906 2932.945265563912 -199.68715747275871 420.72806168218807 -79.510282825236274 1023.8912190401197 -209.23110326149401 642.26855317523996 -222.49634860425354 -499.65523134604319 -159.54976279219304 -575.91962804603997 1552.2422083797308 -64.802814405006373
leaf_weight=34 687 30 269 34 53 26 104 30 69 35 30 106 35 50
leaf_count=34 687 30 269 34 53 26 104 30 69 35 30 106 35 50
internal_value=-0.00258166 0.00202247 -0.00311716 -0.00174356 -0.000299146 0.00226496 -0.000652175 0.0010606 5.95226e-05 0.00207071 0.004375 -0.0026378 -0.000945947 0.000882352
internal_weight=1592 168 1424 737 468 224 138 198 168 99 64 244 138 85
internal_count=1592 168 1424 737 468 224 138 198 168 99 64 244 138 85
cat_boundaries=0 1 2 3
cat_threshold=20 143540373 899
is_linear=0
shrinkage=0.05


Tree=29
num_leaves=15
num_cat=3
split_feature=1 4 24 0 24 18 33 3 3 1 51 5 3 10
split_gain=1.84945 3.60119 1.0874 0.940074 0.761926 1.18679 0.709089 0.604686 1.01818 0.451104 0.47935 0.347085 0.420875 0.25
threshold=0 0.68500000000000016 34765.990000000013 1 11577.990000000002 6882.1750000000002 32949.410000000011 9.2000000000000011 3.0500000000000003 2 3773.5200000000004 5.5000000000000009 4.1500000000000012 55.850000000000001
decision_type=1 2 8 1 10 10 8 2 2 1 8 2 2 2
left_child=1 4 -2 6 -1 -6 -4 8 -8 10 -5 -12 -13 -10
right_child=2 -3 3 9 5 -7 7 -9 13 -11 11 12 -14 -15
leaf_value=-793.36674158819062 -475.00945496664275 4520.1432541942377 -427.21405254061187 -77.443859213118856 203.95716999788809 -521.27466089232155 2711.11776862736 1369.6182847119205 -840.62100893196884 -461.2486429005092 -40.447946272371567 1392.2118107228316 -36.459368118479027 538.18657822398256
leaf_weight=63 931 20 23 58 34 23 21 20 25 172 122 27 33 20
leaf_count=63 931 20 23 58 34 23 21 20 25 172 122 27 33 20
internal_value=-0.00273869 0.00266667 -0.00325582 -0.00144914 -0.000416668 0.00377193 0.00256302 0.00488372 0.00257576 -0.00251185 -0.001 0.000219779 0.00333333 -0.00166667
internal_weight=1592 140 1452 521 120 57 109 86 66 412 240 182 60 45
internal_count=1592 140 1452 521 120 57 109 86 66 412 240 182 60 45
cat_boundaries=0 1 2 3
cat_threshold=12 532497 899
is_linear=0
shrinkage=0.05


Tree=30
num_leaves=15
num_cat=3
split_feature=1 4 32 24 18 0 1 4 11 33 8 32 12 9
split_gain=1.52472 2.85833 1.36184 0.761926 1.18679 0.745383 1.23299 1.40478 1.05672 0.702492 0.67402 0.281509 0.654762 0.262976
threshold=0 0.68500000000000016 10689.255000000001 11577.990000000002 6882.1750000000002 1 2 0.48500000000000004 102.10000000000001 27925.265000000003 7.5000000000000009 13901.870000000001 101.80000000000003 -11.499999999999998
decision_type=1 2 8 10 10 1 1 2 2 8 2 8 2 2
left_child=1 3 -2 -1 -5 6 7 8 -4 -9 -11 12 -8 -7
right_child=2 -3 5 4 -6 13 11 9 -10 10 -12 -13 -14 -15
leaf_value=-753.69840450878098 -946.79940825925155 4294.1360914845263 1237.7618186553018 193.75931149799388 -495.21092784770553 182.19952271754011 78.284529961940905 -147.02936432334482 2314.7212110377927 866.84397656115698 -103.34803781974699 -172.7317006342426 -248.83383304522874 -131.81339860353964
leaf_weight=63 679 20 32 34 23 20 20 41 21 34 32 151 22 400
leaf_count=63 679 20 32 34 23 20 20 41 21 34 32 151 22 400
internal_value=-0.00258166 0.00233333 -0.00305062 -0.000416668 0.00377193 -0.00163648 9.64176e-05 0.00323529 0.0100943 0.000140186 0.00333333 -0.00253695 0.00095238 -0.00302326
internal_weight=1592 140 1452 120 57 773 353 160 53 107 66 193 42 420
internal_count=1592 140 1452 120 57 773 353 160 53 107 66 193 42 420
cat_boundaries=0 1 2 3
cat_threshold=12 598615 657
is_linear=0
shrinkage=0.05


Tree=31
num_leaves=15
num_cat=3
split_feature=32 2 1 33 43 9 7 14 3 5 1 5 10 43
split_gain=1.173 1.24904 1.36337 1.38157 1.50501 0.875524 0.6282 0.437777 0.50655 0.347006 0.29938 0.485937 0.283816 0.444444
threshold=9627.9050000000007 0 1 22265.635000000006 22088.625000000004 3.5000000000000004 197512.05500000002 89.550000000000026 3.0500000000000003 4.5000000000000009 2 5.5000000000000009 92.550000000000011 21769.960000000003
decision_type=8 9 1 8 10 2 2 2 2 2 1 2 2 10
left_child=10 2 -2 12 5 7 -3 -5 -9 -10 11 -1 13 -4
right_child=1 6 3 4 -6 -7 -8 8 9 -11 -12 -13 -14 -15
leaf_value=-469.52438046190019 -382.5421220359076 -150.57819126643065 -135.80462378824376 -1088.1607575302266 2251.1535255528688 1671.7330290479022 552.34444043585711 1491.8287273399974 296.69278195322977 -32.197148127136835 -1132.341805249557 370.73855127062313 -221.08093526307732 85.848199716632138
leaf_weight=92 112 491 20 24 29 37 27 26 27 32 576 27 47 25
leaf_count=92 112 491 20 24 29 37 27 26 27 32 576 27 47 25
internal_value=-0.00273869 -0.00154404 0.000655526 0.00258123 0.00528571 0.00321918 -0.00310606 0.000963302 0.00264706 8.47446e-05 -0.00428058 -0.00151163 -0.00228261 0.000555554
internal_weight=1592 897 379 267 175 146 518 109 85 59 695 119 92 45
internal_count=1592 897 379 267 175 146 518 109 85 59 695 119 92 45
cat_boundaries=0 1 2 3
cat_threshold=10756821 1344 14
is_linear=0
shrinkage=0.05


Tree=32
num_leaves=15
num_cat=4
split_feature=1 4 33 51 43 16 2 4 11 16 0 1 24 3
split_gain=1.72736 2.74286 1.09092 0.867241 0.875589 0.866728 0.497961 0.642769 0.491779 0.520764 0.365274 0.505155 0.903744 0.361239
threshold=0 0.68500000000000016 24931.335000000003 1.0000000180025095e-35 12145.060000000001 29729.310000000001 1 0.13500000000000004 97.65000000000002 51361.575000000004 2 3 23553.140000000003 4.7500000000000009
decision_type=1 2 10 8 10 8 9 2 2 8 1 1 10 2
left_child=1 3 5 4 -1 -2 7 -7 9 -8 -9 12 13 -12
right_child=2 -3 -4 -5 -6 6 8 10 -10 -11 11 -13 -14 -15
leaf_value=273.15171934883875 -797.69837559458824 4003.772023684643 972.653885378371 -701.35492615199564 -160.18570242389296 128.09932944325553 15.052391402559522 -159.40400204533896 -209.22099202180766 -214.50082339260362 395.94520446590866 -214.15025262641439 -47.015357089071337 499.6682552549691
leaf_weight=29 579 20 24 61 30 25 27 101 440 31 32 108 56 29
leaf_count=29 579 20 24 61 30 25 27 101 440 31 32 108 56 29
internal_value=-0.00255025 0.00266667 -0.00305062 -1.19209e-09 0.00432203 -0.0032493 -0.00223204 -0.000706372 -0.00322835 0.00103448 -0.00131902 -0.000106384 0.00208661 0.00647541
internal_weight=1592 140 1452 120 59 1428 849 351 498 58 326 225 117 61
internal_count=1592 140 1452 120 59 1428 849 351 498 58 326 225 117 61
cat_boundaries=0 1 2 3 4
cat_threshold=12 2568849 4105 401
is_linear=0
shrinkage=0.05


Tree=33
num_leaves=15
num_cat=2
split_feature=1 7 17 16 2 8 18 3 32 9 4 43 4 25
split_gain=1.60043 1.50116 0.916705 0.725657 0.740656 0.89084 1.0481 0.714435 1.11213 0.614597 0.571575 0.392111 0.419374 0.358518
threshold=0 197512.05500000002 70354.095000000016 31286.350000000002 1 7.5000000000000009 23331.580000000005 2.2500000000000004 14260.225000000002 -9.9999999999999982 0.22500000000000003 11969.280000000001 0.53500000000000014 44324.320000000007
decision_type=1 2 10 8 9 2 10 2 8 2 2 8 2 8
left_child=1 11 3 -2 5 6 7 -5 -9 -7 -10 -1 -13 -14
right_child=2 -3 -4 4 -6 9 -8 8 10 -11 -12 12 13 -15
leaf_value=400.0879261917255 -677.92407173749962 2570.8542664072143 1116.5148507589663 2230.3818223870876 -221.77022628804195 20.308538113278075 -197.05620431387578 57.999646110373526 96.529148215071757 -581.64868627217845 -127.99048144258153 -359.88509574096037 -257.87253724135257 345.32575251360686
leaf_weight=23 639 28 20 29 428 22 48 24 20 120 94 44 24 29
leaf_count=23 639 28 20 29 428 22 48 24 20 120 94 44 24 29
internal_value=-0.00261307 0.00227848 -0.00310867 -0.0032795 -0.00226115 -0.000504088 0.00151163 0.00338323 0.00188406 -0.00359155 -0.00017544 -1.19209e-09 -0.00139175 0.00160377
internal_weight=1592 148 1444 1424 785 357 215 167 138 142 114 120 97 53
internal_count=1592 148 1444 1424 785 357 215 167 138 142 114 120 97 53
cat_boundaries=0 1 2
cat_threshold=132 225943
is_linear=0
shrinkage=0.05


Tree=34
num_leaves=15
num_cat=3
split_feature=1 4 17 24 18 16 24 33 1 0 14 14 4 4
split_gain=1.63928 2.85833 0.883807 0.761926 1.18679 0.670872 0.767466 0.497623 0.604646 0.627637 0.423299 0.481152 0.4 0.364892
threshold=0 0.68500000000000016 71760.080000000016 11577.990000000002 6882.1750000000002 29729.310000000001 18529.325000000004 18557.210000000003 1 2 102.15000000000002 95.300000000000026 0.48500000000000004 0.40500000000000008
decision_type=1 2 10 10 10 8 8 8 1 1 2 2 2 2
left_child=1 3 5 -1 -5 -2 -7 -8 -9 10 11 12 -10 -13
right_child=2 -3 -4 4 -6 6 7 8 9 -11 -12 13 -14 -15
leaf_value=-654.46440712900107 -723.91725322798447 3775.1895427129612 958.32498938277479 167.47825912288963 -426.38442500520307 15.505312675018402 -235.99632020019109 -319.81779638887735 592.63795032563212 -54.34844181569224 -141.35614735265162 2.0900161047844596 -932.30091194273689 1152.967789756445
leaf_weight=63 579 20 21 34 23 21 284 232 20 196 26 21 20 32
leaf_count=63 579 20 21 34 23 21 284 232 20 196 26 21 20 32
internal_value=-0.0027701 0.00233333 -0.00325582 -0.000416668 0.00377193 -0.00342767 -0.00253521 -0.00277377 -0.00189214 -0.000384617 0.00236434 0.00413978 -1.19209e-09 0.00726415
internal_weight=1592 140 1452 120 57 1431 852 831 547 315 119 93 40 53
internal_count=1592 140 1452 120 57 1431 852 831 547 315 119 93 40 53
cat_boundaries=0 1 2 3
cat_threshold=12 3184 273104
is_linear=0
shrinkage=0.05


Tree=35
num_leaves=15
num_cat=3
split_feature=1 4 33 16 51 43 32 2 5 4 1 5 10 13
split_gain=1.74743 2.74286 1.13226 2.01507 0.867241 0.875589 0.835282 0.680684 0.600978 0.435556 0.379495 0.451257 0.324424 0.221388
threshold=0 0.68500000000000016 32949.410000000011 61041.62000000001 1.0000000180025095e-35 12145.060000000001 8294.8000000000011 1 5.5000000000000009 0.43500000000000005 2 6.5000000000000009 35.250000000000007 103.15000000000002
decision_type=1 2 8 10 8 10 8 9 2 2 1 2 2 2
left_child=1 4 -2 6 5 -1 -4 8 9 -8 11 12 -9 -11
right_child=2 -3 3 -5 -6 -7 7 10 -10 13 -12 -13 -14 -15
leaf_value=231.11582411566607 -395.78370880773133 3586.4300655773131 -1037.4526201398389 1851.689606511191 -629.07206413363792 -160.93957816600687 -140.9938407011341 7.2902388641714539 252.80016945127656 288.93973089495921 -205.61148650175699 1130.4970836510067 -145.42395496807077 -168.83779472034232
leaf_weight=29 720 20 192 22 61 30 30 23 41 22 293 27 59 23
leaf_count=29 720 20 192 22 61 30 30 23 41 22 293 27 59 23
internal_value=-0.00258166 0.00266667 -0.00308482 -0.00172131 -1.19209e-09 0.00432203 -0.0021831 -0.001139 0.00214286 -0.000333335 -0.00208738 0.000462184 -0.00134146 0.00277778
internal_weight=1592 140 1452 732 120 59 710 518 116 75 402 109 82 45
internal_count=1592 140 1452 732 120 59 710 518 116 75 402 109 82 45
cat_boundaries=0 1 2 3
cat_threshold=12 10748036 2306
is_linear=0
shrinkage=0.05


Tree=36
num_leaves=15
num_cat=3
split_feature=1 4 32 4 51 43 2 4 10 2 32 24 4 7
split_gain=1.29938 1.54286 1.28698 1.27682 0.867241 0.875589 0.807733 0.704943 0.931795 0.364161 0.596876 1.08782 0.269928 0.338961
threshold=0 0.68500000000000016 19615.975000000002 0.11500000000000002 1.0000000180025095e-35 12145.060000000001 1 0.46500000000000002 53.100000000000009 2 7773.1600000000008 19705.210000000003 0.35500000000000004 73507.090000000011
decision_type=1 2 8 2 8 10 9 2 2 9 10 10 2 2
left_child=1 4 9 -4 5 -1 7 -5 -9 10 -2 -12 13 -8
right_child=2 -3 3 6 -6 -7 12 8 -10 -11 11 -13 -14 -15
leaf_value=219.56003290988275 -1247.3067964782558 3407.1085622984465 2076.2249400034898 -337.31103946140666 -597.618460926956 -152.89259925770693 9.4629487220269102 -4.3858286537789288 759.09070014448662 -315.56227492992872 129.06083825645723 -249.2807181689721 -282.90078342927825 -1396.478255141034
leaf_weight=29 66 20 22 49 61 30 70 34 24 866 21 29 242 29
leaf_count=29 66 20 22 49 61 30 70 34 24 866 21 29 242 29
internal_value=-0.00255025 0.002 -0.00298222 -0.000851065 -1.19209e-09 0.00432203 -0.00142857 0.00226496 0.0062069 -0.00403259 -0.00103175 0.003 -0.00257835 -0.000454547
internal_weight=1592 140 1452 470 120 59 448 107 58 982 116 50 341 99
internal_count=1592 140 1452 470 120 59 448 107 58 982 116 50 341 99
cat_boundaries=0 1 2 3
cat_threshold=12 262812 8354
is_linear=0
shrinkage=0.05


Tree=37
num_leaves=15
num_cat=4
split_feature=1 2 0 29 46 10 43 33 51 0 9 43 7 4
split_gain=1.2132 2.30824 1.39942 1.51521 0.760941 0.684584 0.626731 0.508428 0.461202 0.566375 0.664403 0.321551 0.279947 0.287139
threshold=0 1 2 1128.8332658260006 623.96000000000015 46.850000000000001 19847.230000000003 16964.080000000005 5710.3350000000009 3 -8.4999999999999982 8540.7550000000028 73507.090000000011 0.33500000000000008
decision_type=1 9 1 10 8 2 10 10 8 1 2 8 2 2
left_child=1 2 6 4 -4 -6 -1 11 -2 10 -10 -3 13 -12
right_child=8 7 3 -5 5 -7 -8 -9 9 -11 12 -13 -14 -15
leaf_value=-276.31826366412668 -458.05482315602887 37.459326623199829 212.17666870392281 -239.9914163263029 476.71801689801833 958.5613970082228 1677.5641142732497 7.6177559728095892 51.450177056880619 -427.06525124527798 457.57116846975299 -254.86248113287388 -1505.9302959718052 -807.30017504125487
leaf_weight=93 618 31 28 26 24 34 35 21 22 183 25 388 30 34
leaf_count=93 618 31 28 26 24 34 35 21 22 183 25 388 30 34
internal_value=-0.00251885 -0.000869566 0.003 0.00688524 0.0106977 0.0139655 -0.000652175 -0.003 -0.00369848 -0.00210884 0.000785123 -0.00344869 -0.00106742 0.000932202
internal_weight=1592 680 240 112 86 58 128 440 912 294 111 419 89 59
internal_count=1592 680 240 112 86 58 128 440 912 294 111 419 89 59
cat_boundaries=0 1 2 3 4
cat_threshold=159 2367669 16909 610660
is_linear=0
shrinkage=0.05


Tree=38
num_leaves=15
num_cat=3
split_feature=4 33 0 32 18 1 43 12 11 4 13 51 1 4
split_gain=1.43498 1.02148 0.796088 0.908732 1.06342 1.28522 1.00936 0.594954 0.642165 0.59759 0.593939 0.379427 0.46316 0.359399
threshold=0.88500000000000012 24931.335000000003 0 7053.5650000000014 8948.0200000000023 1 11969.280000000001 102.05000000000001 102.10000000000001 0.48500000000000004 102.45000000000002 8645.0000000000018 2 0.35500000000000004
decision_type=2 10 1 8 10 1 8 2 2 2 2 8 1 2
left_child=1 2 3 -1 5 -5 -7 8 9 10 -8 -4 13 -13
right_child=-2 -3 11 4 -6 6 7 -9 -10 -11 -12 12 -14 -15
leaf_value=-1321.7467303557835 2081.8586030092756 641.812113919171 -322.25005112353631 -157.79272616420033 -354.02014081658348 159.84462376266129 1421.5391163626914 -43.525789887817552 747.77491218699049 -127.99962499755571 -24.582417059976507 274.73855943908455 -760.66233674339355 -80.171696953551191
leaf_weight=180 24 24 643 124 108 21 33 43 33 56 22 30 168 83
leaf_count=180 24 24 643 124 108 21 33 43 33 56 22 30 168 83
internal_value=-0.00255025 -0.00273597 -0.00289508 -0.00142857 -0.000227274 0.0011747 0.00348624 0.00248663 0.00402778 0.00220721 0.00590909 -0.00382227 -0.00233096 0.000284552
internal_weight=1592 1568 1544 620 440 332 208 187 144 111 55 924 281 113
internal_count=1592 1568 1544 620 440 332 208 187 144 111 55 924 281 113
cat_boundaries=0 1 2 3
cat_threshold=74295 1346 277
is_linear=0
shrinkage=0.05


Tree=39
num_leaves=15
num_cat=3
split_feature=1 32 47 46 2 3 3 10 7 4 4 6 32 2
split_gain=1.37357 1.00749 0.95777 1.09375 0.904912 0.836179 0.532463 0.46875 0.433929 0.418414 0.342904 0.336827 0.32459 0.653169
threshold=0 36955.420000000006 15937.958333333334 696.8850000000001 1 2.2500000000000004 5.4500000000000011 58.300000000000004 76926.105000000025 0.44500000000000006 0.44500000000000006 1.0000000180025095e-35 7053.5650000000014 2
decision_type=1 8 8 10 9 2 2 2 2 2 2 2 10 9
left_child=2 12 -1 7 5 -3 -7 8 -4 -8 11 -6 -2 -14
right_child=1 4 3 -5 10 6 9 -9 -10 -11 -12 -13 13 -15
leaf_value=-394.615423324848 -1335.1951198178265 1899.9416052667382 -35.521531953795069 1372.3579824674716 140.20220773613286 -727.69080955989602 -244.71434950569397 -257.87558479596549 2206.6701641611157 636.77905855869085 -625.75457901774553 -441.9701460585415 2.7331685203965268 -116.29090668217565
leaf_weight=36 437 20 28 32 76 35 22 32 20 25 130 62 107 530
leaf_count=36 437 20 28 32 76 35 22 32 20 25 130 62 107 530
internal_value=-0.00258166 -0.00303989 0.00196202 0.004375 -0.000810812 0.00303571 0.00109756 0.00125 0.004375 0.00457447 -0.00230216 -0.000652175 -0.00383613 -0.00311617
internal_weight=1592 1444 148 112 370 102 82 80 48 47 268 138 1074 637
internal_count=1592 1444 148 112 370 102 82 80 48 47 268 138 1074 637
cat_boundaries=0 1 2 3
cat_threshold=132 2359317 8396848
is_linear=0
shrinkage=0.05


Tree=40
num_leaves=15
num_cat=3
split_feature=32 9 2 1 48 46 32 14 12 16 8 1 43 32
split_gain=1.2769 1.60473 1.08301 1.09634 0.745182 1.60321 0.553836 0.777257 1.04507 1.06838 0.587778 0.37469 0.594961 1.225
threshold=9627.9050000000007 19.500000000000004 0 1 235.32103663593151 1244.1900000000003 14705.160000000002 95.300000000000026 101.80000000000003 36694.81500000001 7.5000000000000009 2 12145.060000000001 3753.2250000000008
decision_type=8 2 9 1 10 10 10 2 2 8 2 1 10 10
left_child=11 2 3 -2 5 6 7 -5 9 -9 -11 12 13 -1
right_child=1 -3 -4 4 -6 -7 -8 8 -10 10 -12 -13 -14 -15
leaf_value=-2345.0125356236472 -358.89335458671616 1802.1751211504456 -120.4189604273204 -193.58328965971123 -484.81284366165721 1487.9459140941599 -58.163765567738928 -5.3446573243576019 -16.042350231641468 680.06977972604875 343.16277639022957 -884.71229309392459 -381.09923185054782 311.90634709209485
leaf_weight=20 110 35 523 47 28 24 35 20 30 25 20 576 79 20
leaf_count=20 110 35 523 47 28 24 35 20 30 25 20 576 79 20
internal_value=-0.00245603 -0.00120959 -0.00163573 0.000587391 0.00253138 0.00370647 0.00206215 0.0034507 0.00605263 0.00961538 0.0138889 -0.00406475 -0.00112403 0.00375
internal_weight=1592 897 862 339 229 201 177 142 95 65 45 695 119 40
internal_count=1592 897 862 339 229 201 177 142 95 65 45 695 119 40
cat_boundaries=0 1 2 3
cat_threshold=2368669 3392 14
is_linear=0
shrinkage=0.05


Tree=41
num_leaves=15
num_cat=4
split_feature=16 0 1 13 5 17 16 1 51 3 24 33 43 1
split_gain=1.18006 1.16929 1.82264 0.906814 1.1865 0.693336 0.602329 0.514638 0.441459 0.583421 0.480002 0.410465 0.368353 0.629484
threshold=36308.005000000005 0 1 101.15000000000002 6.5000000000000009 92128.35500000001 43177.670000000006 2 1.0000000180025095e-35 3.9500000000000006 13776.880000000003 13401.785000000002 22208.160000000003 3
decision_type=8 1 1 2 2 8 8 1 10 2 10 10 8 1
left_child=7 2 3 -2 5 -5 -4 8 9 -1 -11 -9 -3 -14
right_child=1 12 6 4 -6 -7 -8 11 -10 10 -12 -13 13 -15
leaf_value=-140.4906628004596 1313.3803835002939 -209.16763856986901 77.591768658722785 -11.922729035570928 -460.71016598591541 1530.5462228680492 -203.67580743327278 -636.5958995060148 -350.36267361125874 -73.411026443117407 796.51520507398413 8.0622082944203353 -460.41446085768251 -12.062624894844637
leaf_weight=46 25 150 27 24 25 38 109 656 44 21 23 20 118 266
leaf_count=46 25 150 27 24 25 38 109 656 44 21 23 20 118 266
internal_value=-0.00261307 -0.00122762 0.00158915 0.00606557 0.0041954 0.00790322 -0.00226028 -0.00395062 -0.000833334 0.00111111 0.00522727 -0.0044898 -0.00251838 -0.00174479
internal_weight=1592 782 248 112 87 62 136 810 134 90 44 676 534 384
internal_count=1592 782 248 112 87 62 136 810 134 90 44 676 534 384
cat_boundaries=0 1 2 3 4
cat_threshold=41045 2197 14 3152
is_linear=0
shrinkage=0.05


Tree=42
num_leaves=15
num_cat=3
split_feature=16 2 4 32 46 0 43 46 32 3 3 33 0 3
split_gain=1.20238 1.29787 1.72676 0.669643 0.653039 0.488854 0.769244 0.485215 0.847534 0.657047 0.397687 0.327473 0.548861 0.390217
threshold=28380.390000000003 0 0.70000000000000007 25824.315000000006 935.14000000000021 1 11649.895000000002 692.32500000000016 13901.870000000001 2.7500000000000004 7.5500000000000007 15846.330000000002 2 1.7500000000000002
decision_type=8 9 2 10 10 1 10 8 8 2 2 8 1 2
left_child=5 2 3 4 7 6 -1 -2 -9 -10 -11 -3 13 -13
right_child=1 11 -4 -5 -6 -7 -8 8 9 10 -12 12 -14 -15
leaf_value=65.390148793471766 -75.07018502554989 -332.84968013235721 3172.9136301173698 1307.0871408795429 -53.128432477827417 -700.58197071343864 -317.53387626788361 92.236644015154752 1097.4162022519918 -504.86215748207087 19.262054510189689 23.008875793312711 -205.00950770196789 -23.45849053478301
leaf_weight=34 41 234 23 22 60 498 78 21 28 64 29 36 227 197
leaf_count=34 41 234 23 22 60 498 78 21 28 64 29 36 227 197
internal_value=-0.00251885 -0.00143585 0.00137584 0.000283018 -0.000473252 -0.0042623 -0.00090164 0.00101093 0.00239437 0.000785123 -0.00123656 -0.00258523 -0.00184783 -6.17295e-05
internal_weight=1592 982 288 265 243 610 112 183 142 121 93 694 460 233
internal_count=1592 982 288 265 243 610 112 183 142 121 93 694 460 233
cat_boundaries=0 1 2 3
cat_threshold=2622101 66064 800928
is_linear=0
shrinkage=0.05


Tree=43
num_leaves=15
num_cat=4
split_feature=32 2 16 1 43 46 1 43 7 3 1 12 17 33
split_gain=1.25982 1.13682 1.34838 1.08374 1.26682 1.25782 0.672585 1.49744 0.545475 0.382653 0.328834 0.618692 0.280075 0.26164
threshold=10689.255000000001 0 31286.350000000002 1 21515.610000000004 696.8850000000001 2 13351.880000000001 195150.94500000004 5.4500000000000011 3 97.300000000000026 40698.290000000001 15846.330000000002
decision_type=8 9 8 1 8 10 1 10 2 2 1 2 10 8
left_child=6 2 -2 4 -4 9 7 -1 13 -6 11 -5 -8 -3
right_child=1 8 3 10 5 -7 12 -9 -10 -11 -12 -13 -14 -15
leaf_value=73.512594460708542 1377.5514201032017 -287.11558164241427 -131.00935143005759 87.624775021581598 110.70859504694768 1571.2528938890948 -664.10386786124582 -480.20392063475242 77.599072128879925 1674.7007906563613 -334.98325620844179 -14.630582562335315 -46.153587520508339 -59.216618529358669
leaf_weight=39 22 126 32 31 28 21 615 73 36 21 100 83 28 337
leaf_count=39 22 126 32 31 28 21 615 73 36 21 100 83 28 337
internal_value=-0.00239322 -0.00105735 0.00117816 0.000379746 0.004375 0.00857143 -0.00387417 -8.19683e-05 -0.00254421 0.00418367 -0.00165179 0.000241934 -0.00446401 -0.00305616
internal_weight=1592 837 338 316 102 70 755 112 499 49 214 114 643 463
internal_count=1592 837 338 316 102 70 755 112 499 49 214 114 643 463
cat_boundaries=0 1 2 3 4
cat_threshold=10496149 21 140 800
is_linear=0
shrinkage=0.05


Tree=44
num_leaves=15
num_cat=4
split_feature=16 0 1 24 32 10 1 43 6 1 9 43 3 32
split_gain=1.23612 1.03246 1.07014 0.907029 1.01291 1.49118 0.731795 0.793108 2.06837 0.504987 0.727016 0.537888 0.441452 0.410131
threshold=36308.005000000005 0 1 29599.125000000004 27303.425000000003 50.250000000000007 2 11616.075000000003 1.0000000180025095e-35 3 -11.499999999999998 23061.715000000004 2.1500000000000008 9843.8750000000018
decision_type=8 1 1 8 8 2 1 10 2 1 2 8 2 10
left_child=6 2 3 -2 -5 -6 7 8 -1 10 -3 -12 -13 -9
right_child=1 9 -4 4 5 -7 -8 13 -10 -11 11 12 -14 -15
leaf_value=64.364592015032898 237.97750989663609 87.09221064077046 -55.919362632042805 -209.75078267214855 42.141455292869793 1295.0965184403574 -471.87899291356337 -687.60272603099429 -94.758063485228476 -383.17924480908601 -151.51431140342257 418.51514566799034 -28.394976542890067 27.625131871054453
leaf_weight=21 28 25 128 30 48 20 642 84 34 185 116 36 166 29
leaf_count=21 28 25 128 30 48 20 642 84 34 185 116 36 166 29
internal_value=-0.00258166 -0.00116368 0.00143939 0.00455882 0.00265306 0.00602941 -0.00395062 -0.000786518 0.00409091 -0.00239777 -0.00117564 -0.00185535 -0.000297031 -0.00323009
internal_weight=1592 782 254 126 98 68 810 168 55 528 343 318 202 113
internal_count=1592 782 254 126 98 68 810 168 55 528 343 318 202 113
cat_boundaries=0 1 2 3 4
cat_threshold=41013 565 13 933
is_linear=0
shrinkage=0.05


Tree=45
num_leaves=15
num_cat=2
split_feature=33 1 5 10 17 0 32 13 9 17 43 4 3 43
split_gain=1.26083 1.09694 2.14287 1.03829 0.610707 0.806459 0.502024 0.481279 0.330927 0.294177 0.563735 0.347998 0.280519 0.270237
threshold=22265.635000000006 0 1.0000000180025095e-35 43.95000000000001 29106.400000000005 1 7531.8900000000003 101.05000000000001 -17.499999999999996 30917.350000000002 22824.255000000001 0.30500000000000005 4.3500000000000005 11969.280000000001
decision_type=10 1 2 2 8 1 8 2 2 10 8 2 2 10
left_child=1 2 -1 -4 -3 6 -6 12 -7 10 -9 -12 -8 -5
right_child=-2 4 3 13 5 8 7 9 -10 -11 11 -13 -14 -15
leaf_value=1588.8590260747796 306.4910730486269 -709.57161202338511 344.00717408048558 -209.0522279106344 -475.02279062136176 8.408632982294387 3.5718265224106278 24.7505400307993 -151.81734994495656 -209.09739696061592 85.978209966686478 -88.342004378324376 725.7511707819325 -249.02625871039459
leaf_weight=31 33 423 28 65 62 31 22 29 606 43 20 77 20 102
leaf_count=31 33 423 28 65 62 31 22 29 606 43 20 77 20 102
internal_value=-0.00255025 -0.00275497 0.000508473 -0.00141026 -0.00328742 -0.00258242 -0.000229683 0.000924169 -0.00353169 -0.000266273 0.00095238 -0.00087629 0.00571428 -0.00290419
internal_weight=1592 1559 226 195 1333 910 273 211 637 169 126 97 42 167
internal_count=1592 1559 226 195 1333 910 273 211 637 169 126 97 42 167
cat_boundaries=0 1 2
cat_threshold=260 335921
is_linear=0
shrinkage=0.05


Tree=46
num_leaves=15
num_cat=2
split_feature=32 2 4 7 4 1 3 10 16 5 16 16 64 7
split_gain=1.0587 1.28068 1.75875 0.753463 0.688513 0.520042 0.8145 0.699344 0.476307 0.454127 0.543233 0.441481 1.15636 0.37216
threshold=9627.9050000000007 0 0.70000000000000007 78782.985000000015 0.11500000000000002 1 11.350000000000003 36.850000000000009 58499.24500000001 2.5000000000000004 37600.780000000006 36308.005000000005 34597.200000000004 195150.94500000004
decision_type=8 9 2 2 2 1 2 2 8 2 10 10 2 2
left_child=11 2 4 -4 -2 -6 7 -7 9 -9 -11 -1 -13 -3
right_child=1 13 3 -5 5 6 -8 8 -10 10 -12 12 -14 -15
leaf_value=-663.39001187121221 1360.4427764079621 -114.51413383478437 23.241561842196479 2645.1821021098622 -253.32881057503837 1636.991074357687 286.52200962854687 -39.374989651119527 -229.3399774048404 -27.677696817258621 15.58036076966782 188.25035320337562 -958.44161912498248 50.083272732162754
leaf_weight=621 23 454 22 20 103 24 25 34 98 21 36 20 54 37
leaf_count=621 23 454 22 20 103 24 25 34 98 21 36 20 54 37
internal_value=-0.00245603 -0.00132107 0.00076923 0.0104762 -0.000329672 -0.000894429 0.000443547 -0.000539907 -0.00156085 0.00104395 0.00377193 -0.00392086 -0.000270271 -0.00300399
internal_weight=1592 897 406 42 364 341 238 213 189 91 57 695 74 491
internal_count=1592 897 406 42 364 341 238 213 189 91 57 695 74 491
cat_boundaries=0 1 2
cat_threshold=2239157 3156
is_linear=0
shrinkage=0.05


Tree=47
num_leaves=15
num_cat=3
split_feature=33 1 18 2 7 5 32 37 43 10 0 3 32 24
split_gain=1.21217 0.995957 0.849717 0.815663 1.38128 0.650568 0.703247 0.624868 0.598344 0.598344 0.516038 0.633988 0.599368 0.705739
threshold=22265.635000000006 0 37241.275000000009 1 168005.96500000003 6.5000000000000009 13338.735000000002 3030.5922329322457 10743.130000000003 38.20000000000001 2 2.0500000000000003 10930.705000000002 28091.120000000006
decision_type=10 1 8 9 2 2 8 8 10 2 1 2 8 8
left_child=1 -1 -3 4 5 8 -7 -5 9 -4 11 -9 -13 -14
right_child=-2 2 3 7 -6 6 -8 10 -10 -11 -12 12 13 -15
leaf_value=-416.23384604929191 279.20481530315527 -569.83038771210215 523.6793733018925 17.737769169324295 681.88668784345884 440.39725353548386 -27.457441336481658 13.05956110060246 -227.63358766349526 -33.312802216704988 -125.4360493229733 -132.40394084858747 862.92859900439078 -16.477381253521891
leaf_weight=569 33 176 21 22 30 20 22 31 92 48 321 90 21 96
leaf_count=569 33 176 21 22 30 20 22 31 92 48 321 90 21 96
internal_value=-0.00236181 -0.00256254 -0.00155 -0.000884522 0.00158436 0.000172413 0.00571428 -0.00186971 -0.00127329 0.00224638 -0.00222719 -0.000362904 -0.00137681 0.000982905
internal_weight=1592 1559 990 814 233 203 42 581 161 69 559 238 207 117
internal_count=1592 1559 990 814 233 203 42 581 161 69 559 238 207 117
cat_boundaries=0 1 2 3
cat_threshold=3152 2368176 854022
is_linear=0
shrinkage=0.05


Tree=48
num_leaves=15
num_cat=3
split_feature=32 2 1 4 3 1 43 6 3 8 46 4 10 46
split_gain=1.29952 1.16747 1.03983 0.877756 1.45222 0.605895 0.859326 2.20909 0.59821 0.58211 0.625754 1.14405 0.318195 0.304997
threshold=11637.880000000003 0 1 0.68500000000000016 2.5500000000000003 2 12145.060000000001 1.0000000180025095e-35 9.6500000000000004 7.5000000000000009 1314.1050000000002 0.43500000000000005 36.850000000000009 578.59500000000014
decision_type=8 9 1 2 2 1 10 2 2 2 8 2 2 8
left_child=5 2 3 4 -2 6 7 -1 -6 10 11 -4 -12 -3
right_child=1 13 9 -5 8 -7 -8 -9 -10 -11 12 -13 -14 -15
leaf_value=194.55540896548064 1304.5443713946358 12.310747106111485 -10.832018646960464 2740.1134856724175 -35.670665162044337 -510.09539569251228 -130.33282044711186 -1444.3962173467423 320.73564505375634 -162.78121082642335 313.42867679567848 57.542946077957815 -200.97024780767322 -102.68493223566236
leaf_weight=20 32 27 35 21 73 677 89 24 20 66 25 21 70 392
leaf_count=20 32 27 35 21 73 677 89 24 20 66 25 21 70 392
internal_value=-0.00236181 -0.00090793 0.00116622 0.00429487 0.003 -0.00376543 -0.000454547 0.00522727 -0.000161292 -0.00103524 0.000629138 0.00482143 -0.00184211 -0.002669
internal_weight=1592 782 363 146 125 810 133 44 93 217 151 56 95 419
internal_count=1592 782 363 146 125 810 133 44 93 217 151 56 95 419
cat_boundaries=0 1 2 3
cat_threshold=2369247 533 14
is_linear=0
shrinkage=0.05


Tree=49
num_leaves=15
num_cat=2
split_feature=32 4 18 2 7 1 4 46 10 3 7 3 43 14
split_gain=1.19424 0.986668 0.890808 0.98515 1.12346 0.854599 1.05616 0.597489 0.589217 0.775624 0.540328 0.427637 0.39207 0.533864
threshold=6968.1150000000007 0.84500000000000008 37241.275000000009 0 84773.375000000015 1 0.28500000000000009 849.1450000000001 49.20000000000001 4.0500000000000007 195150.94500000004 5.3500000000000005 22895.620000000006 92.500000000000014
decision_type=8 2 8 9 2 1 2 8 2 2 2 2 8 2
left_child=-1 2 -2 4 5 8 -7 11 9 -4 -5 -8 -9 -14
right_child=1 -3 3 10 -6 6 7 12 -10 -11 -12 -13 13 -15
leaf_value=-987.50852055293785 -493.25152981689837 1206.0571875458324 1191.3217259506121 -71.869825801700912 -68.851540262722892 1399.4503981066036 41.213875887875169 -164.68375802105012 -211.78711174103702 -69.289552471584926 164.88921486567128 11.343863048306066 -232.53085312632709 81.553160743860829
leaf_weight=465 193 21 24 416 136 23 35 22 67 44 37 22 28 59
leaf_count=465 193 21 24 416 136 23 35 22 67 44 37 22 28 59
internal_value=-0.0023304 -0.00145076 -0.00165461 -0.00100219 0.000638297 0.00225309 0.00429648 0.00313253 -0.00086207 0.00235294 -0.00262419 0.0072807 0.000963302 0.00247126
internal_weight=1592 1127 1106 913 460 324 189 166 135 68 453 57 109 87
internal_count=1592 1127 1106 913 460 324 189 166 135 68 453 57 109 87
cat_boundaries=0 1 2
cat_threshold=8415991 3520
is_linear=0
shrinkage=0.05


Tree=50
num_leaves=15
num_cat=4
split_feature=1 7 32 2 1 5 4 46 63 43 32 34 2 46
split_gain=1.19624 1.11313 0.910904 1.04374 0.900584 1.35312 1.07669 0.648696 0.413065 0.392111 0.314921 0.241665 0.241125 0.255795
threshold=0 197512.05500000002 6968.1150000000007 1 2 3.5000000000000004 0.48500000000000004 498.75500000000005 11571.585000000001 11969.280000000001 10689.255000000001 15999.475000000002 3 918.61000000000013
decision_type=1 2 8 9 1 2 2 8 2 8 10 8 9 8
left_child=1 9 -2 4 -4 7 -7 -6 11 -1 -11 -5 13 -13
right_child=2 -3 3 8 5 6 -8 -9 -10 10 -12 12 -14 -15
leaf_value=118.10846250733726 -1002.3135104376587 1276.403704587864 -254.4287010467736 -482.67292599353181 14.14230276304229 1396.2445905431791 -12.689971318610521 -59.877326320920645 16.863990366207631 -415.26435917435111 5.9619622283085585 -12.782182733445399 -129.40224874031296 -56.118650246758776
leaf_weight=23 428 28 132 137 20 35 24 67 23 64 33 130 204 244
leaf_count=23 428 28 132 137 20 35 24 67 23 64 33 130 204 244
internal_value=-0.00226759 0.00196202 -0.00269601 -0.00189961 0.000729166 0.00333333 0.00940678 -0.0004023 -0.00286096 -1.19209e-09 -0.00139175 -0.00311189 -0.00266436 -0.00174479
internal_weight=1592 148 1444 1016 278 146 59 87 738 120 97 715 578 374
internal_count=1592 148 1444 1016 278 146 59 87 738 120 97 715 578 374
cat_boundaries=0 1 2 3 4
cat_threshold=132 8397489 3424 203970566
is_linear=0
shrinkage=0.05


Tree=51
num_leaves=15
num_cat=4
split_feature=33 0 1 24 5 3 33 1 2 17 5 12 43 3
split_gain=1.46 1.34344 2.13844 2.46924 1.05521 0.609058 0.439099 0.514448 0.635519 0.841558 0.530876 0.364942 0.324239 0.426685
threshold=10484.860000000002 0 1 15413.705000000002 4.5000000000000009 9.4500000000000011 11075.675000000001 2 3 54066.945000000007 5.5000000000000009 97.15000000000002 23061.715000000004 6.2500000000000009
decision_type=8 1 1 10 2 2 8 1 9 8 2 2 8 2
left_child=-1 2 3 -2 -5 11 -3 8 9 -8 -11 -4 -10 -14
right_child=1 6 5 4 -6 -7 7 -9 12 10 -12 -13 13 -15
leaf_value=-705.80060172750359 54.942272051306638 15.273372593257797 1.8749825722059232 785.71423724876979 853.27066706488699 160.00676070339165 9.3242946116425998 -191.98371614743726 -75.558995835895089 -33.718514742960359 202.01099887178722 -169.41944297399209 25.413217019576948 -235.27062488257212
leaf_weight=532 77 20 43 31 25 24 22 366 111 62 28 117 91 43
leaf_count=532 77 20 43 31 25 24 22 366 111 62 28 117 91 43
internal_value=-0.00220478 -0.00113208 0.00157492 0.00618881 0.0146429 -0.00190722 -0.00227756 -0.00251037 -0.00104905 0.00196721 -1.19209e-09 -0.003125 -0.00245098 -0.000895524
internal_weight=1592 1060 317 133 56 184 743 723 357 112 90 160 245 134
internal_count=1592 1060 317 133 56 184 743 723 357 112 90 160 245 134
cat_boundaries=0 1 2 3 4
cat_threshold=98357 566 421 289280
is_linear=0
shrinkage=0.05


Tree=52
num_leaves=15
num_cat=3
split_feature=1 32 2 7 26 1 33 29 24 13 4 11 17 46
split_gain=1.21344 0.893352 0.784929 0.714318 0.693423 0.490092 0.539458 0.44881 0.489366 0.579329 0.390934 0.91169 0.6967 0.695406
threshold=0 7009.4000000000005 1 197512.05500000002 20760.965000000004 2 17416.270000000004 755.38967435406346 19989.365000000002 102.85000000000001 0.49500000000000005 97.100000000000009 27834.650000000005 523.06500000000017
decision_type=1 8 9 2 8 1 10 10 10 2 2 2 10 10
left_child=3 -2 -3 7 -4 -6 10 8 9 -1 11 -7 -12 -13
right_child=1 2 4 -5 5 6 -8 -9 -10 -11 12 13 -14 -15
leaf_value=-282.83341855316218 -944.12428882007555 -99.065349766578777 -444.41497891733837 1210.2793406309454 -352.47044501123537 1290.430448718324 34.900546476445825 -437.86386269784708 152.41541823965096 138.09428758305475 -51.338761467742486 119.04244595349037 2.0748047026436565 -44.960644175787479
leaf_weight=31 432 448 79 28 117 21 39 29 22 38 118 87 29 74
leaf_count=31 432 448 79 28 117 21 39 29 22 38 118 87 29 74
internal_value=-0.002299 -0.0027304 -0.00193676 0.00196202 -0.0006446 5.15452e-05 0.00095238 0.000416665 0.00214286 7.24626e-05 0.000319148 0.00186813 -0.00159864 0.000590061
internal_weight=1592 1444 1012 148 564 485 368 120 91 69 329 182 147 161
internal_count=1592 1444 1012 148 564 485 368 120 91 69 329 182 147 161
cat_boundaries=0 1 2 3
cat_threshold=132 87523692 3136
is_linear=0
shrinkage=0.05


Tree=53
num_leaves=15
num_cat=3
split_feature=1 3 3 32 17 1 0 33 46 43 4 12 12 43
split_gain=1.19624 1.38039 1.9644 1.45587 0.981692 0.789573 0.805431 1.53409 0.47087 0.842977 0.645619 0.576726 0.374026 0.354768
threshold=0 3.6500000000000008 5.8500000000000005 4523.5550000000012 36943.370000000003 1 2 17416.270000000004 753.44000000000017 18386.115000000002 0.49500000000000005 96.050000000000011 103.05000000000001 29892.445000000003
decision_type=1 2 2 10 8 1 1 10 10 10 2 2 2 8
left_child=1 -1 3 -3 -2 -6 7 8 10 -10 11 -7 -13 -8
right_child=4 2 -4 -5 5 6 13 -9 9 -11 -12 12 -14 -15
leaf_value=-263.81950113096138 -447.76413155478707 349.00893795766598 -47.57854094712048 785.72785120761398 -335.79414587087871 128.55983909524224 -49.452346418069681 151.40427841558309 -34.527913838949388 113.98712088583835 -63.056226039389074 -144.36778020254181 2102.0705802451043 -3.0390034259193675
leaf_weight=64 528 21 32 31 308 21 232 24 26 20 74 35 20 156
leaf_count=64 528 21 32 31 308 21 232 24 26 20 74 35 20 156
internal_value=-0.00226759 0.00196202 0.00630952 0.0123077 -0.00269601 -0.00172489 -0.000631069 0.00173913 0.000357142 0.00478261 -0.001 0.00223684 -0.000454547 -0.00198493
internal_weight=1592 148 84 52 1444 916 608 220 196 46 150 76 55 388
internal_count=1592 148 84 52 1444 916 608 220 196 46 150 76 55 388
cat_boundaries=0 1 2 3
cat_threshold=6 3144 68049
is_linear=0
shrinkage=0.05


Tree=54
num_leaves=15
num_cat=3
split_feature=17 9 2 1 7 5 3 5 2 29 10 32 10 9
split_gain=1.2504 1.2416 0.901039 0.991534 0.783418 0.864182 0.971474 0.468085 0.460809 0.434483 0.651074 0.377468 0.393197 0.319667
threshold=25979.785000000003 19.500000000000004 0 1 91309.780000000013 3.5000000000000004 5.3500000000000005 1.0000000180025095e-35 2 1342.1692111037207 75.550000000000011 12901.285000000002 53.800000000000004 -8.4999999999999982
decision_type=8 2 9 1 2 2 2 2 9 10 2 8 2 2
left_child=-1 2 13 4 5 7 -7 -4 -5 10 11 -10 -13 -2
right_child=1 -3 3 8 -6 6 -8 -9 9 -11 -12 12 -14 -15
leaf_value=-652.92987613906985 -2.2097396616055862 823.92520370658735 487.94827768352837 -138.57667553248132 -45.274014488025422 1047.5536909837451 103.59481443382229 -95.713665771042415 -218.89384089170886 -427.64735938376043 24.441588637980043 152.21250896043895 -202.07378290888909 -129.98799057817678
leaf_weight=400 60 36 25 242 52 22 37 22 39 36 51 35 49 486
leaf_count=400 60 36 25 242 52 22 37 22 39 36 51 35 49 486
internal_value=-0.00245603 -0.0016443 -0.00192907 -0.000564517 0.00273809 0.00537736 0.00940678 0.000319148 -0.00175325 -1.13791e-09 0.00103448 -0.000934961 0.00095238 -0.0033813
internal_weight=1592 1192 1156 610 158 106 59 47 452 210 174 123 84 546
internal_count=1592 1192 1156 610 158 106 59 47 452 210 174 123 84 546
cat_boundaries=0 1 2 3
cat_threshold=223468872 21 2105397
is_linear=0
shrinkage=0.05


Tree=55
num_leaves=15
num_cat=3
split_feature=32 7 34 21 0 1 4 4 13 1 13 43 6 5
split_gain=1.07681 1.05535 0.94746 0.905809 0.736807 1.34084 1.69225 0.6016 0.75188 0.262392 0.675061 0.462615 0.260407 0.258586
threshold=6968.1150000000007 260547.40500000006 15999.475000000002 7946.4591412918771 0 1 0.39500000000000007 0.71500000000000008 101.05000000000001 2 101.85000000000001 13068.515000000001 1.0000000180025095e-35 2.5000000000000004
decision_type=8 2 8 8 1 1 2 2 2 1 2 10 2 2
left_child=-1 2 -2 -4 5 6 -5 8 -8 10 11 -6 13 -7
right_child=1 -3 3 4 9 12 7 -9 -10 -11 -12 -13 -14 -15
leaf_value=-798.89604516002578 -379.59575827926227 1386.0706777607231 15.451693581714824 1237.3693797063681 -84.086691923612022 -76.991356330191437 267.73992659898465 307.16115473186943 -599.68625616267525 -50.263439515259485 -123.1657942638908 14.78721693516726 -190.1206620348498 8.0574312866412665
leaf_weight=465 232 26 21 25 22 24 21 21 36 456 101 24 52 66
leaf_count=465 232 26 21 25 22 24 21 21 36 456 101 24 52 66
internal_value=-0.0023304 -0.00149512 -0.00173025 -0.000972383 -0.00122642 0.00107843 0.00517699 0.00205128 -0.000614036 -0.00214519 -0.000222931 0.00478261 -0.00203947 -0.000555557
internal_weight=1592 1127 1101 869 848 245 103 78 57 603 147 46 142 90
internal_count=1592 1127 1101 869 848 245 103 78 57 603 147 46 142 90
cat_boundaries=0 1 2 3
cat_threshold=66101 2581 288
is_linear=0
shrinkage=0.05


Tree=56
num_leaves=15
num_cat=3
split_feature=17 1 2 1 4 43 3 51 46 5 4 7 46 24
split_gain=1.35438 1.42645 0.689186 0.951337 1.24365 0.686287 0.623621 0.592818 0.518571 0.511013 0.388889 0.678788 0.327581 0.606297
threshold=21855.485000000004 0 1 2 0.28500000000000009 16833.365000000002 3.7500000000000004 2207.7800000000007 696.8850000000001 2.5000000000000004 0.50500000000000012 80391.570000000022 388.84500000000008 14099.245000000001
decision_type=8 1 9 1 2 10 2 8 10 2 2 2 8 8
left_child=-1 7 3 -3 -5 6 -6 8 -2 -7 -9 -12 -4 -14
right_child=1 2 12 4 5 9 -8 10 -10 -11 11 -13 13 -15
leaf_value=-879.59439106300783 412.28937254258983 -369.52247285217095 -263.47997491315476 1102.0294579618155 126.71132259042088 -19.310228268359204 -297.43035525651413 -372.05026824915058 95.21854256021912 116.37511867833001 -385.11083769959907 952.5398168605069 21.503711030807704 -72.068973449211697
leaf_weight=307 35 105 152 25 25 23 67 21 25 36 22 20 23 706
leaf_count=307 35 105 152 25 25 23 67 21 25 36 22 20 23 706
internal_value=-0.00201633 -0.0013035 -0.001843 0.000326459 0.00252688 0.000960264 -0.00173913 0.00364662 0.0075 0.00516949 0.000555554 0.00333333 -0.00253087 -0.00211934
internal_weight=1592 1285 1162 281 176 151 92 123 60 59 63 42 881 729
internal_count=1592 1285 1162 281 176 151 92 123 60 59 63 42 881 729
cat_boundaries=0 1 2 3
cat_threshold=132 8921233 3392
is_linear=0
shrinkage=0.05


Tree=57
num_leaves=15
num_cat=3
split_feature=1 0 4 3 2 51 18 46 13 33 17 5 14 10
split_gain=1.27865 1.16765 1.19761 1.72857 0.639033 0.811046 0.604131 1.32725 0.493844 0.394572 0.591409 0.326059 0.53208 0.418008
threshold=0 1 0.53500000000000014 3.2500000000000004 2 8037.7300000000005 84457.510000000024 1296.5300000000002 101.60000000000001 15846.330000000002 54066.945000000007 5.5000000000000009 98.300000000000026 35.250000000000007
decision_type=1 1 2 2 9 10 8 10 2 8 8 2 2 2
left_child=-1 2 8 -4 5 6 -3 11 -2 -6 -11 13 -13 -8
right_child=1 4 3 -5 9 -7 7 -9 -10 10 -12 12 -14 -15
leaf_value=-339.97733070763246 113.32064594211805 -195.94325346830848 -414.36066902876883 778.2449671985903 -271.67528569522131 134.31577408080838 62.620155059804517 275.59211291550747 -92.415068611058629 9.8050542317816465 -57.643455672335961 15.371829970016421 -24.151981715463954 -131.1461655781828
leaf_weight=684 25 74 20 36 189 20 22 28 43 22 249 28 51 101
leaf_count=684 25 74 20 36 189 20 22 28 43 22 249 28 51 101
internal_value=-0.00201633 -0.000751635 0.00358209 0.00928571 -0.00147355 0.00023952 -0.000394738 0.000869564 -0.000588236 -0.00265958 -0.00149447 -0.000544556 0.00196202 -0.00215447
internal_weight=1592 908 124 56 784 324 304 230 68 460 271 202 79 123
internal_count=1592 908 124 56 784 324 304 230 68 460 271 202 79 123
cat_boundaries=0 1 2 3
cat_threshold=3656 32788 19740833
is_linear=0
shrinkage=0.05


Tree=58
num_leaves=15
num_cat=2
split_feature=17 1 43 13 4 5 46 2 9 8 46 4 33 11
split_gain=1.43502 1.29539 1.08137 0.824264 0.81542 0.793956 0.523192 0.514654 0.574889 0.606561 0.406572 0.475494 0.549581 0.485891
threshold=24189.505000000001 0 19571.430000000004 93.850000000000009 0.59500000000000008 5.5000000000000009 466.81000000000006 1 -9.9999999999999982 7.5000000000000009 621.12 0.53500000000000014 36577.695000000007 100.75000000000001
decision_type=8 1 10 2 2 2 8 9 2 2 8 2 8 2
left_child=-1 2 5 -3 -4 -2 -5 8 -8 10 -10 12 -12 -14
right_child=1 3 4 6 -6 -7 7 -9 9 -11 11 -13 13 -15
leaf_value=-644.15669384019384 -226.21804223388983 26.533472649227193 505.39524948230149 -341.42741459648806 2193.1681024144104 202.50424998735264 52.318244811567141 -82.492221756742666 106.5490888714186 -352.43302009668309 -73.515929664583183 -24.177315387438131 16.647402993201975 302.73149693406151
leaf_weight=367 63 31 23 226 20 28 37 412 26 117 69 69 66 38
leaf_count=367 63 31 23 226 20 28 37 412 26 117 69 69 66 38
internal_value=-0.00198493 -0.00116327 0.00333333 -0.00173025 0.0101163 0.000494504 -0.00198113 -0.00140288 -0.00013889 -0.000714287 0.000597014 -4.13235e-05 0.00135838 0.00365384
internal_weight=1592 1225 134 1091 43 91 1060 834 422 385 268 242 173 104
internal_count=1592 1225 134 1091 43 91 1060 834 422 385 268 242 173 104
cat_boundaries=0 1 2
cat_threshold=20 932507
is_linear=0
shrinkage=0.05


Tree=59
num_leaves=15
num_cat=3
split_feature=1 7 9 9 18 0 11 43 12 46 24 2 5 16
split_gain=1.26621 1.1649 2.46711 1.02932 0.904433 0.961457 0.888889 0.606738 1.13778 0.50125 1.03318 0.467128 0.780074 0.417705
threshold=0 168005.96500000003 15.500000000000002 -9.9999999999999982 37241.275000000009 1 96.300000000000011 13119.005000000003 99.550000000000026 700.43000000000018 35027.855000000003 2 5.5000000000000009 20225.745000000006
decision_type=1 2 2 2 8 1 2 8 2 8 8 9 2 8
left_child=11 4 3 -3 -2 6 -6 8 -8 -9 -11 12 -1 -7
right_child=1 2 -4 -5 5 13 7 9 -10 10 -12 -13 -14 -15
leaf_value=-463.58823168187973 -422.50415699314493 41.249866974812271 1785.6869686531595 -465.90694039690317 495.42811194318756 -757.81574041506076 -114.48850391723566 -395.15397546453733 63.679163814685445 19.837788687025064 -74.57036564663909 -326.95489542089877 547.74191969473384 -11.865931444444417
leaf_weight=68 170 20 20 56 25 88 25 44 20 27 84 476 32 437
leaf_count=68 170 20 20 56 25 88 25 44 20 27 84 476 32 437
internal_value=-0.00195352 -0.000857701 0.004375 0.000263157 -0.00141304 -0.000666668 0.00202128 0.000999999 0.00611111 -0.000483872 0.00130631 -0.00380546 -0.000454547 -0.00182243
internal_weight=1592 1016 96 76 920 750 225 200 45 155 111 576 100 525
internal_count=1592 1016 96 76 920 750 225 200 45 155 111 576 100 525
cat_boundaries=0 1 2 3
cat_threshold=3152 102576 17301639
is_linear=0
shrinkage=0.05


Tree=60
num_leaves=15
num_cat=3
split_feature=1 20 0 5 32 43 5 3 2 18 3 3 12 4
split_gain=1.29662 0.935705 0.949714 1.60328 1.67421 0.672028 1.17333 0.753951 0.617011 0.506462 0.493744 0.990637 0.4453 0.438217
threshold=0 39578.163333333338 1 1.0000000180025095e-35 4523.5550000000012 14829.845000000001 6.5000000000000009 11.350000000000003 2 53147.570000000007 6.5500000000000007 5.3500000000000005 96.40000000000002 0.13500000000000004
decision_type=1 8 1 2 10 8 2 2 9 8 2 2 2 2
left_child=13 -2 3 4 -3 6 -5 -7 10 -10 11 12 -4 -1
right_child=1 2 8 5 -6 7 -8 -9 9 -11 -12 -13 -14 -15
leaf_value=673.5941058407019 -374.60054444445518 -20.755513114679488 220.97806325327994 -122.736038026708 399.71440126232341 -72.659115778787154 158.54007448389939 218.11117839842257 21.95279224446573 -143.86573643341873 -325.88230969308688 35.431961404353821 -13.061885202973698 -312.17893854855822
leaf_weight=28 163 22 33 25 31 123 30 20 20 332 48 25 144 548
leaf_count=28 163 22 33 25 31 123 30 20 20 332 48 25 144 548
internal_value=-0.00201633 -0.000906434 -0.000252053 0.00227969 0.0100943 0.000303029 0.005 -0.0015035 -0.00132353 -0.00265193 0.000576922 0.00168317 0.00036723 -0.00389079
internal_weight=1592 1016 853 251 53 198 55 143 602 352 250 202 177 576
internal_count=1592 1016 853 251 53 198 55 143 602 352 250 202 177 576
cat_boundaries=0 1 2 3
cat_threshold=3152 114836 134685346
is_linear=0
shrinkage=0.05


Tree=61
num_leaves=15
num_cat=4
split_feature=17 1 0 46 37 24 3 16 2 51 5 11 6 0
split_gain=1.26626 0.843035 0.94066 1.08871 1.68368 0.912972 0.812413 1.07016 0.568561 0.794889 0.930042 0.472588 0.75 0.432216
threshold=22416.900000000005 0 1 1244.1900000000003 2995.4477234369592 20210.290000000005 5.5500000000000007 22307.835000000003 2 8037.7300000000005 5.5000000000000009 102.85000000000001 1.0000000180025095e-35 3
decision_type=8 1 1 10 10 8 2 10 9 8 2 2 2 1
left_child=-1 13 3 5 -5 6 7 -3 9 11 -11 12 -4 -2
right_child=1 2 8 4 -6 -7 -8 -9 -10 10 -12 -13 -14 -15
leaf_value=-721.46486319204223 -22.568082590772011 -139.44003826385389 12.892886120332992 412.44963220610526 -482.30767902709488 -25.573045652503112 -194.92111136213612 288.22712704050605 -134.37845531745651 5.8206152944032032 793.458420645655 -88.85383014475201 -365.6917753031077 -308.57825125180034
leaf_weight=322 213 21 28 39 23 210 37 34 239 51 22 93 21 239
leaf_count=322 213 21 28 39 23 210 37 34 239 51 22 93 21 239
internal_value=-0.00173367 -0.00102362 -4.83104e-05 0.00181818 0.00790322 0.000629138 0.00478261 0.00863636 -0.00155173 0.000333332 0.00458904 -0.00183099 0.00214286 -0.00272727
internal_weight=1592 1270 818 364 62 302 92 55 454 215 73 142 49 452
internal_count=1592 1270 818 364 62 302 92 55 454 215 73 142 49 452
cat_boundaries=0 1 2 3 4
cat_threshold=3272 109205 136450722 357425
is_linear=0
shrinkage=0.05


Tree=62
num_leaves=15
num_cat=4
split_feature=1 5 5 17 1 4 0 17 0 43 32 24 8 5
split_gain=1.55809 1.38489 1.47701 1.14097 0.850682 1.08986 0.626642 0.719241 0.430288 0.393685 0.384854 0.372407 0.467649 0.381012
threshold=0 1.0000000180025095e-35 6.5000000000000009 37316.99500000001 1 0.11500000000000002 2 51783.095000000008 3 14866.940000000001 20054.885000000002 19553.925000000003 7.5000000000000009 3.5000000000000004
decision_type=1 2 2 8 1 2 1 8 1 10 8 8 2 2
left_child=1 -1 -3 -2 8 -6 10 -8 -5 11 -7 -9 13 -13
right_child=3 2 -4 4 5 6 7 9 -10 -11 -12 12 -14 -15
leaf_value=543.81619733539776 -322.02527120697818 -138.01539087110652 219.95708661870063 -8.3233774306324495 812.45367883036351 -241.3683249015414 11.421434870720027 110.15453454383857 -216.20139702319958 -26.014333728400146 -55.109788176802809 -25.88194641629012 -354.36157712424119 266.68305373079136
leaf_weight=36 535 84 20 120 22 112 35 24 279 94 108 37 40 46
leaf_count=36 535 84 20 120 22 112 35 24 279 94 108 37 40 46
internal_value=-0.00192211 0.003 0.00028846 -0.00240082 -0.00134678 1.89382e-05 -0.000463711 0.00111888 -0.00304401 0.000186721 -0.00239131 0.00180272 0.000691056 0.00283132
internal_weight=1592 140 104 1452 917 518 496 276 399 241 220 147 123 83
internal_count=1592 140 104 1452 917 518 496 276 399 241 220 147 123 83
cat_boundaries=0 1 2 3 4
cat_threshold=12 3170 956457 337923
is_linear=0
shrinkage=0.05


Tree=63
num_leaves=15
num_cat=3
split_feature=1 4 5 32 17 2 16 6 33 3 4 33 1 5
split_gain=1.15543 1.45833 1.40167 1.09934 0.637357 0.573715 0.987181 0.6928 0.907258 0.822968 0.70818 0.546746 0.361527 0.719748
threshold=0 0.68500000000000016 6.5000000000000009 8898.340000000002 37500.560000000005 1 30089.500000000004 1.0000000180025095e-35 15846.330000000002 3.0500000000000003 0.38500000000000006 4175.6850000000004 2 5.5000000000000009
decision_type=1 2 2 8 10 9 8 2 8 2 2 10 1 2
left_child=1 2 11 4 -2 6 -5 8 -8 10 -10 -1 13 -7
right_child=3 -3 -4 5 -6 12 7 -9 9 -11 -12 -13 -14 -15
leaf_value=-523.6049870789974 -546.30135033082877 1936.0351708193944 208.9592322877657 34.255805196377956 4.7181252687183308 -38.734682275858432 -133.28431665674239 -313.61589243304769 1505.7960216718359 -2.3224107467453989 14.295319584879358 14.497902474893397 -73.771846684208413 175.53208542852522
leaf_weight=72 544 20 20 39 32 78 45 129 23 96 36 28 394 36
leaf_count=72 544 20 20 39 32 78 45 129 23 96 36 28 394 36
internal_value=-0.00192211 0.00233333 0.000416665 -0.00233242 -0.00404514 -0.00123288 0.000291004 -0.000592706 0.00125 0.00306451 0.00771186 -0.002 -0.0022973 0.000241934
internal_weight=1592 140 120 1452 576 876 368 329 200 155 59 100 508 114
internal_count=1592 140 120 1452 576 876 368 329 200 155 59 100 508 114
cat_boundaries=0 1 2 3
cat_threshold=12 151675539 642
is_linear=0
shrinkage=0.05


Tree=64
num_leaves=15
num_cat=4
split_feature=17 13 1 0 4 43 29 43 5 1 11 14 2 9
split_gain=1.18249 1.009 0.819727 1.73209 1.31685 0.76087 0.674535 0.58509 0.51105 0.695635 1.55313 0.800395 0.460944 0.670352
threshold=22416.900000000005 92.750000000000014 0 1 0.71500000000000008 12934.035000000002 1035.8829380011339 29892.445000000003 5.5000000000000009 2 101.75000000000001 103.2 3 -9.9999999999999982
decision_type=8 2 1 1 2 8 8 8 2 1 2 2 9 2
left_child=-1 -2 3 4 5 -3 -4 -7 12 10 -10 -12 13 -8
right_child=1 2 6 -5 -6 7 8 -9 9 -11 11 -13 -14 -15
leaf_value=-647.81011159940454 49.023495145048315 319.5113765952778 15.934059665816267 -57.23319603476471 1578.6524832739042 -395.02060819468375 121.43736335038705 174.48892073908277 -46.244339212469534 -69.699294824660981 397.15240697474741 4.5080956650443555 -170.423958813448 -58.246475170381473
leaf_weight=322 20 21 21 133 23 36 20 33 45 271 32 23 356 236
leaf_count=322 20 21 21 133 23 36 20 33 45 271 32 23 356 236
internal_value=-0.00182789 -0.00114173 -0.00132 0.00125 0.0055691 0.00333333 -0.0019428 0.0007971 -0.00215158 -0.000687333 0.00272727 0.00863636 -0.00303922 -0.0012406
internal_weight=1592 1270 1250 246 113 90 1004 69 983 371 100 55 612 256
internal_count=1592 1270 1250 246 113 90 1004 69 983 371 100 55 612 256
cat_boundaries=0 1 2 3 4
cat_threshold=5 34518 154 78123242
is_linear=0
shrinkage=0.05


Tree=65
num_leaves=15
num_cat=3
split_feature=1 5 5 33 2 12 9 12 32 29 43 32 11 1
split_gain=1.55809 1.38489 0.934157 0.886957 0.786439 0.664752 0.56322 0.518006 0.492428 0.52726 0.510526 0.850078 0.788479 0.480759
threshold=0 1.0000000180025095e-35 6.5000000000000009 6963.3650000000007 1 93.800000000000011 -9.9999999999999982 96.40000000000002 7587.8850000000011 1107.6557275130701 20304.005000000001 12969.885000000002 103.30000000000003 2
decision_type=1 2 2 8 9 2 2 2 8 10 10 10 2 1
left_child=1 -1 7 -2 6 -6 -5 -3 -7 10 13 -12 -13 -10
right_child=3 2 -4 4 5 8 -8 -9 9 -11 11 12 -14 -15
leaf_value=340.89100476396419 -765.15673447180848 21.782041048572673 196.71085662022381 19.277609714684573 30.558181392696852 -498.65312914490079 -90.756226755211316 -250.79233694628357 18.85053073014582 -149.97132751910308 -29.703992614660052 146.76814229873742 -5.38410903532235 -151.9683483757666
leaf_weight=36 301 20 20 30 30 106 473 64 129 102 42 26 23 190
leaf_count=36 301 20 20 30 30 106 473 64 129 102 42 26 23 190
internal_value=-0.00192211 0.003 0.00028846 -0.00240082 -0.00178541 -0.000592706 -0.00324562 -0.00202381 -0.000954694 -0.000312501 0.000487804 0.00379121 0.0082653 -0.000454547
internal_weight=1592 140 104 1452 1151 648 503 84 618 512 410 91 49 319
internal_count=1592 140 104 1452 1151 648 503 84 618 512 410 91 49 319
cat_boundaries=0 1 2 3
cat_threshold=12 22535944 2563
is_linear=0
shrinkage=0.05


Tree=66
num_leaves=15
num_cat=1
split_feature=13 16 2 7 3 16 33 11 33 9 46 12 37 48
split_gain=1.15764 1.0612 1.20556 0.970178 0.987446 0.597473 0.850386 0.632788 0.512903 0.501281 0.812417 0.38357 0.444481 0.320123
threshold=92.750000000000014 24016.530000000002 0 221635.00000000003 2.7500000000000004 28729.320000000003 10484.860000000002 100.95 8174.0700000000006 -9.9999999999999982 729.72000000000014 97.050000000000011 1895.3071946044433 88.209955450724252
decision_type=2 8 9 2 2 8 8 2 10 2 10 2 8 10
left_child=-1 8 3 4 -3 6 -4 -8 -2 10 -7 -6 -13 -11
right_child=1 2 5 -5 11 9 7 -9 -10 13 -12 12 -14 -15
leaf_value=45.044411318161025 -631.99501565914716 727.67910874250356 -199.50274800428028 366.4315267838424 31.25216523255855 -419.51126877214392 -72.631607551608354 71.341445880947774 56.078076824597332 -46.331963147856158 30.43759913543126 9.548646154533122 -43.590273826570154 -196.61785991554785
leaf_weight=20 433 38 65 24 26 32 23 33 26 577 26 21 99 149
leaf_count=20 433 38 65 24 26 32 23 33 26 577 26 21 99 149
internal_value=-0.00195352 -0.0021056 -0.00127134 0.00211009 0.00097826 -0.00204918 0.00119835 0.00571428 -0.00412854 -0.00257653 0.00189655 -0.000890412 -0.00208333 -0.00293389
internal_weight=1592 1572 1113 208 184 905 121 56 459 784 58 146 120 726
internal_count=1592 1572 1113 208 184 905 121 56 459 784 58 146 120 726
cat_boundaries=0 1
cat_threshold=2621571
is_linear=0
shrinkage=0.05


Tree=67
num_leaves=15
num_cat=3
split_feature=1 32 33 46 0 18 46 2 32 9 5 43 7 25
split_gain=1.70683 1.19861 1.9883 0.88602 0.927756 0.924889 0.911782 0.82108 0.845434 1.18918 0.6716 0.465408 0.433333 0.404196
threshold=0 2226.9800000000005 10484.860000000002 456.53000000000003 1 36227.875000000007 543.00500000000011 2 25824.315000000006 -9.9999999999999982 1.5000000000000002 13119.005000000003 63047.100000000006 20210.290000000005
decision_type=1 10 8 8 1 8 8 9 10 2 2 8 2 8
left_child=1 -1 -3 -2 -5 -6 -7 8 9 -8 -4 -9 13 -11
right_child=3 2 10 4 5 6 7 11 -10 12 -12 -13 -14 -15
leaf_value=-622.19933205053769 -357.33780686048908 -20.92045307031087 1591.3733267886914 -97.917872214686724 -395.55300630091938 16.279920654813139 230.97388947326837 10.775210319983334 350.82632929966161 -299.72936901363647 238.04508917104337 -76.331866156164068 -408.56187556940728 151.81006249878658
leaf_weight=56 433 45 24 340 111 39 24 36 21 20 23 245 65 110
leaf_count=56 433 45 24 340 111 39 24 36 21 20 23 245 65 110
internal_value=-0.00176508 0.00322785 0.00695652 -0.00228336 -0.00148863 -0.000374451 0.000446427 -0.000105567 0.002 0.00116438 0.0141489 -0.00190722 -0.000128206 0.00153846
internal_weight=1592 148 92 1444 1011 671 560 521 240 219 47 281 195 130
internal_count=1592 148 92 1444 1011 671 560 521 240 219 47 281 195 130
cat_boundaries=0 1 2 3
cat_threshold=6 186888 529055
is_linear=0
shrinkage=0.05


Tree=68
